<?xml version="1.0"?>
<opencv_storage>
<cascade>
  <stageType>BOOST</stageType>
  <featureType>LBP</featureType>
  <height>24</height>
  <width>24</width>
  <stageParams>
    <boostType>GAB</boostType>
    <minHitRate>9.9900001287460327e-001</minHitRate>
    <maxFalseAlarm>5.0000000000000000e-001</maxFalseAlarm>
    <weightTrimRate>9.4999999999999996e-001</weightTrimRate>
    <maxDepth>1</maxDepth>
    <maxWeakCount>100</maxWeakCount></stageParams>
  <featureParams>
    <maxCatCount>256</maxCatCount>
    <featSize>1</featSize></featureParams>
  <stageNum>20</stageNum>
  <stages>
    <!-- stage 0 -->
    <_>
      <maxWeakCount>9</maxWeakCount>
      <stageThreshold>-1.3594537973403931e+000</stageThreshold>
      <weakClassifiers>
        <_>
          <internalNodes>
            0 -1 125 -784272756 -749338785 855711744 937108354
            1097130893 1367356081 353633039 1460994827</internalNodes>
          <leafValues>
            -5.2464497089385986e-001 6.9103342294692993e-001</leafValues></_>
        <_>
          <internalNodes>
            0 -1 55 -285212817 -1360007185 -356522014 -353439762
            1935636295 1669332855 -134777081 -150995097</internalNodes>
          <leafValues>
            -3.9943620562553406e-001 6.2813335657119751e-001</leafValues></_>
        <_>
          <internalNodes>
            0 -1 445 -268435665 183500783 -286786782 -1360019506
            2010609221 1166016355 -134253228 -134217865</internalNodes>
          <leafValues>
            -4.1465607285499573e-001 5.7240295410156250e-001</leafValues></_>
        <_>
          <internalNodes>
            0 -1 76 -782965768 -70246580 -208228132 -141496072
            1073242556 1565527480 -307281464 2074628012</internalNodes>
          <leafValues>
            -5.2414667606353760e-001 4.3581467866897583e-001</leafValues></_>
        <_>
          <internalNodes>
            0 -1 78 -89 -823148657 -55684382 -1427177489 2113890119
            2004877183 -151034284 -152764555</internalNodes>
          <leafValues>
            -4.2978715896606445e-001 4.9200633168220520e-001</leafValues></_>
        <_>
          <internalNodes>
            0 -1 201 -799755880 -204102761 18043679 -168307913
            -758996053 -241061654 1073995514 936354671</internalNodes>
          <leafValues>
            -5.2046108245849609e-001 4.1347366571426392e-001</leafValues></_>
        <_>
          <internalNodes>
            0 -1 451 1073736963 1877999471 -222314784 -1568753666
            -35160219 568852287 -185108716 -201326731</internalNodes>
          <leafValues>
            -4.2654454708099365e-001 4.8537722229957581e-001</leafValues></_>
        <_>
          <internalNodes>
            0 -1 89 -1033851158 -547502341 -411881531 2143230847
            -1165966739 1941641917 513467903 524224007</internalNodes>
          <leafValues>
            -5.0322842597961426e-001 4.2632970213890076e-001</leafValues></_>
        <_>
          <internalNodes>
            0 -1 69 -67125425 1726873069 -218174814 -218185745
            1474786631 2004835701 -134219980 -136970250</internalNodes>
          <leafValues>
            -4.2236652970314026e-001 4.6659609675407410e-001</leafValues></_></weakClassifiers></_>
    <!-- stage 1 -->
    <_>
      <maxWeakCount>14</maxWeakCount>
      <stageThreshold>-1.5623085498809814e+000</stageThreshold>
      <weakClassifiers>
        <_>
          <internalNodes>
            0 -1 15 -171115576 -179211280 -1790933244 -682511965
            -1059994632 1374953632 1162727375 2010588047</internalNodes>
          <leafValues>
            -2.8890416026115417e-001 6.8288898468017578e-001</leafValues></_>
        <_>
          <internalNodes>
            0 -1 48 -285212689 -286261265 -391150590 -487594266
            -470288633 1163386659 -412093629 -134217753</internalNodes>
          <leafValues>
            -2.7976891398429871e-001 6.8478286266326904e-001</leafValues></_>
        <_>
          <internalNodes>
            0 -1 450 -17 -957366289 -243799550 -385876225 -67113466
            1096806079 -134225083 -134219817</internalNodes>
          <leafValues>
            -3.1810131669044495e-001 5.9342449903488159e-001</leafValues></_>
        <_>
          <internalNodes>
            0 -1 305 521147901 -1078894595 -2211841 -1612785796
            -541311494 -1704196 -1648445191 -1198515072</internalNodes>
          <leafValues>
            -3.3733031153678894e-001 5.0118994712829590e-001</leafValues></_>
        <_>
          <internalNodes>
            0 -1 21 1473612652 -572842033 -1284009249 2012835823
            -758718737 502603460 2017425391 2145222635</internalNodes>
          <leafValues>
            -4.0499702095985413e-001 4.0741375088691711e-001</leafValues></_>
        <_>
          <internalNodes>
            0 -1 70 -437261457 -2035364369 -220290834 -486609153
            -1214641 1464195917 1683187303 -159908009</internalNodes>
          <leafValues>
            -4.0464404225349426e-001 4.2313483357429504e-001</leafValues></_>
        <_>
          <internalNodes>
            0 -1 319 18092505 -1443395 -268484621 -4334107 1973551103
            -25182241 -65741 -1644419712</internalNodes>
          <leafValues>
            -3.6688521504402161e-001 4.0955609083175659e-001</leafValues></_>
        <_>
          <internalNodes>
            0 -1 210 -135227403 -85215265 1965363886 -1610891281
            1683542903 1371779527 811664186 358034111</internalNodes>
          <leafValues>
            -4.1822421550750732e-001 3.7057822942733765e-001</leafValues></_>
        <_>
          <internalNodes>
            0 -1 128 -671088785 -353501201 -176179382 -521144593
            -302516353 -506791961 -68700409 -268697649</internalNodes>
          <leafValues>
            -2.6627519726753235e-001 5.7706081867218018e-001</leafValues></_>
        <_>
          <internalNodes>
            0 -1 316 1983381372 -1793929816 -409774248 -136381860
            -1532399816 260944340 426641528 -1935876976</internalNodes>
          <leafValues>
            -4.3952739238739014e-001 3.5979560017585754e-001</leafValues></_>
        <_>
          <internalNodes>
            0 -1 34 -405798929 -1501056280 -1058061566 -227541021
            2003267404 961019763 -724077193 -721948857</internalNodes>
          <leafValues>
            -2.9667782783508301e-001 5.0301498174667358e-001</leafValues></_>
        <_>
          <internalNodes>
            0 -1 120 1367629226 -1279290745 1678120766 -747023113
            -1786993333 1993090944 -1813594627 -419482917</internalNodes>
          <leafValues>
            -4.0404275059700012e-001 3.6724951863288879e-001</leafValues></_>
        <_>
          <internalNodes>
            0 -1 419 -268453077 584052655 1945423920 -489431811
            2142742307 1141833076 -185379024 -708317574</internalNodes>
          <leafValues>
            -3.5417971014976501e-001 4.1509538888931274e-001</leafValues></_>
        <_>
          <internalNodes>
            0 -1 422 -1543528533 -1347502158 -304993536 -1073939971
            -1543768196 2109856756 505218428 -1174471692</internalNodes>
          <leafValues>
            -3.5092061758041382e-001 4.0993875265121460e-001</leafValues></_></weakClassifiers></_>
    <!-- stage 2 -->
    <_>
      <maxWeakCount>15</maxWeakCount>
      <stageThreshold>-1.3436574935913086e+000</stageThreshold>
      <weakClassifiers>
        <_>
          <internalNodes>
            0 -1 444 -245 1290790895 -219241984 -2133856274 -548956669
            1078454852 -740297952 -706740269</internalNodes>
          <leafValues>
            -2.0333467982709408e-003 7.8905940055847168e-001</leafValues></_>
        <_>
          <internalNodes>
            0 -1 60 -404755734 -1595213105 -1024556926 -490017074
            1568658242 1111975174 -144198905 -162010385</internalNodes>
          <leafValues>
            -3.2814505696296692e-001 5.1947480440139771e-001</leafValues></_>
        <_>
          <internalNodes>
            0 -1 283 487609853 -156171 -713351713 -2204456 -6226435
            -4260097 -1151549509 -1081603944</internalNodes>
          <leafValues>
            -2.7702334523200989e-001 6.0507267713546753e-001</leafValues></_>
        <_>
          <internalNodes>
            0 -1 14 -170552402 -9078273 232755703 2012553211 2127932334
            -434452 2004678639 2003807183</internalNodes>
          <leafValues>
            -4.3964257836341858e-001 3.7637373805046082e-001</leafValues></_>
        <_>
          <internalNodes>
            0 -1 345 -634391552 -405814052 2129132264 -594813481
            -1104445693 2001726771 1193749283 1328539471</internalNodes>
          <leafValues>
            -4.9374720454216003e-001 3.1133174896240234e-001</leafValues></_>
        <_>
          <internalNodes>
            0 -1 130 -204479510 -289029944 1073742026 -892419877
            -240979614 1107464201 931901970 1675490719</internalNodes>
          <leafValues>
            -4.0523278713226318e-001 3.3258077502250671e-001</leafValues></_>
        <_>
          <internalNodes>
            0 -1 226 -1476378159 -34251676 -548015105 -42133611
            -1091256389 -1073764420 -1174618113 -1098639100</internalNodes>
          <leafValues>
            -2.6202023029327393e-001 5.4183614253997803e-001</leafValues></_>
        <_>
          <internalNodes>
            0 -1 406 -1614875139 -1112936472 754429416 -1074856467
            1000603492 -1278017892 1032936944 -1108541471</internalNodes>
          <leafValues>
            -3.5595452785491943e-001 3.9632806181907654e-001</leafValues></_>
        <_>
          <internalNodes>
            0 -1 131 2013215151 1338897405 1891615662 -210380933
            -1552177153 1426794319 647953343 1469104012</internalNodes>
          <leafValues>
            -4.0465518832206726e-001 3.4361875057220459e-001</leafValues></_>
        <_>
          <internalNodes>
            0 -1 104 -708116874 -232734 1320312506 -636464304 -8565895
            1335672367 -27371596 -76395268</internalNodes>
          <leafValues>
            -4.1686904430389404e-001 3.3564090728759766e-001</leafValues></_>
        <_>
          <internalNodes>
            0 -1 38 -1064466 -405803061 837804192 -17828157 -1623224557
            1400897382 2004784611 -201328661</internalNodes>
          <leafValues>
            -3.1435164809226990e-001 4.8251223564147949e-001</leafValues></_>
        <_>
          <internalNodes>
            0 -1 117 -1024300378 -1176506373 266041203 -436288 384636010
            266272087 131299263 -1412073641</internalNodes>
          <leafValues>
            -3.9737620949745178e-001 3.3514669537544250e-001</leafValues></_>
        <_>
          <internalNodes>
            0 -1 434 -67306582 -2097418254 -1526882808 -1028653329
            -78647550 339932932 -1305756160 -141836309</internalNodes>
          <leafValues>
            -3.0796688795089722e-001 4.2428821325302124e-001</leafValues></_>
        <_>
          <internalNodes>
            0 -1 392 -1849658917 -1372252520 -168108579 -549085795
            -1695105093 -1703974 1064311956 -1928849224</internalNodes>
          <leafValues>
            -3.0980974435806274e-001 4.4143852591514587e-001</leafValues></_>
        <_>
          <internalNodes>
            0 -1 327 -439517302 1704942063 -761675064 585070063
            -652883189 86506332 -188291242 -186456030</internalNodes>
          <leafValues>
            -4.3258368968963623e-001 3.0626240372657776e-001</leafValues></_></weakClassifiers></_>
    <!-- stage 3 -->
    <_>
      <maxWeakCount>15</maxWeakCount>
      <stageThreshold>-1.1250922679901123e+000</stageThreshold>
      <weakClassifiers>
        <_>
          <internalNodes>
            0 -1 441 -134217945 -472924217 -420485086 49283047
            -134220025 1635644967 -142608640 -186122269</internalNodes>
          <leafValues>
            1.9883511587977409e-002 7.7693688869476318e-001</leafValues></_>
        <_>
          <internalNodes>
            0 -1 357 254303737 -1078311427 2141175805 -536887972
            -1414283779 -69337859 -1891065867 -1615324028</internalNodes>
          <leafValues>
            -2.5010150671005249e-001 5.5577450990676880e-001</leafValues></_>
        <_>
          <internalNodes>
            0 -1 194 251663857 -1610810928 -575537289 -2260751
            -101139013 -133185 -537591817 -1348988752</internalNodes>
          <leafValues>
            -3.1503289937973022e-001 4.9551323056221008e-001</leafValues></_>
        <_>
          <internalNodes>
            0 -1 418 -805306589 803725291 -740166175 -219154951
            -1477181613 73400239 -33556940 -706740482</internalNodes>
          <leafValues>
            -3.6694011092185974e-001 4.1426497697830200e-001</leafValues></_>
        <_>
          <internalNodes>
            0 -1 56 -285216785 -1370558738 -51494398 -353439761
            -176949425 1667233683 -135014569 -671615329</internalNodes>
          <leafValues>
            -2.9073074460029602e-001 4.9833554029464722e-001</leafValues></_>
        <_>
          <internalNodes>
            0 -1 68 -158794788 -739386434 -1282559270 -1680351374
            861985791 1837227597 -120786994 1926546054</internalNodes>
          <leafValues>
            -4.5277091860771179e-001 3.1295183300971985e-001</leafValues></_>
        <_>
          <internalNodes>
            0 -1 178 821502759 -269567063 854516387 -419464203
            -280266945 -673194685 -488901867 -67612</internalNodes>
          <leafValues>
            -3.2205787301063538e-001 4.3012705445289612e-001</leafValues></_>
        <_>
          <internalNodes>
            0 -1 360 1052515677 -40963 -83919893 -606904321 -1342653845
            -74001 -12915777 -1162735920</internalNodes>
          <leafValues>
            -2.9270681738853455e-001 4.3798270821571350e-001</leafValues></_>
        <_>
          <internalNodes>
            0 -1 244 -1143187081 1064247277 2138765310 -1166075394
            -4704292 935189868 -5734596 -7328335</internalNodes>
          <leafValues>
            -3.4330332279205322e-001 3.7677082419395447e-001</leafValues></_>
        <_>
          <internalNodes>
            0 -1 200 325337134 2004466168 535950319 2012444884
            -2085167115 -1007767574 -1758334995 -946957154</internalNodes>
          <leafValues>
            -3.9952656626701355e-001 3.4451842308044434e-001</leafValues></_>
        <_>
          <internalNodes>
            0 -1 100 -201524501 -286982777 -135933370 -630767957
            2013192003 1633023846 -203475114 -201850909</internalNodes>
          <leafValues>
            -3.5959506034851074e-001 4.2028594017028809e-001</leafValues></_>
        <_>
          <internalNodes>
            0 -1 29 -1896874001 -1418740766 -1522055578 -220208957
            259520335 1467348329 -680302841 -142613001</internalNodes>
          <leafValues>
            -2.7599591016769409e-001 5.0542569160461426e-001</leafValues></_>
        <_>
          <internalNodes>
            0 -1 367 800456701 1712377336 -1071620 -34181692 792681919
            1073543167 506076415 -1078420008</internalNodes>
          <leafValues>
            -3.2189431786537170e-001 4.0212562680244446e-001</leafValues></_>
        <_>
          <internalNodes>
            0 -1 118 -514792640 1534295389 -1937795865 1167246850
            -328681152 -1753024223 -816013234 2080329195</internalNodes>
          <leafValues>
            -4.4749894738197327e-001 2.9570105671882629e-001</leafValues></_>
        <_>
          <internalNodes>
            0 -1 420 -151020245 50850702 -352988286 -421020940
            2111684355 1275981099 1400372052 -941098267</internalNodes>
          <leafValues>
            -3.6708077788352966e-001 3.4618565440177917e-001</leafValues></_></weakClassifiers></_>
    <!-- stage 4 -->
    <_>
      <maxWeakCount>18</maxWeakCount>
      <stageThreshold>-1.3647270202636719e+000</stageThreshold>
      <weakClassifiers>
        <_>
          <internalNodes>
            0 -1 443 -76546302 13631439 -456922624 -1594888785
            -201329408 1095222603 -170429660 -706740265</internalNodes>
          <leafValues>
            -2.0033791661262512e-002 6.9711458683013916e-001</leafValues></_>
        <_>
          <internalNodes>
            0 -1 78 -264498 -1896879218 -2000715744 -520294689
            -545262586 1728771653 -144574925 -136317189</internalNodes>
          <leafValues>
            -3.2167989015579224e-001 4.6100598573684692e-001</leafValues></_>
        <_>
          <internalNodes>
            0 -1 171 -1929363984 -1612900496 -35553313 -35671567
            -1117716485 -16655 734836735 -1148450592</internalNodes>
          <leafValues>
            -3.1434619426727295e-001 4.5970630645751953e-001</leafValues></_>
        <_>
          <internalNodes>
            0 -1 36 -202026070 -201730113 -1689288562 -78400145
            -187051046 -533875789 -641302081 1476336398</internalNodes>
          <leafValues>
            -4.6669709682464600e-001 3.0084702372550964e-001</leafValues></_>
        <_>
          <internalNodes>
            0 -1 75 -67175690 -9250434 -698421394 -160248066 -1347662756
            1325172067 -688169220 -9040257</internalNodes>
          <leafValues>
            -4.4580423831939697e-001 2.8917092084884644e-001</leafValues></_>
        <_>
          <internalNodes>
            0 -1 385 -313600 1673467719 -889862590 -487597101 -207667370
            399500639 -202430556 -455147571</internalNodes>
          <leafValues>
            -4.1889992356300354e-001 3.0686947703361511e-001</leafValues></_>
        <_>
          <internalNodes>
            0 -1 304 809000957 -1073997314 921679863 -537052964
            -1033045314 -1089110042 -1342300167 -1413740408</internalNodes>
          <leafValues>
            -2.8720483183860779e-001 4.6331691741943359e-001</leafValues></_>
        <_>
          <internalNodes>
            0 -1 59 -1048849 -286265663 -5247296 -355602707 -269092025
            1987370775 -142879161 -137363721</internalNodes>
          <leafValues>
            -3.0695101618766785e-001 4.1923099756240845e-001</leafValues></_>
        <_>
          <internalNodes>
            0 -1 291 1034686907 -1417732 2134635519 -537460235
            -1362824198 -46498841 -1359452237 -1081592811</internalNodes>
          <leafValues>
            -2.6394170522689819e-001 4.9230647087097168e-001</leafValues></_>
        <_>
          <internalNodes>
            0 -1 10 -871307578 1941785811 -974005005 -675868588
            115477255 -660185628 1335476959 -1030529</internalNodes>
          <leafValues>
            -3.6692684888839722e-001 3.4412479400634766e-001</leafValues></_>
        <_>
          <internalNodes>
            0 -1 436 -1188599 1869342667 -1124124158 1996467935
            -143675896 114093957 -1250428089 -235946313</internalNodes>
          <leafValues>
            -2.9017513990402222e-001 4.1777685284614563e-001</leafValues></_>
        <_>
          <internalNodes>
            0 -1 408 -1497612872 -1162191472 200053240 -1098451972
            -1895898116 463711084 1877954884 -574701724</internalNodes>
          <leafValues>
            -4.4150891900062561e-001 2.7201244235038757e-001</leafValues></_>
        <_>
          <internalNodes>
            0 -1 212 770511854 -1212194918 1449095340 1408234770
            1083535359 1292151863 -256248581 -185271852</internalNodes>
          <leafValues>
            -3.9349392056465149e-001 3.1207731366157532e-001</leafValues></_>
        <_>
          <internalNodes>
            0 -1 449 -583598290 -965769747 -2138782464 -855771393
            -406345654 20480527 -403058428 -772806425</internalNodes>
          <leafValues>
            -3.5567486286163330e-001 3.4061637520790100e-001</leafValues></_>
        <_>
          <internalNodes>
            0 -1 98 427764206 1238330190 -188354496 -218164524
            1769175903 1598497291 1433139170 1978068770</internalNodes>
          <leafValues>
            -4.8869845271110535e-001 2.4142120778560638e-001</leafValues></_>
        <_>
          <internalNodes>
            0 -1 302 -1749099184 185387544 402593844 -1329685572
            -1109421192 -389174106 1300221180 237688354</internalNodes>
          <leafValues>
            -4.7919908165931702e-001 2.5522902607917786e-001</leafValues></_>
        <_>
          <internalNodes>
            0 -1 379 -1824778116 -606520833 -71753 -8579921 -64700449
            -82435 -1611605829 -1683483207</internalNodes>
          <leafValues>
            -3.1818848848342896e-001 3.8844841718673706e-001</leafValues></_>
        <_>
          <internalNodes>
            0 -1 32 -424742993 -1901088790 -1601507808 -1601923840
            2009562111 59042271 1741911891 1699928054</internalNodes>
          <leafValues>
            -4.6684956550598145e-001 2.5564450025558472e-001</leafValues></_></weakClassifiers></_>
    <!-- stage 5 -->
    <_>
      <maxWeakCount>21</maxWeakCount>
      <stageThreshold>-1.2189476490020752e+000</stageThreshold>
      <weakClassifiers>
        <_>
          <internalNodes>
            0 -1 439 -134220017 -1016632529 1614362112 15728491
            -67109119 1097312005 -402660864 -254804017</internalNodes>
          <leafValues>
            7.2077296674251556e-002 7.5170981884002686e-001</leafValues></_>
        <_>
          <internalNodes>
            0 -1 52 -127996946 -1896894901 -322476032 -419436853
            1462235651 7495653 -417073849 -134745361</internalNodes>
          <leafValues>
            -2.8332093358039856e-001 4.6434864401817322e-001</leafValues></_>
        <_>
          <internalNodes>
            0 -1 378 531635705 -1716769896 -573760035 -538067467
            -1616314625 -1162174472 -1879393799 -1615062568</internalNodes>
          <leafValues>
            -2.6809370517730713e-001 4.8449200391769409e-001</leafValues></_>
        <_>
          <internalNodes>
            0 -1 267 -51751679 -42109691 -973259169 -27403363 2096836911
            -4195841 581691215 6616895</internalNodes>
          <leafValues>
            -4.6779733896255493e-001 2.6333442330360413e-001</leafValues></_>
        <_>
          <internalNodes>
            0 -1 155 -111348756 -226517153 601588390 1977315203
            1196795383 1916728817 -678582627 400492463</internalNodes>
          <leafValues>
            -4.6890377998352051e-001 2.7698022127151489e-001</leafValues></_>
        <_>
          <internalNodes>
            0 -1 248 -1995418127 -839561224 -1080034345 -1241123
            -1343695942 -1159790595 -1881620993 -1885862848</internalNodes>
          <leafValues>
            -3.0531829595565796e-001 4.2032963037490845e-001</leafValues></_>
        <_>
          <internalNodes>
            0 -1 67 -4262278 -551664002 -503139346 -167575826
            -1141609380 1163067003 1593744895 -545563013</internalNodes>
          <leafValues>
            -3.8573917746543884e-001 3.3126160502433777e-001</leafValues></_>
        <_>
          <internalNodes>
            0 -1 33 -272898078 -856701560 -423646110 -855925367
            1606416187 401467210 -678959117 -404778101</internalNodes>
          <leafValues>
            -3.1398034095764160e-001 3.5654786229133606e-001</leafValues></_>
        <_>
          <internalNodes>
            0 -1 346 -529056 2113310458 -1662338588 -1686247553
            -74722808 -271652578 -1928185560 654441767</internalNodes>
          <leafValues>
            -4.4316723942756653e-001 2.6160869002342224e-001</leafValues></_>
        <_>
          <internalNodes>
            0 -1 183 -4391092 1341065573 -119866118 -185637901
            -1281645033 4454466 -1756694537 -201336329</internalNodes>
          <leafValues>
            -3.3146581053733826e-001 3.3060002326965332e-001</leafValues></_>
        <_>
          <internalNodes>
            0 -1 279 389077500 -1244377476 886870270 -3663505 769724191
            1706590076 -539466008 2097488811</internalNodes>
          <leafValues>
            -4.0827816724777222e-001 2.5765764713287354e-001</leafValues></_>
        <_>
          <internalNodes>
            0 -1 370 -1339025295 -633471500 803161055 2008882301
            -1166765002 -2495745 -1105928193 -1432742864</internalNodes>
          <leafValues>
            -2.8088966012001038e-001 3.7773025035858154e-001</leafValues></_>
        <_>
          <internalNodes>
            0 -1 166 2138438370 -951602769 -1039879072 -1026572066
            -644976058 1078749236 1961060002 1462948814</internalNodes>
          <leafValues>
            -3.9921054244041443e-001 2.7961692214012146e-001</leafValues></_>
        <_>
          <internalNodes>
            0 -1 198 -508497920 -176908916 626093341 1736279381
            -121569477 -1337405312 966859615 621549806</internalNodes>
          <leafValues>
            -5.0026041269302368e-001 2.2120213508605957e-001</leafValues></_>
        <_>
          <internalNodes>
            0 -1 66 -1228971189 -545018002 37676194 -185671766
            1979123266 1197495717 1699860854 -146278530</internalNodes>
          <leafValues>
            -2.7271664142608643e-001 4.0244165062904358e-001</leafValues></_>
        <_>
          <internalNodes>
            0 -1 354 -440676096 -2136017019 1310425136 -2063872644
            -872939552 44719233 -1783369312 101381833</internalNodes>
          <leafValues>
            -5.4931950569152832e-001 2.0668028295040131e-001</leafValues></_>
        <_>
          <internalNodes>
            0 -1 111 -2013131248 -1478475328 1865146823 2101739606
            2032319411 -1649245977 8431358 -1935670016</internalNodes>
          <leafValues>
            -4.1845303773880005e-001 2.5364223122596741e-001</leafValues></_>
        <_>
          <internalNodes>
            0 -1 240 -1314317525 1743728419 183463586 -487162890
            1066710785 613179758 -1262835903 -199305235</internalNodes>
          <leafValues>
            -2.9796284437179565e-001 3.5985130071640015e-001</leafValues></_>
        <_>
          <internalNodes>
            0 -1 224 -688367376 -1623292840 1482719197 -1285944323
            -1172301168 -1154901741 -6078564 -1758979816</internalNodes>
          <leafValues>
            -3.2786658406257629e-001 3.3703529834747314e-001</leafValues></_>
        <_>
          <internalNodes>
            0 -1 43 1676410606 -1448178007 -621284158 -788607037
            1300215299 1614807014 1197184820 -755508027</internalNodes>
          <leafValues>
            -3.1274405121803284e-001 3.4764546155929565e-001</leafValues></_>
        <_>
          <internalNodes>
            0 -1 338 -352546816 -1191354937 -424503954 1921048854
            242158668 2068702307 447490814 572455007</internalNodes>
          <leafValues>
            -4.7193324565887451e-001 2.3259960114955902e-001</leafValues></_></weakClassifiers></_>
    <!-- stage 6 -->
    <_>
      <maxWeakCount>21</maxWeakCount>
      <stageThreshold>-1.1527689695358276e+000</stageThreshold>
      <weakClassifiers>
        <_>
          <internalNodes>
            0 -1 442 -1248 1106235119 -1502893534 -2106595905 -8399101
            22803573 -236195072 -973078537</internalNodes>
          <leafValues>
            3.8443056400865316e-003 6.8242549896240234e-001</leafValues></_>
        <_>
          <internalNodes>
            0 -1 450 -268437782 -890523666 -1570099200 -361762818
            -209918138 1699723141 -201328896 -11809</internalNodes>
          <leafValues>
            -2.9215994477272034e-001 4.1266348958015442e-001</leafValues></_>
        <_>
          <internalNodes>
            0 -1 18 -337489937 -1219516443 1877020277 -34115838 29003775
            -8195 -39900161 2010601335</internalNodes>
          <leafValues>
            -3.1212371587753296e-001 4.0693819522857666e-001</leafValues></_>
        <_>
          <internalNodes>
            0 -1 35 -847318038 -403779858 -251769768 -330347349
            -767173797 1196612305 -611630518 1135304639</internalNodes>
          <leafValues>
            -4.1943517327308655e-001 2.7472352981567383e-001</leafValues></_>
        <_>
          <internalNodes>
            0 -1 264 420484605 -574065667 1975975901 -589818404
            -1180673027 -1074260231 -72860744 -1089987928</internalNodes>
          <leafValues>
            -3.4422928094863892e-001 3.1959852576255798e-001</leafValues></_>
        <_>
          <internalNodes>
            0 -1 65 1744800751 -1494243221 -420822334 -226967809
            1396930119 1115098695 -1622149593 -143130757</internalNodes>
          <leafValues>
            -2.7284821867942810e-001 3.8861900568008423e-001</leafValues></_>
        <_>
          <internalNodes>
            0 -1 309 133584640 -1957732857 -10944897 -77865481
            1992211283 -955589687 950985657 -153094629</internalNodes>
          <leafValues>
            -3.4852936863899231e-001 3.0951344966888428e-001</leafValues></_>
        <_>
          <internalNodes>
            0 -1 163 -1216498709 -1141889 868987902 -201326595
            1962793695 634257261 -151128165 -136511531</internalNodes>
          <leafValues>
            -2.6112946867942810e-001 4.1174876689910889e-001</leafValues></_>
        <_>
          <internalNodes>
            0 -1 333 -1398776751 -102776980 -570564769 -134242892
            -1220919315 -67371027 -1132790561 -1098380613</internalNodes>
          <leafValues>
            -2.4162226915359497e-001 4.4569545984268188e-001</leafValues></_>
        <_>
          <internalNodes>
            0 -1 261 -1276513406 -380787798 828615680 -151803922
            -1309415849 1145857892 -153184588 -138420230</internalNodes>
          <leafValues>
            -2.5763645768165588e-001 4.0662634372711182e-001</leafValues></_>
        <_>
          <internalNodes>
            0 -1 330 -386148528 162284300 647147952 -1095248615
            -1382419211 666627675 -1347453448 231443871</internalNodes>
          <leafValues>
            -3.9372920989990234e-001 2.6274946331977844e-001</leafValues></_>
        <_>
          <internalNodes>
            0 -1 44 1389359083 -976387410 -2142627136 -956500347
            511671133 1078450780 1897657335 1475542195</internalNodes>
          <leafValues>
            -3.6490732431411743e-001 2.8890612721443176e-001</leafValues></_>
        <_>
          <internalNodes>
            0 -1 364 -1096005892 -356057379 -1678806070 -1431398454
            539526390 1461559547 720084091 817838381</internalNodes>
          <leafValues>
            -4.6403238177299500e-001 2.2718974947929382e-001</leafValues></_>
        <_>
          <internalNodes>
            0 -1 423 -134362261 634865063 1251667906 -493894610
            -144984218 594243950 -146933440 -973607239</internalNodes>
          <leafValues>
            -2.6123434305191040e-001 3.9633020758628845e-001</leafValues></_>
        <_>
          <internalNodes>
            0 -1 90 355500138 1416081365 152912241 324603421 2114162218
            -1099064640 -684149267 2135062481</internalNodes>
          <leafValues>
            -4.1640356183052063e-001 2.5312572717666626e-001</leafValues></_>
        <_>
          <internalNodes>
            0 -1 28 -342103639 -1360072696 -489637792 -925942286
            1061666631 1621070723 -415501614 -170937642</internalNodes>
          <leafValues>
            -3.2208174467086792e-001 3.0613455176353455e-001</leafValues></_>
        <_>
          <internalNodes>
            0 -1 189 -205827093 -504513297 1459157696 -18912282
            -2015433636 45512053 -96551225 -135528721</internalNodes>
          <leafValues>
            -2.2753690183162689e-001 4.6094861626625061e-001</leafValues></_>
        <_>
          <internalNodes>
            0 -1 402 -331998193 -140558407 230670053 -67207537
            -1124928886 -604143625 -126167777 -1427577589</internalNodes>
          <leafValues>
            -2.4384471774101257e-001 4.1852641105651855e-001</leafValues></_>
        <_>
          <internalNodes>
            0 -1 139 -33857537 -135913604 775618490 -4313602 -269940484
            -948245473 -575244371 -1392722</internalNodes>
          <leafValues>
            -2.3350134491920471e-001 4.4276133179664612e-001</leafValues></_>
        <_>
          <internalNodes>
            0 -1 284 -2135421744 -1362973452 -904842241 -33614987
            1368631773 1067765999 -1366567945 192419104</internalNodes>
          <leafValues>
            -4.9075347185134888e-001 2.1345430612564087e-001</leafValues></_>
        <_>
          <internalNodes>
            0 -1 446 2093741859 1078981539 -289163776 -395461139
            -13578400 291110663 -176720240 -505676556</internalNodes>
          <leafValues>
            -3.0650320649147034e-001 3.4187582135200500e-001</leafValues></_></weakClassifiers></_>
    <!-- stage 7 -->
    <_>
      <maxWeakCount>20</maxWeakCount>
      <stageThreshold>-1.0876636505126953e+000</stageThreshold>
      <weakClassifiers>
        <_>
          <internalNodes>
            0 -1 222 -646389956 289168697 -1682360518 487538077
            -1107583044 1249443764 -1162737000 957880344</internalNodes>
          <leafValues>
            -1.2139992415904999e-001 5.9707868099212646e-001</leafValues></_>
        <_>
          <internalNodes>
            0 -1 441 -209 -498602129 -2031099774 -965738497 -2099966
            1700787493 -135269532 -168820745</internalNodes>
          <leafValues>
            -2.4344229698181152e-001 5.0578874349594116e-001</leafValues></_>
        <_>
          <internalNodes>
            0 -1 307 -1943009963 -587390987 2071984127 -1610792971
            -1074201605 -2314771 -1082327121 -1349771264</internalNodes>
          <leafValues>
            -2.7564162015914917e-001 4.2283642292022705e-001</leafValues></_>
        <_>
          <internalNodes>
            0 -1 451 -33819667 -1007681618 -792891392 -251676801
            -1078003925 1120909288 -139200843 -21521</internalNodes>
          <leafValues>
            -2.3390288650989532e-001 4.8773500323295593e-001</leafValues></_>
        <_>
          <internalNodes>
            0 -1 107 -541069761 -50430481 2116738938 -27103234 -12625316
            -195154354 -541655073 -545333249</internalNodes>
          <leafValues>
            -2.8615072369575500e-001 3.9775028824806213e-001</leafValues></_>
        <_>
          <internalNodes>
            0 -1 129 -1208488757 -1025257505 -1872303006 -529335298
            -684760057 22468607 -137170122 -145229837</internalNodes>
          <leafValues>
            -2.3237848281860352e-001 4.2778062820434570e-001</leafValues></_>
        <_>
          <internalNodes>
            0 -1 326 532496267 -412221569 -657498162 855637983
            -182997941 199826413 -1796753996 -86704396</internalNodes>
          <leafValues>
            -3.2165393233299255e-001 3.2972320914268494e-001</leafValues></_>
        <_>
          <internalNodes>
            0 -1 263 466622904 -4453159 -1747148841 -214007931
            -1717240987 -1083168462 -272442467 -1088418600</internalNodes>
          <leafValues>
            -3.6062344908714294e-001 2.8303378820419312e-001</leafValues></_>
        <_>
          <internalNodes>
            0 -1 6 -521148826 260531584 -983190600 -1078984093 254771167
            798646143 265417709 1172391783</internalNodes>
          <leafValues>
            -4.0918704867362976e-001 2.5139003992080688e-001</leafValues></_>
        <_>
          <internalNodes>
            0 -1 260 36703548 395987144 121492028 1935590894 -1905709699
            1306384460 202186924 1437629582</internalNodes>
          <leafValues>
            -5.0242799520492554e-001 2.1365813910961151e-001</leafValues></_>
        <_>
          <internalNodes>
            0 -1 432 -168047701 -1028134403 -525556126 -1057096001
            -1261131196 1087305668 -1220152553 -1214259457</internalNodes>
          <leafValues>
            -2.8645217418670654e-001 3.7860825657844543e-001</leafValues></_>
        <_>
          <internalNodes>
            0 -1 277 1503084128 -489851158 284904384 1447918330
            -70062317 1083060778 -2087962877 -414453336</internalNodes>
          <leafValues>
            -3.2279297709465027e-001 3.1855580210685730e-001</leafValues></_>
        <_>
          <internalNodes>
            0 -1 92 -1035943404 1579144273 -555776695 497500550
            -1050671165 -342183454 1182614535 1840711159</internalNodes>
          <leafValues>
            -4.5954138040542603e-001 2.3279099166393280e-001</leafValues></_>
        <_>
          <internalNodes>
            0 -1 191 -8390657 -303244068 1316487114 1348144491 -26559202
            1232912332 -14746225 -549782593</internalNodes>
          <leafValues>
            -2.3074880242347717e-001 4.7020936012268066e-001</leafValues></_>
        <_>
          <internalNodes>
            0 -1 337 -1097012224 -1114611921 -1376871073 -1099047651
            1588726794 1878716853 9392988 2531167</internalNodes>
          <leafValues>
            -4.4738459587097168e-001 2.6042276620864868e-001</leafValues></_>
        <_>
          <internalNodes>
            0 -1 40 -434966645 778956230 -360669568 -137965842
            1634936580 1114996339 2080780898 -143397073</internalNodes>
          <leafValues>
            -3.1183537840843201e-001 3.4827101230621338e-001</leafValues></_>
        <_>
          <internalNodes>
            0 -1 209 -263147460 1490281419 1393627564 -547427473
            -1335479454 1914237265 1614842551 55051147</internalNodes>
          <leafValues>
            -5.3948503732681274e-001 1.8319858610630035e-001</leafValues></_>
        <_>
          <internalNodes>
            0 -1 144 -1960825359 363313616 -1074790601 -407436937
            501522421 1609039863 1058073597 -812121659</internalNodes>
          <leafValues>
            -2.9767525196075439e-001 3.5057935118675232e-001</leafValues></_>
        <_>
          <internalNodes>
            0 -1 72 -1745037459 -1030811810 -1091176768 -1057376154
            -195299485 1165197132 -440424665 -153354241</internalNodes>
          <leafValues>
            -3.1197270750999451e-001 3.4602022171020508e-001</leafValues></_>
        <_>
          <internalNodes>
            0 -1 405 -678481533 -1023672469 184169230 -33071277
            -1082130661 236846907 130209223 -741353591</internalNodes>
          <leafValues>
            -2.6410853862762451e-001 4.3607476353645325e-001</leafValues></_></weakClassifiers></_>
    <!-- stage 8 -->
    <_>
      <maxWeakCount>22</maxWeakCount>
      <stageThreshold>-1.3793201446533203e+000</stageThreshold>
      <weakClassifiers>
        <_>
          <internalNodes>
            0 -1 331 288362745 -1078977027 1063532029 -37810955
            -1187767047 -29443 1034427645 -1120927576</internalNodes>
          <leafValues>
            5.1338307559490204e-002 6.9202500581741333e-001</leafValues></_>
        <_>
          <internalNodes>
            0 -1 20 -134500434 -8389138 1013333349 1943513076 -285897745
            -1073845301 -1757890625 1938022223</internalNodes>
          <leafValues>
            -2.9745244979858398e-001 3.8202777504920959e-001</leafValues></_>
        <_>
          <internalNodes>
            0 -1 393 -1850733480 -638115911 2138863615 -6296065
            -132064258 -139543558 -1077223489 -1683476564</internalNodes>
          <leafValues>
            -3.2871317863464355e-001 3.4364178776741028e-001</leafValues></_>
        <_>
          <internalNodes>
            0 -1 447 -526418 -1043338421 1123793450 -555089937
            -201395609 89642757 -134234800 -134234629</internalNodes>
          <leafValues>
            -3.0542027950286865e-001 3.5980281233787537e-001</leafValues></_>
        <_>
          <internalNodes>
            0 -1 127 -2425026 -8763750 1337093562 -1485529125 -37560100
            255754044 1543501020 -580677727</internalNodes>
          <leafValues>
            -3.4714162349700928e-001 2.9007145762443542e-001</leafValues></_>
        <_>
          <internalNodes>
            0 -1 29 -271581205 -1545081376 -992099678 -134775584
            2138548047 1196946907 -674777165 -136861726</internalNodes>
          <leafValues>
            -2.2582678496837616e-001 4.1773295402526855e-001</leafValues></_>
        <_>
          <internalNodes>
            0 -1 217 902894527 2134597327 869605678 1934531567
            -176378882 1108671176 1999878111 1399652348</internalNodes>
          <leafValues>
            -3.4823489189147949e-001 2.7898505330085754e-001</leafValues></_>
        <_>
          <internalNodes>
            0 -1 108 -632995 -17139329 774963198 999324124 1609583356
            2130475605 -7066131 -519425</internalNodes>
          <leafValues>
            -2.6289817690849304e-001 3.5484224557876587e-001</leafValues></_>
        <_>
          <internalNodes>
            0 -1 62 -35661266 1856346510 2051556034 -1832224258
            1576139527 1632097087 -10771593 1994913575</internalNodes>
          <leafValues>
            -4.2322108149528503e-001 2.2074735164642334e-001</leafValues></_>
        <_>
          <internalNodes>
            0 -1 225 -1348461200 -709813262 460012029 -10943419
            -1744658787 -340018951 -1209758727 -1181744716</internalNodes>
          <leafValues>
            -3.0143311619758606e-001 3.1096071004867554e-001</leafValues></_>
        <_>
          <internalNodes>
            0 -1 318 2099310577 790418457 -67137031 -1074113731
            -1363378769 -824844916 917671069 -1635775287</internalNodes>
          <leafValues>
            -2.8138294816017151e-001 3.3466684818267822e-001</leafValues></_>
        <_>
          <internalNodes>
            0 -1 386 -483656774 1031465136 -180347536 -1417105741
            41929992 304015630 -1788399312 1145566375</internalNodes>
          <leafValues>
            -3.8254800438880920e-001 2.3850244283676147e-001</leafValues></_>
        <_>
          <internalNodes>
            0 -1 205 1928352904 -1246680834 1913725435 930586101
            -728354140 1870478038 1647003326 899554570</internalNodes>
          <leafValues>
            -4.1748741269111633e-001 2.2131772339344025e-001</leafValues></_>
        <_>
          <internalNodes>
            0 -1 409 487112120 -1313825295 -1217051147 -6990607
            -1076298309 -1376666116 -1678154757 -1115145828</internalNodes>
          <leafValues>
            -2.7128431200981140e-001 3.3138540387153625e-001</leafValues></_>
        <_>
          <internalNodes>
            0 -1 436 -4196058 -975046772 977271338 -399659074 -213225
            1826455463 -1746077821 -255066373</internalNodes>
          <leafValues>
            -2.8358313441276550e-001 3.3260765671730042e-001</leafValues></_>
        <_>
          <internalNodes>
            0 -1 47 -212411142 -412169650 -389149616 551799986
            -119419061 169200716 326322348 1424623051</internalNodes>
          <leafValues>
            -4.5211803913116455e-001 2.1276541054248810e-001</leafValues></_>
        <_>
          <internalNodes>
            0 -1 17 -501030426 -1488696600 685537618 2122023369
            1701485565 1531695667 76805845 1875043296</internalNodes>
          <leafValues>
            -3.7979033589363098e-001 2.3408459126949310e-001</leafValues></_>
        <_>
          <internalNodes>
            0 -1 219 -70225159 -312131 -14060866 1399855868 1833229992
            -553859111 -71692295 -1343676783</internalNodes>
          <leafValues>
            -2.7043610811233521e-001 3.3790376782417297e-001</leafValues></_>
        <_>
          <internalNodes>
            0 -1 323 -1069254584 -967687144 -100145178 2101199938
            573091595 1164560974 1292136720 60896034</internalNodes>
          <leafValues>
            -5.3449261188507080e-001 1.8011465668678284e-001</leafValues></_>
        <_>
          <internalNodes>
            0 -1 170 -1610599560 -816052536 -779016815 2042619061
            1031824369 2042017930 758821720 -1882574660</internalNodes>
          <leafValues>
            -3.4967964887619019e-001 2.5070485472679138e-001</leafValues></_>
        <_>
          <internalNodes>
            0 -1 374 914912171 579752623 -380767507 1109295614 572999502
            -1769042377 -402671691 -382140833</internalNodes>
          <leafValues>
            -2.9385864734649658e-001 3.1098902225494385e-001</leafValues></_>
        <_>
          <internalNodes>
            0 -1 356 -318186624 220777896 -1629324432 74342746 711376761
            725727667 131533840 21716387</internalNodes>
          <leafValues>
            -5.1379269361495972e-001 1.7633581161499023e-001</leafValues></_></weakClassifiers></_>
    <!-- stage 9 -->
    <_>
      <maxWeakCount>26</maxWeakCount>
      <stageThreshold>-1.4226485490798950e+000</stageThreshold>
      <weakClassifiers>
        <_>
          <internalNodes>
            0 -1 77 -671223076 -144907285 -1814054216 -69387534
            -143855380 1296891340 -690101253 1296671694</internalNodes>
          <leafValues>
            -6.8229013122618198e-003 6.0687887668609619e-001</leafValues></_>
        <_>
          <internalNodes>
            0 -1 266 -249539560 -974915 -541720611 -549601955
            -1171203076 -621035780 -1936945922 -1205334984</internalNodes>
          <leafValues>
            -2.1052381396293640e-001 4.6978747844696045e-001</leafValues></_>
        <_>
          <internalNodes>
            0 -1 48 -286265361 -839931985 -424311808 -219158673
            -697829474 1733516683 -151529705 -671615281</internalNodes>
          <leafValues>
            -2.4228687584400177e-001 4.2999807000160217e-001</leafValues></_>
        <_>
          <internalNodes>
            0 -1 421 -503317574 -1346720086 2004827472 -205520947
            -1080051820 -1996437292 -540158736 -704659713</internalNodes>
          <leafValues>
            -2.9722398519515991e-001 3.5071247816085815e-001</leafValues></_>
        <_>
          <internalNodes>
            0 -1 42 -70457658 1259056746 1206119234 -259422098
            -341786962 386660924 1382809167 1196392479</internalNodes>
          <leafValues>
            -4.6786364912986755e-001 1.7896281182765961e-001</leafValues></_>
        <_>
          <internalNodes>
            0 -1 199 -103414785 -713929227 -478460937 -539010575
            -1145262337 -290833 -1090918921 -1880420537</internalNodes>
          <leafValues>
            -2.0146730542182922e-001 4.5984858274459839e-001</leafValues></_>
        <_>
          <internalNodes>
            0 -1 368 28335609 -1632887376 -167870499 -34756609
            -1383549953 -1409382664 -1909940483 -1617421268</internalNodes>
          <leafValues>
            -2.4818661808967590e-001 3.5006457567214966e-001</leafValues></_>
        <_>
          <internalNodes>
            0 -1 448 -134227750 -441450582 -662783936 -193728537
            -1145050403 103765253 -405933296 -766518025</internalNodes>
          <leafValues>
            -2.2210830450057983e-001 3.7025320529937744e-001</leafValues></_>
        <_>
          <internalNodes>
            0 -1 288 -537264556 2040599836 543344381 56268130 -354445240
            -279332259 46020251 806453563</internalNodes>
          <leafValues>
            -3.7334600090980530e-001 2.3609510064125061e-001</leafValues></_>
        <_>
          <internalNodes>
            0 -1 50 -266415514 -1999655850 -771094014 -2132586929
            1867804106 589411654 1389711374 1148681054</internalNodes>
          <leafValues>
            -4.6617341041564941e-001 1.8894687294960022e-001</leafValues></_>
        <_>
          <internalNodes>
            0 -1 258 -219087904 -1198710485 -264123678 318198338
            -740496859 1196314701 -1600690459 1992798935</internalNodes>
          <leafValues>
            -4.1430747509002686e-001 1.8481086194515228e-001</leafValues></_>
        <_>
          <internalNodes>
            0 -1 221 1425017848 -371206071 1350707899 489886204
            -426484115 -488080104 -1313551892 1029312952</internalNodes>
          <leafValues>
            -3.4126773476600647e-001 2.4117088317871094e-001</leafValues></_>
        <_>
          <internalNodes>
            0 -1 148 132138096 -1242170512 -169970894 355930480
            106971376 1313150572 -2132626480 1716855638</internalNodes>
          <leafValues>
            -4.8283565044403076e-001 1.7156259715557098e-001</leafValues></_>
        <_>
          <internalNodes>
            0 -1 389 -2054113287 874283640 -682667138 -1349503788
            724218842 -1414155589 522918804 1048446225</internalNodes>
          <leafValues>
            -3.6876559257507324e-001 2.2050525248050690e-001</leafValues></_>
        <_>
          <internalNodes>
            0 -1 103 2107023950 126009462 -1829076744 -1334160649
            1801195359 1262831645 334766116 2002841378</internalNodes>
          <leafValues>
            -4.6623009443283081e-001 1.6783684492111206e-001</leafValues></_>
        <_>
          <internalNodes>
            0 -1 251 -1518315595 -1381149252 1874047605 2077205959
            -1229538683 -297926749 -1993168921 -625409727</internalNodes>
          <leafValues>
            -2.4488203227519989e-001 3.3102065324783325e-001</leafValues></_>
        <_>
          <internalNodes>
            0 -1 294 -489491192 1397084438 21741828 1362799003
            -1560026358 717935334 97138562 61582917</internalNodes>
          <leafValues>
            -4.5133066177368164e-001 1.8973597884178162e-001</leafValues></_>
        <_>
          <internalNodes>
            0 -1 320 -1675619215 1073549040 536686525 -1644231299
            -1078411287 -1078117155 -1761806341 -1969726169</internalNodes>
          <leafValues>
            -2.5240853428840637e-001 3.2913208007812500e-001</leafValues></_>
        <_>
          <internalNodes>
            0 -1 387 1558065932 -1394126368 -1281373656 -1059597498
            -1081097463 1332423757 -1749580505 134109322</internalNodes>
          <leafValues>
            -4.3989214301109314e-001 1.9192899763584137e-001</leafValues></_>
        <_>
          <internalNodes>
            0 -1 31 1827095206 -1356450738 616628512 -486608126
            266282591 1147574600 1362190933 1657206483</internalNodes>
          <leafValues>
            -4.7089320421218872e-001 1.8100757896900177e-001</leafValues></_>
        <_>
          <internalNodes>
            0 -1 313 -794534176 -569967470 138611012 872371430
            -1222383294 21272878 9021122 1126695848</internalNodes>
          <leafValues>
            -4.5683801174163818e-001 1.8793068826198578e-001</leafValues></_>
        <_>
          <internalNodes>
            0 -1 73 -604049474 -185844832 -868029834 -1022700577
            -83539864 1561624240 -588116291 -583244994</internalNodes>
          <leafValues>
            -3.4277060627937317e-001 2.4165084958076477e-001</leafValues></_>
        <_>
          <internalNodes>
            0 -1 218 -1257959272 -1143682838 2005676166 861379292
            -871353768 202417239 351119852 666621236</internalNodes>
          <leafValues>
            -4.3433439731597900e-001 1.9241651892662048e-001</leafValues></_>
        <_>
          <internalNodes>
            0 -1 393 892867768 -740386071 1159292878 -201434807
            864190206 -141934419 724188642 464662840</internalNodes>
          <leafValues>
            -3.8781175017356873e-001 2.2145102918148041e-001</leafValues></_>
        <_>
          <internalNodes>
            0 -1 384 -2022851864 218929919 893071362 1023603497
            -1419869179 324788375 325693529 1464328879</internalNodes>
          <leafValues>
            -3.5813504457473755e-001 2.2742643952369690e-001</leafValues></_>
        <_>
          <internalNodes>
            0 -1 341 -433330688 1448732733 56498233 281810754 -288788966
            2078720939 -1031872456 -1461871837</internalNodes>
          <leafValues>
            -3.5756695270538330e-001 2.2385248541831970e-001</leafValues></_></weakClassifiers></_>
    <!-- stage 10 -->
    <_>
      <maxWeakCount>25</maxWeakCount>
      <stageThreshold>-1.2784700393676758e+000</stageThreshold>
      <weakClassifiers>
        <_>
          <internalNodes>
            0 -1 109 -671430028 -604100502 -8984450 -249558278
            1587153016 207227500 1306270968 521605055</internalNodes>
          <leafValues>
            -3.0437540262937546e-002 5.9830558300018311e-001</leafValues></_>
        <_>
          <internalNodes>
            0 -1 227 -168471408 -42660704 -65415689 -109322888
            1601501373 -921586273 70103215 420281279</internalNodes>
          <leafValues>
            -3.2693162560462952e-001 3.3300837874412537e-001</leafValues></_>
        <_>
          <internalNodes>
            0 -1 352 -196750924 -16131912 559991032 -1081153561
            -93800450 1026547786 478894285 253488575</internalNodes>
          <leafValues>
            -3.3530840277671814e-001 2.8970313072204590e-001</leafValues></_>
        <_>
          <internalNodes>
            0 -1 3 -430969214 -1882748192 -2098018141 -235565503
            1081128926 1222368454 1320416995 -230178496</internalNodes>
          <leafValues>
            -2.7832454442977905e-001 3.3522838354110718e-001</leafValues></_>
        <_>
          <internalNodes>
            0 -1 236 -8072272 -101337914 822153694 1983361902
            -1576213581 -769556268 1897112502 57608623</internalNodes>
          <leafValues>
            -4.6206888556480408e-001 2.0159512758255005e-001</leafValues></_>
        <_>
          <internalNodes>
            0 -1 194 -1409266480 -772550576 -308535951 -547516847
            998415068 -138823524 -1199124993 -1948642795</internalNodes>
          <leafValues>
            -3.2607522606849670e-001 2.6560786366462708e-001</leafValues></_>
        <_>
          <internalNodes>
            0 -1 146 1074055780 339689315 56750352 1463711606 34133772
            -2003947351 1258417543 1191441271</internalNodes>
          <leafValues>
            -4.4503930211067200e-001 1.8129268288612366e-001</leafValues></_>
        <_>
          <internalNodes>
            0 -1 415 -86063358 247847910 -934558078 -994721330
            -1749324027 74260637 1734392324 1164933610</internalNodes>
          <leafValues>
            -5.7369798421859741e-001 1.3002225756645203e-001</leafValues></_>
        <_>
          <internalNodes>
            0 -1 187 -206267400 -1141057528 814510682 1439273936
            -656899080 1217960152 -962709825 1511889561</internalNodes>
          <leafValues>
            -3.8456121087074280e-001 2.1123477816581726e-001</leafValues></_>
        <_>
          <internalNodes>
            0 -1 169 -63957764 -135294499 741752311 -1104145828
            -1148643236 -1415957742 -1758165251 -1425532536</internalNodes>
          <leafValues>
            -2.9320257902145386e-001 2.7588349580764771e-001</leafValues></_>
        <_>
          <internalNodes>
            0 -1 5 -887043712 51544130 156288340 934626354 51530454
            -1393858332 79708243 133644658</internalNodes>
          <leafValues>
            -4.3963384628295898e-001 1.8832945823669434e-001</leafValues></_>
        <_>
          <internalNodes>
            0 -1 233 -256539444 -1827893126 1549089727 1386214357
            1134976972 -548928883 26444541 -782620230</internalNodes>
          <leafValues>
            -3.0976682901382446e-001 2.6593509316444397e-001</leafValues></_>
        <_>
          <internalNodes>
            0 -1 54 1937212028 1268130594 906121284 -778020384
            -104052508 1951156632 -1495200499 1243765776</internalNodes>
          <leafValues>
            -4.5244610309600830e-001 1.7473797500133514e-001</leafValues></_>
        <_>
          <internalNodes>
            0 -1 238 -72778757 -816353425 1190666240 1928197611
            1962589994 1717006120 -2100173021 -136322618</internalNodes>
          <leafValues>
            -2.1804100275039673e-001 3.6318263411521912e-001</leafValues></_>
        <_>
          <internalNodes>
            0 -1 321 212881500 1944325192 -568576389 -1709894319
            -1457474022 -283283184 880919275 35718471</internalNodes>
          <leafValues>
            -4.1178199648857117e-001 1.9103339314460754e-001</leafValues></_>
        <_>
          <internalNodes>
            0 -1 422 -180355141 867720892 -538936356 -572393251
            -1109690916 -1130496524 234314748 -1111518253</internalNodes>
          <leafValues>
            -2.1447589993476868e-001 3.8367831707000732e-001</leafValues></_>
        <_>
          <internalNodes>
            0 -1 61 -1489777085 2141515630 -159904030 -559523166
            1784749326 1193702738 -134756489 -206313481</internalNodes>
          <leafValues>
            -2.2812405228614807e-001 3.4648740291595459e-001</leafValues></_>
        <_>
          <internalNodes>
            0 -1 349 -1216946968 111179436 -1551987771 865126325
            1928433838 -1254583968 1317106641 252133269</internalNodes>
          <leafValues>
            -3.8332810997962952e-001 2.0418049395084381e-001</leafValues></_>
        <_>
          <internalNodes>
            0 -1 142 -1929324304 -9889424 803699615 -48673551 781233567
            -278159392 1704107007 -1960246223</internalNodes>
          <leafValues>
            -2.3718124628067017e-001 3.4024992585182190e-001</leafValues></_>
        <_>
          <internalNodes>
            0 -1 167 1878339274 -1165259830 -1731157962 -460600073
            -540360374 1382564079 1610464084 1134742895</internalNodes>
          <leafValues>
            -3.7454134225845337e-001 2.1766130626201630e-001</leafValues></_>
        <_>
          <internalNodes>
            0 -1 116 -726206266 -1532812184 1420972853 2112160339
            247075480 -1348930445 362615860 396034522</internalNodes>
          <leafValues>
            -3.5127097368240356e-001 2.2451682388782501e-001</leafValues></_>
        <_>
          <internalNodes>
            0 -1 281 1393753372 302308648 -1342076848 -1613001599
            -133215240 1511686190 -2135882704 144312588</internalNodes>
          <leafValues>
            -4.5394369959831238e-001 1.7792803049087524e-001</leafValues></_>
        <_>
          <internalNodes>
            0 -1 292 -724795412 -1117645363 1476727933 52931964 69509746
            -1392268153 369924216 204696123</internalNodes>
          <leafValues>
            -4.4524669647216797e-001 1.7158383131027222e-001</leafValues></_>
        <_>
          <internalNodes>
            0 -1 411 -671395582 964647805 -863112172 853285623
            -590423544 2129360008 1250753240 -2138120397</internalNodes>
          <leafValues>
            -3.3689954876899719e-001 2.4740293622016907e-001</leafValues></_>
        <_>
          <internalNodes>
            0 -1 13 809751014 724899776 1077787666 1351044116 692694900
            -435142523 -300399542 2077200259</internalNodes>
          <leafValues>
            -3.4956112504005432e-001 2.2490392625331879e-001</leafValues></_></weakClassifiers></_>
    <!-- stage 11 -->
    <_>
      <maxWeakCount>30</maxWeakCount>
      <stageThreshold>-1.2759670019149780e+000</stageThreshold>
      <weakClassifiers>
        <_>
          <internalNodes>
            0 -1 245 999822584 -188591 1602109437 1001750524 395320504
            -10977712 505953468 1060641448</internalNodes>
          <leafValues>
            -5.7197697460651398e-002 5.6105476617813110e-001</leafValues></_>
        <_>
          <internalNodes>
            0 -1 228 -2097359 -80347379 2079026551 -58990795 -1830179922
            -5849587 605967662 616542143</internalNodes>
          <leafValues>
            -2.5193843245506287e-001 3.4472340345382690e-001</leafValues></_>
        <_>
          <internalNodes>
            0 -1 77 -207621158 2135814615 -609647630 -202656970
            -152048129 -832708662 -151013123 1540606479</internalNodes>
          <leafValues>
            -2.8104150295257568e-001 2.9931870102882385e-001</leafValues></_>
        <_>
          <internalNodes>
            0 -1 38 -369103122 -340923154 887256802 -286281797
            -1665276185 1204682191 -402921593 -67109121</internalNodes>
          <leafValues>
            -2.5131073594093323e-001 3.2751178741455078e-001</leafValues></_>
        <_>
          <internalNodes>
            0 -1 253 834550032 1427970314 -1815538763 1366290531
            1673150395 -306647165 138319289 -54903381</internalNodes>
          <leafValues>
            -3.4005263447761536e-001 2.0968350768089294e-001</leafValues></_>
        <_>
          <internalNodes>
            0 -1 362 -1896761373 -1161092888 1952045917 330956500
            788823887 -1018581686 1779234793 470961604</internalNodes>
          <leafValues>
            -2.9023978114128113e-001 2.7152094244956970e-001</leafValues></_>
        <_>
          <internalNodes>
            0 -1 444 -67635249 1129299694 -496307392 -472924465
            -1646356533 1128702724 -487329371 -18883089</internalNodes>
          <leafValues>
            -1.8867158889770508e-001 4.1035360097885132e-001</leafValues></_>
        <_>
          <internalNodes>
            0 -1 400 -1417620232 -1618440135 335352286 -36857348
            -1411732246 -1893044087 -1685414147 -1617426180</internalNodes>
          <leafValues>
            -2.7977272868156433e-001 2.6030364632606506e-001</leafValues></_>
        <_>
          <internalNodes>
            0 -1 151 -605568781 -638411649 152410822 1429357346
            -559750958 -766415934 1893458879 -539029697</internalNodes>
          <leafValues>
            -2.0757050812244415e-001 3.5768711566925049e-001</leafValues></_>
        <_>
          <internalNodes>
            0 -1 106 -141044022 -816248730 1078513762 1883792586
            -83101682 1108557828 1625985459 1422111307</internalNodes>
          <leafValues>
            -2.9400283098220825e-001 2.5396189093589783e-001</leafValues></_>
        <_>
          <internalNodes>
            0 -1 275 -1558490077 -1524505824 -503541016 -138040440
            -2120987617 -2113816479 892316640 -767901392</internalNodes>
          <leafValues>
            -3.1778678297996521e-001 2.3251496255397797e-001</leafValues></_>
        <_>
          <internalNodes>
            0 -1 332 -1970794156 727269433 -1660339077 -8967840
            -16762946 -1365375555 -1584612673 234882080</internalNodes>
          <leafValues>
            -4.4955962896347046e-001 1.5858873724937439e-001</leafValues></_>
        <_>
          <internalNodes>
            0 -1 211 -545463880 -802610790 2127087349 1204814570
            -1917986684 271788165 -1809128203 1126403499</internalNodes>
          <leafValues>
            -3.3772206306457520e-001 2.1086899936199188e-001</leafValues></_>
        <_>
          <internalNodes>
            0 -1 358 -1660941839 -2086136151 2013202295 -583225995
            1058818297 -924516626 -1971030699 -1647636715</internalNodes>
          <leafValues>
            -2.3416705429553986e-001 3.0102816224098206e-001</leafValues></_>
        <_>
          <internalNodes>
            0 -1 186 -239231942 -585589839 595604222 -1748923650
            -454907636 248294216 -1231344209 2131278243</internalNodes>
          <leafValues>
            -3.0542883276939392e-001 2.3455600440502167e-001</leafValues></_>
        <_>
          <internalNodes>
            0 -1 23 -358170080 1340895944 1168093077 1926545734
            1389126364 -1991247771 1975543185 -134906959</internalNodes>
          <leafValues>
            -3.2355761528015137e-001 2.1925529837608337e-001</leafValues></_>
        <_>
          <internalNodes>
            0 -1 239 -1692339216 -252339355 831003522 374473567
            -1905940167 35269378 269461399 1426209635</internalNodes>
          <leafValues>
            -4.2874166369438171e-001 1.6426011919975281e-001</leafValues></_>
        <_>
          <internalNodes>
            0 -1 433 -67109117 1012923919 -722747754 1433272283
            -86167030 1957230183 -1798517013 -266600609</internalNodes>
          <leafValues>
            -1.8572191894054413e-001 4.0127858519554138e-001</leafValues></_>
        <_>
          <internalNodes>
            0 -1 265 -1531952747 -1613735747 1233491899 -339767116
            245426366 -1076967096 716874683 522783177</internalNodes>
          <leafValues>
            -2.8792884945869446e-001 2.5364366173744202e-001</leafValues></_>
        <_>
          <internalNodes>
            0 -1 388 -329257552 -1641884576 801078196 -43287138
            -2052082712 629817768 -1449519808 -1686385993</internalNodes>
          <leafValues>
            -3.2009339332580566e-001 2.2313387691974640e-001</leafValues></_>
        <_>
          <internalNodes>
            0 -1 360 721161310 -1277212264 -622486865 454168605
            557874440 1540246015 -1466944085 691017985</internalNodes>
          <leafValues>
            -4.4726908206939697e-001 1.5797537565231323e-001</leafValues></_>
        <_>
          <internalNodes>
            0 -1 273 -90848110 -1033556952 -1195396197 1499690923
            -411316545 1872133503 3928347 1946933146</internalNodes>
          <leafValues>
            -2.5203588604927063e-001 2.8725165128707886e-001</leafValues></_>
        <_>
          <internalNodes>
            0 -1 0 -2004311904 -941536064 -737890286 -235261373
            1393734363 -1177482217 -1928623564 -908627406</internalNodes>
          <leafValues>
            -2.7879410982131958e-001 2.6326420903205872e-001</leafValues></_>
        <_>
          <internalNodes>
            0 -1 174 -34301164 -1392107038 636838402 4873109 418806008
            1099901963 704899535 374580083</internalNodes>
          <leafValues>
            -3.7014243006706238e-001 1.9802916049957275e-001</leafValues></_>
        <_>
          <internalNodes>
            0 -1 22 -357634386 -1486036640 -1215265888 -194772992
            144922469 1502329060 1703224151 1439126023</internalNodes>
          <leafValues>
            -4.8841217160224915e-001 1.5418583154678345e-001</leafValues></_>
        <_>
          <internalNodes>
            0 -1 339 -12157928 -766580508 1515561511 -117316533
            -108466418 -884648667 1117001246 1252123695</internalNodes>
          <leafValues>
            -3.5366970300674438e-001 2.0456428825855255e-001</leafValues></_>
        <_>
          <internalNodes>
            0 -1 282 -219130372 -614524759 1762594904 1494225377
            -1689740044 -82116592 -75334678 -184015635</internalNodes>
          <leafValues>
            -2.7640306949615479e-001 2.6354858279228210e-001</leafValues></_>
        <_>
          <internalNodes>
            0 -1 230 37766788 828461897 1373598607 257526092 -2084396846
            1127323181 390316631 255593796</internalNodes>
          <leafValues>
            -4.6449822187423706e-001 1.7168013751506805e-001</leafValues></_>
        <_>
          <internalNodes>
            0 -1 301 -604258294 1620553259 1294981762 -642126525
            913155749 1081603929 -166410521 -241435401</internalNodes>
          <leafValues>
            -2.1958649158477783e-001 3.4680864214897156e-001</leafValues></_>
        <_>
          <internalNodes>
            0 -1 286 -575355431 -59981847 1135690737 1555896669
            -13631000 -1142163458 -1728136001 -1430581934</internalNodes>
          <leafValues>
            -1.6048900783061981e-001 4.5544838905334473e-001</leafValues></_></weakClassifiers></_>
    <!-- stage 12 -->
    <_>
      <maxWeakCount>29</maxWeakCount>
      <stageThreshold>-1.0288267135620117e+000</stageThreshold>
      <weakClassifiers>
        <_>
          <internalNodes>
            0 -1 223 529538300 -671343619 1039957405 2138574156
            -450309448 -9609489 1042316220 505948312</internalNodes>
          <leafValues>
            -4.5285820960998535e-002 5.6419378519058228e-001</leafValues></_>
        <_>
          <internalNodes>
            0 -1 334 -87010215 -33600417 -1082275333 -201387571
            -1103205701 -67125319 -1165706305 723532561</internalNodes>
          <leafValues>
            -3.0161121487617493e-001 3.1303361058235168e-001</leafValues></_>
        <_>
          <internalNodes>
            0 -1 450 -19403798 -842611256 -1296117664 1994382995
            -1283197086 1095315355 -213978795 -739270965</internalNodes>
          <leafValues>
            -3.1560540199279785e-001 2.6866492629051208e-001</leafValues></_>
        <_>
          <internalNodes>
            0 -1 104 -117254434 1057138249 -162379654 1461870200
            38209828 244202851 -637578255 522849919</internalNodes>
          <leafValues>
            -4.1643065214157104e-001 1.9240069389343262e-001</leafValues></_>
        <_>
          <internalNodes>
            0 -1 396 -2031650793 -77775369 -541073409 -276959463
            -1168573793 -18883465 -99953537 -94702825</internalNodes>
          <leafValues>
            -2.1358595788478851e-001 3.7012040615081787e-001</leafValues></_>
        <_>
          <internalNodes>
            0 -1 366 -1216910849 -1895174847 -285552705 -615874717
            -1157693617 -2089681073 -58982413 -76021765</internalNodes>
          <leafValues>
            -2.0345042645931244e-001 3.9663577079772949e-001</leafValues></_>
        <_>
          <internalNodes>
            0 -1 438 -606077662 -1008870329 -1228880384 552810767
            -748700927 1073913895 321705478 1164950491</internalNodes>
          <leafValues>
            -3.7703576683998108e-001 1.9093672931194305e-001</leafValues></_>
        <_>
          <internalNodes>
            0 -1 160 -1108651230 -1276382046 2062560782 603696027
            1433158880 -556142740 -1668097859 1352589209</internalNodes>
          <leafValues>
            -3.2948309183120728e-001 2.2505012154579163e-001</leafValues></_>
        <_>
          <internalNodes>
            0 -1 4 195201122 -1490829242 -886729933 -1648810384 8267253
            -539252226 -814745103 1189568855</internalNodes>
          <leafValues>
            -3.7139838933944702e-001 1.9363266229629517e-001</leafValues></_>
        <_>
          <internalNodes>
            0 -1 340 1181895432 -54060272 -1081974929 -1890163649
            774283158 -508822703 579485052 101138269</internalNodes>
          <leafValues>
            -4.2212179303169250e-001 1.5918847918510437e-001</leafValues></_>
        <_>
          <internalNodes>
            0 -1 91 1809860840 830096683 -87918254 1330858586 1030871264
            -1370021137 -477603851 1599368721</internalNodes>
          <leafValues>
            -4.1265591979026794e-001 1.7465615272521973e-001</leafValues></_>
        <_>
          <internalNodes>
            0 -1 72 -1153445908 -1463055988 -2108135742 -2100394772
            2116021569 1108951120 -246945225 930347903</internalNodes>
          <leafValues>
            -4.0975448489189148e-001 1.5724182128906250e-001</leafValues></_>
        <_>
          <internalNodes>
            0 -1 112 -1920459504 -1928997387 -816930905 1176523645
            173568721 -1325746797 -1920808133 236870993</internalNodes>
          <leafValues>
            -4.5573151111602783e-001 1.5731540322303772e-001</leafValues></_>
        <_>
          <internalNodes>
            0 -1 110 1435535192 -849350086 -1874523030 1799324328
            63348634 1240658716 665723583 1600003968</internalNodes>
          <leafValues>
            -3.4353888034820557e-001 2.0783911645412445e-001</leafValues></_>
        <_>
          <internalNodes>
            0 -1 180 821852106 -871902972 1347195432 1990162643
            -758921238 1194183258 44201206 1344803492</internalNodes>
          <leafValues>
            -4.6631306409835815e-001 1.3876765966415405e-001</leafValues></_>
        <_>
          <internalNodes>
            0 -1 401 272631852 2011305308 336747818 -13488856 -259510629
            -1785166158 814231534 992615680</internalNodes>
          <leafValues>
            -4.1245180368423462e-001 1.6829411685466766e-001</leafValues></_>
        <_>
          <internalNodes>
            0 -1 357 -1659839267 -40239248 -561594403 -1117054723
            -1692360788 -67344661 -1180653057 -540472181</internalNodes>
          <leafValues>
            -1.5864071249961853e-001 4.6910548210144043e-001</leafValues></_>
        <_>
          <internalNodes>
            0 -1 175 -1692106800 -587004783 -934569718 1582847509
            -68622336 -607653487 1578233599 1212350623</internalNodes>
          <leafValues>
            -3.5186788439750671e-001 2.0996470749378204e-001</leafValues></_>
        <_>
          <internalNodes>
            0 -1 158 -716995478 -1704538898 23015734 1464227859
            -99641981 1443154756 -475060899 1515902356</internalNodes>
          <leafValues>
            -3.6131623387336731e-001 1.8613930046558380e-001</leafValues></_>
        <_>
          <internalNodes>
            0 -1 25 -1486748106 1587908212 -2000734446 837436768
            33585765 2129093779 1365135284 -837039167</internalNodes>
          <leafValues>
            -3.4127977490425110e-001 2.0413644611835480e-001</leafValues></_>
        <_>
          <internalNodes>
            0 -1 398 -1283783102 -284592362 2136616428 -310874420
            -1078779460 386953464 740292598 -483197465</internalNodes>
          <leafValues>
            -2.4978566169738770e-001 2.8067091107368469e-001</leafValues></_>
        <_>
          <internalNodes>
            0 -1 81 -570274177 -690715618 1726005918 469945406
            1424644671 2104758689 2134402909 2054452555</internalNodes>
          <leafValues>
            -3.4812220931053162e-001 2.0476065576076508e-001</leafValues></_>
        <_>
          <internalNodes>
            0 -1 171 -1039873551 -79227152 -34279721 523714290
            -1905495567 -1090588931 -649527313 -1154857631</internalNodes>
          <leafValues>
            -2.0066429674625397e-001 3.6030682921409607e-001</leafValues></_>
        <_>
          <internalNodes>
            0 -1 124 400521318 705257504 -842424640 306118868 412293196
            47529902 64021221 1628939539</internalNodes>
          <leafValues>
            -4.2814901471138000e-001 1.6888643801212311e-001</leafValues></_>
        <_>
          <internalNodes>
            0 -1 413 2143287808 415221599 1611368328 636250170
            -412454620 -2146937226 -1188597464 619618921</internalNodes>
          <leafValues>
            -3.9576616883277893e-001 1.7237316071987152e-001</leafValues></_>
        <_>
          <internalNodes>
            0 -1 101 2034034372 191726636 976773912 2048929931 951643760
            727069064 1532761941 505437544</internalNodes>
          <leafValues>
            -4.7875547409057617e-001 1.5151180326938629e-001</leafValues></_>
        <_>
          <internalNodes>
            0 -1 329 -171837302 -951208223 940112576 1993211885
            281851409 306855757 1436660183 -24397682</internalNodes>
          <leafValues>
            -2.0851033926010132e-001 3.3793315291404724e-001</leafValues></_>
        <_>
          <internalNodes>
            0 -1 133 -805343845 1334500181 922804736 326773719
            1622313713 1330996427 1108930454 1314429043</internalNodes>
          <leafValues>
            -2.7888274192810059e-001 2.6297184824943542e-001</leafValues></_>
        <_>
          <internalNodes>
            0 -1 278 -1753480836 -81227276 -1794260550 983883853
            57358933 943729959 175018158 832650106</internalNodes>
          <leafValues>
            -3.7421238422393799e-001 1.9060549139976501e-001</leafValues></_></weakClassifiers></_>
    <!-- stage 13 -->
    <_>
      <maxWeakCount>32</maxWeakCount>
      <stageThreshold>-1.2807115316390991e+000</stageThreshold>
      <weakClassifiers>
        <_>
          <internalNodes>
            0 -1 145 -48901686 -548209300 1572671859 1942055385
            1400419820 -1939034994 228398539 172816623</internalNodes>
          <leafValues>
            4.4195640832185745e-002 5.8280348777770996e-001</leafValues></_>
        <_>
          <internalNodes>
            0 -1 247 1026609424 353407253 -1076420621 -1285711619
            -570556484 -1621229954 -1950670888 418061368</internalNodes>
          <leafValues>
            -2.3716486990451813e-001 3.4037634730339050e-001</leafValues></_>
        <_>
          <internalNodes>
            0 -1 406 934018559 -1181111822 2109210109 -24579 -1887176728
            -1155940640 757423612 -1109401699</internalNodes>
          <leafValues>
            -2.1758186817169189e-001 3.6226224899291992e-001</leafValues></_>
        <_>
          <internalNodes>
            0 -1 46 -756092246 -288633234 1417109512 -186144830 43360911
            1381264180 825390663 2003171142</internalNodes>
          <leafValues>
            -4.2163312435150146e-001 1.8476684391498566e-001</leafValues></_>
        <_>
          <internalNodes>
            0 -1 195 -1778171392 -14781735 -607141945 -42655631
            -1826259975 -96011819 -1190423396 3813624</internalNodes>
          <leafValues>
            -4.2073741555213928e-001 1.3264757394790649e-001</leafValues></_>
        <_>
          <internalNodes>
            0 -1 177 -747588611 -69420517 17046380 1534734455 -832306205
            1780353152 282507707 1580142222</internalNodes>
          <leafValues>
            -2.8211519122123718e-001 2.5172603130340576e-001</leafValues></_>
        <_>
          <internalNodes>
            0 -1 382 -50883552 206820111 1612656828 3504156 -93160190
            -618767585 1108015354 2880335</internalNodes>
          <leafValues>
            -4.1071915626525879e-001 1.6031356155872345e-001</leafValues></_>
        <_>
          <internalNodes>
            0 -1 27 -337458966 174521514 1881423970 -227618814
            1906010959 1629712426 1193756579 -673922330</internalNodes>
          <leafValues>
            -3.4736701846122742e-001 1.8949782848358154e-001</leafValues></_>
        <_>
          <internalNodes>
            0 -1 182 1434442430 -545580456 -2014400557 517144634
            1565122524 1565784924 1354796487 -363307855</internalNodes>
          <leafValues>
            -2.5267013907432556e-001 2.6890924572944641e-001</leafValues></_>
        <_>
          <internalNodes>
            0 -1 376 -2046832606 252211594 -990156750 2123692668
            737861388 1285798760 580123874 -982791115</internalNodes>
          <leafValues>
            -3.6108183860778809e-001 1.9405917823314667e-001</leafValues></_>
        <_>
          <internalNodes>
            0 -1 249 -1582798415 -404240380 635515547 1608889597
            -1416888401 -36724017 1021576122 -1934424916</internalNodes>
          <leafValues>
            -2.7784934639930725e-001 2.3875993490219116e-001</leafValues></_>
        <_>
          <internalNodes>
            0 -1 440 -169093881 1166484429 1344259652 1885063267
            2058281742 1291845634 -522285820 1724639707</internalNodes>
          <leafValues>
            -3.2463511824607849e-001 2.0601351559162140e-001</leafValues></_>
        <_>
          <internalNodes>
            0 -1 235 -1686874646 -550625418 825893834 1599205872
            -2092514410 -311628188 -255924501 -623067438</internalNodes>
          <leafValues>
            -2.5827053189277649e-001 2.6351028680801392e-001</leafValues></_>
        <_>
          <internalNodes>
            0 -1 152 -49790160 -558589286 -192673136 859892142
            -2114318064 988310142 140004372 704829203</internalNodes>
          <leafValues>
            -4.7862657904624939e-001 1.4504908025264740e-001</leafValues></_>
        <_>
          <internalNodes>
            0 -1 242 909382768 1041088536 1484378740 1936515935
            536578427 -1961531733 1752156937 707772949</internalNodes>
          <leafValues>
            -3.6071422696113586e-001 1.8720623850822449e-001</leafValues></_>
        <_>
          <internalNodes>
            0 -1 314 1440082215 1876319991 1920704890 2049368771
            -1482737846 -1318369418 -1865884270 -488931097</internalNodes>
          <leafValues>
            -2.1263815462589264e-001 3.3302158117294312e-001</leafValues></_>
        <_>
          <internalNodes>
            0 -1 231 -1332657888 -624600264 1146836802 -752356368
            -1594623932 -103589829 2056160239 252053477</internalNodes>
          <leafValues>
            -3.3278730511665344e-001 2.0600318908691406e-001</leafValues></_>
        <_>
          <internalNodes>
            0 -1 87 -2013054272 -754415468 859997489 -1617202861
            147321743 -1913933540 1939854764 1434113</internalNodes>
          <leafValues>
            -3.4740391373634338e-001 1.9738821685314178e-001</leafValues></_>
        <_>
          <internalNodes>
            0 -1 161 -241180374 -456207922 2013466784 -1697930755
            2118982470 2050392321 324858375 1662767315</internalNodes>
          <leafValues>
            -3.2189139723777771e-001 2.1625182032585144e-001</leafValues></_>
        <_>
          <internalNodes>
            0 -1 53 -2069735732 2042903255 268570704 524833116 296622560
            872432145 784621326 1575910051</internalNodes>
          <leafValues>
            -3.5199311375617981e-001 2.0656235516071320e-001</leafValues></_>
        <_>
          <internalNodes>
            0 -1 397 24272 964591198 -720369195 1389517507 -1080996108
            -32751205 -276787217 366085508</internalNodes>
          <leafValues>
            -5.0187462568283081e-001 1.3353332877159119e-001</leafValues></_>
        <_>
          <internalNodes>
            0 -1 287 -62991340 1654631417 781669331 2052157295 610638940
            -1954612098 -1396779601 -1440203725</internalNodes>
          <leafValues>
            -2.5071978569030762e-001 2.6525977253913879e-001</leafValues></_>
        <_>
          <internalNodes>
            0 -1 250 1115701256 456683266 -987689997 320455691
            -867930146 -271981883 100879892 370411840</internalNodes>
          <leafValues>
            -5.1325464248657227e-001 1.3525050878524780e-001</leafValues></_>
        <_>
          <internalNodes>
            0 -1 448 -241699798 596289450 -667577344 2026619642
            -376448120 35502600 -253239200 -946870819</internalNodes>
          <leafValues>
            -2.7454662322998047e-001 2.4813097715377808e-001</leafValues></_>
        <_>
          <internalNodes>
            0 -1 181 -1260447309 -814783553 872018699 1920841655
            803694092 -1955104777 1962906754 -537006089</internalNodes>
          <leafValues>
            -2.1393470466136932e-001 3.3289432525634766e-001</leafValues></_>
        <_>
          <internalNodes>
            0 -1 369 -1760554948 1064046789 990145598 -115404600
            329918720 -20274808 -1419839288 167775792</internalNodes>
          <leafValues>
            -4.3948873877525330e-001 1.6485011577606201e-001</leafValues></_>
        <_>
          <internalNodes>
            0 -1 220 -585608196 2069074229 -2112259395 405904605
            1496847048 -30779013 1019493369 -663336773</internalNodes>
          <leafValues>
            -2.6528486609458923e-001 2.5566026568412781e-001</leafValues></_>
        <_>
          <internalNodes>
            0 -1 105 -536886326 -313913718 -1845332894 1076297950
            -1302797558 185112580 1385624227 1382545203</internalNodes>
          <leafValues>
            -3.1962367892265320e-001 2.1706618368625641e-001</leafValues></_>
        <_>
          <internalNodes>
            0 -1 361 650904704 -1836017008 -480431225 1556636595
            396557184 -212860256 176771069 547766825</internalNodes>
          <leafValues>
            -4.9223414063453674e-001 1.3435812294483185e-001</leafValues></_>
        <_>
          <internalNodes>
            0 -1 38 -838868785 -1010171473 -1204948832 -1165501849
            -2038185650 -2088298492 1975507440 385324027</internalNodes>
          <leafValues>
            -2.8595894575119019e-001 2.4135178327560425e-001</leafValues></_>
        <_>
          <internalNodes>
            0 -1 193 -2043652040 -1746048639 22059894 -1109445952
            487341803 1208238211 -653647616 340691628</internalNodes>
          <leafValues>
            -3.6011627316474915e-001 1.8915000557899475e-001</leafValues></_>
        <_>
          <internalNodes>
            0 -1 37 1702343138 1259119569 492873952 1532642469 385401578
            -777977620 16286682 1398635660</internalNodes>
          <leafValues>
            -4.0772864222526550e-001 1.7468827962875366e-001</leafValues></_></weakClassifiers></_>
    <!-- stage 14 -->
    <_>
      <maxWeakCount>31</maxWeakCount>
      <stageThreshold>-1.2120380401611328e+000</stageThreshold>
      <weakClassifiers>
        <_>
          <internalNodes>
            0 -1 63 -319822226 -1429274846 -521214390 1928521698
            -680569597 1158640998 1886908999 2012673910</internalNodes>
          <leafValues>
            -1.6175653040409088e-001 5.2322888374328613e-001</leafValues></_>
        <_>
          <internalNodes>
            0 -1 417 -44302538 889315882 1392766256 1899493737
            -154438865 184588416 1431166036 1026813947</internalNodes>
          <leafValues>
            -2.8753271698951721e-001 3.0406361818313599e-001</leafValues></_>
        <_>
          <internalNodes>
            0 -1 26 -2228278 -202140366 -1127637564 -720334459
            -524625186 326172836 -733761585 -649354613</internalNodes>
          <leafValues>
            -3.0643549561500549e-001 2.6055693626403809e-001</leafValues></_>
        <_>
          <internalNodes>
            0 -1 430 -487594462 -512754300 -235942200 -79170002
            1692118959 -26127121 -1498239330 1690760078</internalNodes>
          <leafValues>
            -2.4135434627532959e-001 3.1492865085601807e-001</leafValues></_>
        <_>
          <internalNodes>
            0 -1 82 -688207106 -568924132 -1748047690 -97077198 -7651264
            1209536615 219045349 2130922975</internalNodes>
          <leafValues>
            -3.8200041651725769e-001 1.9979955255985260e-001</leafValues></_>
        <_>
          <internalNodes>
            0 -1 208 -571166331 -265059821 555422532 1876062526
            -223619423 -222592382 -972999948 86573535</internalNodes>
          <leafValues>
            -3.7852421402931213e-001 1.6992239654064178e-001</leafValues></_>
        <_>
          <internalNodes>
            0 -1 336 -823557120 2084378457 1413828884 311952469
            276830226 -30051985 272375898 537099071</internalNodes>
          <leafValues>
            -4.5577454566955566e-001 1.5129494667053223e-001</leafValues></_>
        <_>
          <internalNodes>
            0 -1 39 -270012433 -1511001466 540894720 -1538358714
            1325490508 1082540196 548868741 -671905947</internalNodes>
          <leafValues>
            -2.6250284910202026e-001 2.5750103592872620e-001</leafValues></_>
        <_>
          <internalNodes>
            0 -1 391 -1313080485 174747532 -168658991 -1759221331
            -1615407363 -1973723186 534660496 -1145061665</internalNodes>
          <leafValues>
            -2.2334304451942444e-001 3.0946487188339233e-001</leafValues></_>
        <_>
          <internalNodes>
            0 -1 268 -1363544023 -35811691 1816062463 2020537015
            1958477003 -1400015356 -1995183889 222256390</internalNodes>
          <leafValues>
            -2.5807842612266541e-001 2.6783025264739990e-001</leafValues></_>
        <_>
          <internalNodes>
            0 -1 99 -134485480 -1886926930 -381604814 1182773210
            -1674469105 838861772 1644773727 1699399031</internalNodes>
          <leafValues>
            -3.4451356530189514e-001 1.9165107607841492e-001</leafValues></_>
        <_>
          <internalNodes>
            0 -1 140 -5320109 -206592845 1646185783 -1107139408
            -629126616 1560235125 1514337561 -12907171</internalNodes>
          <leafValues>
            -2.4079450964927673e-001 2.8119254112243652e-001</leafValues></_>
        <_>
          <internalNodes>
            0 -1 347 -1148788778 -85052833 -160235584 -1838547009
            1337453071 -1890814194 984009445 -667447425</internalNodes>
          <leafValues>
            -2.1237041056156158e-001 3.0590450763702393e-001</leafValues></_>
        <_>
          <internalNodes>
            0 -1 2 -1062482229 -80764214 -203231039 -683157600
            1246459899 -34734370 2146792911 -716058303</internalNodes>
          <leafValues>
            -1.8167540431022644e-001 3.7689375877380371e-001</leafValues></_>
        <_>
          <internalNodes>
            0 -1 308 9703512 -894365632 1448212987 1524271984
            -1601522166 -272180687 -1473127630 571498768</internalNodes>
          <leafValues>
            -4.4356814026832581e-001 1.5473920106887817e-001</leafValues></_>
        <_>
          <internalNodes>
            0 -1 168 -236500786 -968219893 215466112 1380745694
            -32704958 38036035 320983494 1405152419</internalNodes>
          <leafValues>
            -3.3088514208793640e-001 1.9881795346736908e-001</leafValues></_>
        <_>
          <internalNodes>
            0 -1 372 -526235156 -63273456 -1056879285 656956515
            -1201354312 -1583048469 650660591 179374460</internalNodes>
          <leafValues>
            -4.2246532440185547e-001 1.5710417926311493e-001</leafValues></_>
        <_>
          <internalNodes>
            0 -1 197 1166036132 -1016642087 -2120950057 -1449831227
            -1289711632 -1192496991 704772309 116988405</internalNodes>
          <leafValues>
            -3.5299482941627502e-001 2.0016872882843018e-001</leafValues></_>
        <_>
          <internalNodes>
            0 -1 368 -1615277608 -1618578632 -854485419 1570586824
            -1744160508 -133017102 253459600 -1925709772</internalNodes>
          <leafValues>
            -3.1354552507400513e-001 2.1174730360507965e-001</leafValues></_>
        <_>
          <internalNodes>
            0 -1 213 -1080096574 -380739357 269505770 1928715204
            -704087294 158983232 -1484589082 1403646943</internalNodes>
          <leafValues>
            -3.5830265283584595e-001 1.8209080398082733e-001</leafValues></_>
        <_>
          <internalNodes>
            0 -1 435 -1049781 1990974538 -117899514 -1303921437
            -563391921 -1228578233 1423112568 -255334273</internalNodes>
          <leafValues>
            -1.8570135533809662e-001 3.7464809417724609e-001</leafValues></_>
        <_>
          <internalNodes>
            0 -1 164 630654988 456034178 320275170 1887698906 1948107674
            1145356834 1146496985 1475410757</internalNodes>
          <leafValues>
            -4.8427706956863403e-001 1.4933885633945465e-001</leafValues></_>
        <_>
          <internalNodes>
            0 -1 311 669713173 -660750048 -769566325 -161900244
            333642862 -1960046135 -1315821181 1596619048</internalNodes>
          <leafValues>
            -2.8502574563026428e-001 2.3996327817440033e-001</leafValues></_>
        <_>
          <internalNodes>
            0 -1 425 -1883595294 1000625960 1367544278 -1849635852
            -1702277476 -1547665270 1628598764 67114128</internalNodes>
          <leafValues>
            -4.4930839538574219e-001 1.5265694260597229e-001</leafValues></_>
        <_>
          <internalNodes>
            0 -1 410 -705766134 2071701503 -1229560113 2144202301
            -18663862 -111677189 -281613893 -1730685869</internalNodes>
          <leafValues>
            -2.2391739487648010e-001 3.0403479933738708e-001</leafValues></_>
        <_>
          <internalNodes>
            0 -1 297 -68172856 -1043343834 1996438002 1881665935
            2006700063 1353249656 -1871252586 -228926850</internalNodes>
          <leafValues>
            -2.1928605437278748e-001 3.1556779146194458e-001</leafValues></_>
        <_>
          <internalNodes>
            0 -1 248 -1568652204 1870923076 370776921 1304778213
            -1727381816 -1413502807 715307465 238882841</internalNodes>
          <leafValues>
            -3.3041819930076599e-001 2.1612907946109772e-001</leafValues></_>
        <_>
          <internalNodes>
            0 -1 74 -366162386 -937787318 1611036770 -1869568918
            1293347404 186505216 2007965190 1981284167</internalNodes>
          <leafValues>
            -4.9462619423866272e-001 1.3265927135944366e-001</leafValues></_>
        <_>
          <internalNodes>
            0 -1 237 967588660 399746896 994103580 1560521516 1556879836
            577780630 -1920133231 1090540624</internalNodes>
          <leafValues>
            -4.9683347344398499e-001 1.3525724411010742e-001</leafValues></_>
        <_>
          <internalNodes>
            0 -1 49 -41237809 -1619064854 2094719746 -687165514
            1127370434 552624100 1429587739 -143198209</internalNodes>
          <leafValues>
            -1.9944798946380615e-001 3.7025520205497742e-001</leafValues></_>
        <_>
          <internalNodes>
            0 -1 322 -196759170 2022765802 -784072125 1197901900
            453421587 -901070653 310915393 1394205935</internalNodes>
          <leafValues>
            -2.9059123992919922e-001 2.4659231305122375e-001</leafValues></_></weakClassifiers></_>
    <!-- stage 15 -->
    <_>
      <maxWeakCount>32</maxWeakCount>
      <stageThreshold>-1.2038009166717529e+000</stageThreshold>
      <weakClassifiers>
        <_>
          <internalNodes>
            0 -1 290 -562041068 2034491137 173937170 1375553 1824681220
            -843063425 544276532 13887987</internalNodes>
          <leafValues>
            -1.1737088859081268e-001 5.4002541303634644e-001</leafValues></_>
        <_>
          <internalNodes>
            0 -1 414 -10485953 855875510 -1210845708 -1082663075
            -31719425 958504889 1568001528 -12582993</internalNodes>
          <leafValues>
            -1.3820753991603851e-001 4.7487732768058777e-001</leafValues></_>
        <_>
          <internalNodes>
            0 -1 88 -1969016146 -1685102479 -706955307 319780629
            176896754 -1976834421 -511676963 1191662069</internalNodes>
          <leafValues>
            -3.3413892984390259e-001 2.2498431801795959e-001</leafValues></_>
        <_>
          <internalNodes>
            0 -1 390 -1029707080 -1894084200 1964220720 -58270247
            -1410666056 136454424 -1732574064 529528219</internalNodes>
          <leafValues>
            -3.6199375987052917e-001 2.0250324904918671e-001</leafValues></_>
        <_>
          <internalNodes>
            0 -1 149 -307699084 391349351 -517253157 1884505876
            -1605844448 425501952 -2081369401 1702315252</internalNodes>
          <leafValues>
            -4.0484565496444702e-001 1.7587140202522278e-001</leafValues></_>
        <_>
          <internalNodes>
            0 -1 86 -763177738 -9641422 -1809960513 1371183360
            1245710476 -854898376 -1895673672 1332936786</internalNodes>
          <leafValues>
            -2.9075157642364502e-001 2.3816147446632385e-001</leafValues></_>
        <_>
          <internalNodes>
            0 -1 115 -18292022 -1348255680 -1298449803 -571116797
            -2139068464 -1735281386 -2145749931 1136607327</internalNodes>
          <leafValues>
            -3.3629214763641357e-001 1.9923387467861176e-001</leafValues></_>
        <_>
          <internalNodes>
            0 -1 207 -2053087984 -2118795260 889639312 1819886436
            1554559408 -1326366384 202204457 135923119</internalNodes>
          <leafValues>
            -4.9494484066963196e-001 1.2134023010730743e-001</leafValues></_>
        <_>
          <internalNodes>
            0 -1 58 -216678298 1181469583 -1572565360 243128535
            1138427982 1128352301 -359927529 1177868894</internalNodes>
          <leafValues>
            -4.0348330140113831e-001 1.6873867809772491e-001</leafValues></_>
        <_>
          <internalNodes>
            0 -1 30 -292822322 -806384185 -1005861230 -137826686
            1693552266 1722071017 1277362087 -190323129</internalNodes>
          <leafValues>
            -2.3106782138347626e-001 2.7672803401947021e-001</leafValues></_>
        <_>
          <internalNodes>
            0 -1 373 -1966734244 -160169583 -45716530 -309174564
            2085634301 855587453 -364898302 958538784</internalNodes>
          <leafValues>
            -4.7059649229049683e-001 1.4876478910446167e-001</leafValues></_>
        <_>
          <internalNodes>
            0 -1 203 -1358721033 -920189074 -339858703 1446065973
            713514938 -19114001 511121383 -998776857</internalNodes>
          <leafValues>
            -2.2076931595802307e-001 3.0578771233558655e-001</leafValues></_>
        <_>
          <internalNodes>
            0 -1 8 230846928 -888968002 -936472187 404674452 1602665362
            -1165517519 404527900 1246140242</internalNodes>
          <leafValues>
            -3.7651520967483521e-001 1.6918289661407471e-001</leafValues></_>
        <_>
          <internalNodes>
            0 -1 135 1291906562 -520039873 1344215032 -671677015
            1747037579 -1941170059 -1197832327 1190338637</internalNodes>
          <leafValues>
            -3.1809309124946594e-001 2.0621035993099213e-001</leafValues></_>
        <_>
          <internalNodes>
            0 -1 1 -1532261653 -47276538 905724322 1542443684 255631807
            1855212854 1625126858 -788007561</internalNodes>
          <leafValues>
            -2.1166153252124786e-001 3.4261348843574524e-001</leafValues></_>
        <_>
          <internalNodes>
            0 -1 343 -766255469 -1503199611 -1436107887 301006212
            -349169046 -1220116891 757407710 321832229</internalNodes>
          <leafValues>
            -2.3832049965858459e-001 2.7956706285476685e-001</leafValues></_>
        <_>
          <internalNodes>
            0 -1 80 -1441109810 -673267654 -118485466 -1841950818
            591620626 1494224906 -434955477 2118351575</internalNodes>
          <leafValues>
            -3.7191113829612732e-001 1.7788584530353546e-001</leafValues></_>
        <_>
          <internalNodes>
            0 -1 295 -272327948 -725299084 236258988 1059515934
            100306134 -1840463419 353934848 202376056</internalNodes>
          <leafValues>
            -4.7577276825904846e-001 1.3568250834941864e-001</leafValues></_>
        <_>
          <internalNodes>
            0 -1 437 1923567900 335570772 -1991245648 129894946
            1628054960 1913583281 224104448 290375445</internalNodes>
          <leafValues>
            -4.1599977016448975e-001 1.6586908698081970e-001</leafValues></_>
        <_>
          <internalNodes>
            0 -1 298 -1529093632 -1624531654 1015812 -1567937791
            -720404471 67847305 813764678 1113313407</internalNodes>
          <leafValues>
            -4.2475539445877075e-001 1.6054600477218628e-001</leafValues></_>
        <_>
          <internalNodes>
            0 -1 9 -1205695950 2044699362 419455827 -262985918 54723015
            -1350483834 1520717220 1457475923</internalNodes>
          <leafValues>
            -3.1312367320060730e-001 2.1808689832687378e-001</leafValues></_>
        <_>
          <internalNodes>
            0 -1 289 -1596223233 -67711788 -168434433 -235778699
            -1178865050 -29890609 513990652 -1541450233</internalNodes>
          <leafValues>
            -1.9895453751087189e-001 3.3901530504226685e-001</leafValues></_>
        <_>
          <internalNodes>
            0 -1 215 -778596414 -472411145 -1534046160 1419624955
            -900616254 37814977 1931658995 1375722308</internalNodes>
          <leafValues>
            -2.6586192846298218e-001 2.5135788321495056e-001</leafValues></_>
        <_>
          <internalNodes>
            0 -1 403 -1396432788 -1081232699 -964631203 1872294744
            -1165720839 -1197463234 -494628173 -730167296</internalNodes>
          <leafValues>
