<?xml version="1.0"?>
<opencv_storage>
<cascade>
  <stageType>BOOST</stageType>
  <featureType>LBP</featureType>
  <height>24</height>
  <width>24</width>
  <stageParams>
    <boostType>GAB</boostType>
    <minHitRate>9.9900001287460327e-001</minHitRate>
    <maxFalseAlarm>5.0000000000000000e-001</maxFalseAlarm>
    <weightTrimRate>9.4999999999999996e-001</weightTrimRate>
    <maxDepth>1</maxDepth>
    <maxWeakCount>100</maxWeakCount></stageParams>
  <featureParams>
    <maxCatCount>256</maxCatCount>
    <featSize>1</featSize></featureParams>
  <stageNum>20</stageNum>
  <stages>
    <!-- stage 0 -->
    <_>
      <maxWeakCount>5</maxWeakCount>
      <stageThreshold>-2.3003242015838623e+000</stageThreshold>
      <weakClassifiers>
        <_>
          <internalNodes>
            0 -1 50 -134349828 -10486305 -1861938738 -8396017 -5248001
            -1140981016 -73405441 -2117633</internalNodes>
          <leafValues>
            -7.7964323759078979e-001 6.1819535493850708e-001</leafValues></_>
        <_>
          <internalNodes>
            0 -1 46 2069474218 -8399426 899518463 2147483615 -72680466
            67711170 1810612219 2146155487</internalNodes>
          <leafValues>
            -7.6909738779067993e-001 4.4837197661399841e-001</leafValues></_>
        <_>
          <internalNodes>
            0 -1 84 -1267544 -69733958 51592175 1610599327 -73430278
            -226252622 1001889215 2013113263</internalNodes>
          <leafValues>
            -8.6686605215072632e-001 4.0795740485191345e-001</leafValues></_>
        <_>
          <internalNodes>
            0 -1 161 2147483567 732430127 -8541 -1359020050 -532723
            125695835 -33835147 -268632196</internalNodes>
          <leafValues>
            -6.5569967031478882e-001 5.5308943986892700e-001</leafValues></_>
        <_>
          <internalNodes>
            0 -1 9 1879048175 -287314073 -269488286 -1360085138 -137 -65
            -134234507 -655370</internalNodes>
          <leafValues>
            -5.0384140014648438e-001 7.1274304389953613e-001</leafValues></_></weakClassifiers></_>
    <!-- stage 1 -->
    <_>
      <maxWeakCount>5</maxWeakCount>
      <stageThreshold>-1.1280581951141357e+000</stageThreshold>
      <weakClassifiers>
        <_>
          <internalNodes>
            0 -1 2 -35655698 -526386 1969216879 -1 -3162385 -141784122
            -35651841 -134218786</internalNodes>
          <leafValues>
            -7.6377952098846436e-001 4.1552510857582092e-001</leafValues></_>
        <_>
          <internalNodes>
            0 -1 133 2013214511 -560269 2130706382 -185075723 -3149050
            -805315649 -2132876670 -436211841</internalNodes>
          <leafValues>
            -6.3641363382339478e-001 4.8990082740783691e-001</leafValues></_>
        <_>
          <internalNodes>
            0 -1 11 -956306449 -286326809 1726934880 -319885586
            -805830793 1744306047 1979152247 -151519370</internalNodes>
          <leafValues>
            -5.0616139173507690e-001 6.2608766555786133e-001</leafValues></_>
        <_>
          <internalNodes>
            0 -1 33 -1211782162 -135446682 1404416999 -134742033
            -1356881937 1530343183 -205815825 1918204919</internalNodes>
          <leafValues>
            -7.1322959661483765e-001 4.3544122576713562e-001</leafValues></_>
        <_>
          <internalNodes>
            0 -1 57 -2819336 -137890 -204164104 -1276511298 -137563235
            1976958456 2075066332 1884132032</internalNodes>
          <leafValues>
            -7.6703757047653198e-001 4.1041225194931030e-001</leafValues></_></weakClassifiers></_>
    <!-- stage 2 -->
    <_>
      <maxWeakCount>6</maxWeakCount>
      <stageThreshold>-1.3539870977401733e+000</stageThreshold>
      <weakClassifiers>
        <_>
          <internalNodes>
            0 -1 52 668971007 -286265618 2113401471 -255344094
            -1426587649 -13441 -186125321 -134742017</internalNodes>
          <leafValues>
            -7.4429905414581299e-001 3.8754099607467651e-001</leafValues></_>
        <_>
          <internalNodes>
            0 -1 155 -536871053 799997627 -106960910 -147063909
            -815826151 1800207187 -8685712 -14811268</internalNodes>
          <leafValues>
            -6.1998832225799561e-001 4.4363924860954285e-001</leafValues></_>
        <_>
          <internalNodes>
            0 -1 14 -269488145 -5312514 -268521498 -269570450 -4760281
            1333091702 -34953 -2097154</internalNodes>
          <leafValues>
            -4.0589445829391479e-001 7.1882164478302002e-001</leafValues></_>
        <_>
          <internalNodes>
            0 -1 114 1002192703 -49186 -131073 -1302711365 -17039553
            -10503302 -1090716418 -1440207862</internalNodes>
          <leafValues>
            -5.3978353738784790e-001 5.2297222614288330e-001</leafValues></_>
        <_>
          <internalNodes>
            0 -1 65 -218372 -539370501 392110762 2133830638 -539155716
            -2233715 -134243346 1736960655</internalNodes>
          <leafValues>
            -7.8530883789062500e-001 3.5591751337051392e-001</leafValues></_>
        <_>
          <internalNodes>
            0 -1 110 2103435261 -111301127 -35 -538973945 -587932433
            -306333713 1607286714 -276262776</internalNodes>
          <leafValues>
            -3.8509625196456909e-001 7.5524580478668213e-001</leafValues></_></weakClassifiers></_>
    <!-- stage 3 -->
    <_>
      <maxWeakCount>7</maxWeakCount>
      <stageThreshold>-1.2179058790206909e+000</stageThreshold>
      <weakClassifiers>
        <_>
          <internalNodes>
            0 -1 126 -193 2132229951 -740827137 -251724801 -33012
            2012999650 -136841325 -473960449</internalNodes>
          <leafValues>
            -7.0409709215164185e-001 2.9156011343002319e-001</leafValues></_>
        <_>
          <internalNodes>
            0 -1 10 -336597009 -355471410 -848566586 -288429850
            -673186989 -213264233 2006414183 -137887802</internalNodes>
          <leafValues>
            -5.1425129175186157e-001 5.2848726511001587e-001</leafValues></_>
        <_>
          <internalNodes>
            0 -1 80 803809271 -806406153 -6981641 -33736907 -1879588865
            -308550725 904638833 -1913031663</internalNodes>
          <leafValues>
            -5.6468063592910767e-001 4.8982605338096619e-001</leafValues></_>
        <_>
          <internalNodes>
            0 -1 105 -42074364 -140008 2069200767 -14894261 -9584839
            -67388555 -552665281 -1619003349</internalNodes>
          <leafValues>
            -6.5864878892898560e-001 4.0827137231826782e-001</leafValues></_>
        <_>
          <internalNodes>
            0 -1 169 -1079248961 -1346634758 -268435481 -436338689
            -1891639827 800635824 2142608733 -33687555</internalNodes>
          <leafValues>
            -4.4720405340194702e-001 6.3091528415679932e-001</leafValues></_>
        <_>
          <internalNodes>
            0 -1 62 1920836580 -210076162 1928592863 476838838
            -235147346 308024768 1857026303 133119950</internalNodes>
          <leafValues>
            -7.6719838380813599e-001 3.4430345892906189e-001</leafValues></_>
        <_>
          <internalNodes>
            0 -1 34 -17498130 1710189156 1180636670 1089326718
            1996357630 -626036821 -833095203 -960004337</internalNodes>
          <leafValues>
            -6.6022074222564697e-001 3.7559694051742554e-001</leafValues></_></weakClassifiers></_>
    <!-- stage 4 -->
    <_>
      <maxWeakCount>8</maxWeakCount>
      <stageThreshold>-2.0851330757141113e+000</stageThreshold>
      <weakClassifiers>
        <_>
          <internalNodes>
            0 -1 160 -8388769 926675839 -1343766024 -77610881 -65
            -1879179285 -10498787 -8401921</internalNodes>
          <leafValues>
            -5.8241081237792969e-001 5.2109706401824951e-001</leafValues></_>
        <_>
          <internalNodes>
            0 -1 26 -493881345 -12303 -524297 -35662339 -33562633
            -285212673 -336068785 -905972239</internalNodes>
          <leafValues>
            -4.2531108856201172e-001 6.4559090137481689e-001</leafValues></_>
        <_>
          <internalNodes>
            0 -1 17 -405805073 -353701905 -465403186 -288428314
            -201369833 1897064667 1977611126 -680017929</internalNodes>
          <leafValues>
            -4.9372702836990356e-001 5.0273191928863525e-001</leafValues></_>
        <_>
          <internalNodes>
            0 -1 151 100611903 -18876417 -438829946 -218647049
            2136860955 -1106255005 1946022822 -528762129</internalNodes>
          <leafValues>
            -5.1866120100021362e-001 4.9009060859680176e-001</leafValues></_>
        <_>
          <internalNodes>
            0 -1 116 -545287052 1067392781 188742143 291319643
            -1170216369 1916754558 1006370495 -1155932449</internalNodes>
          <leafValues>
            -6.0408771038055420e-001 4.0908524394035339e-001</leafValues></_>
        <_>
          <internalNodes>
            0 -1 16 -753732738 -4251809 -921250305 2133908848 1738702748
            -274444561 -67633193 -4551990</internalNodes>
          <leafValues>
            -4.9033483862876892e-001 5.1781940460205078e-001</leafValues></_>
        <_>
          <internalNodes>
            0 -1 130 -255109537 -11185665 2047901919 -358738017
            -684091606 -4633925 -1158803714 -1473246862</internalNodes>
          <leafValues>
            -4.8313972353935242e-001 4.9754837155342102e-001</leafValues></_>
        <_>
          <internalNodes>
            0 -1 37 -61969 -593879174 -654107681 927363807 -1411506340
            2058895645 -139034775 -9372673</internalNodes>
          <leafValues>
            -5.0878793001174927e-001 5.0442206859588623e-001</leafValues></_></weakClassifiers></_>
    <!-- stage 5 -->
    <_>
      <maxWeakCount>8</maxWeakCount>
      <stageThreshold>-1.5714751482009888e+000</stageThreshold>
      <weakClassifiers>
        <_>
          <internalNodes>
            0 -1 75 872366079 -269484034 -789840937 -153136142 -74449921
            -17665 -221448233 -524297</internalNodes>
          <leafValues>
            -6.5096360445022583e-001 3.0329042673110962e-001</leafValues></_>
        <_>
          <internalNodes>
            0 -1 115 -578865281 -33596453 -557989889 -1160227587
            2069806080 -71571777 -84164898 -1204668123</internalNodes>
          <leafValues>
            -5.1741844415664673e-001 4.5567253232002258e-001</leafValues></_>
        <_>
          <internalNodes>
            0 -1 90 -201459759 370856797 -1087128584 1071636477
            -134906884 1060748792 -6757704 989501596</internalNodes>
          <leafValues>
            -5.8733189105987549e-001 4.3187478184700012e-001</leafValues></_>
        <_>
          <internalNodes>
            0 -1 67 1580202735 -806426001 1973324482 -1434779906
            1335577727 1332070990 -274689 -556863490</internalNodes>
          <leafValues>
            -5.2448982000350952e-001 4.5419922471046448e-001</leafValues></_>
        <_>
          <internalNodes>
            0 -1 15 -550507537 -353697810 -1360081176 -454365466
            1467449174 1337032703 -285778362 -278399114</internalNodes>
          <leafValues>
            -4.4457074999809265e-001 5.4344683885574341e-001</leafValues></_>
        <_>
          <internalNodes>
            0 -1 1 -1477251081 -134566917 -268477645 -807053 -1610625025
            -268963874 805305711 -1913254028</internalNodes>
          <leafValues>
            -4.3587097525596619e-001 5.8003211021423340e-001</leafValues></_>
        <_>
          <internalNodes>
            0 -1 108 -268664580 -1086440219 937361657 -29396769
            -643287825 -23341141 211621052 1025482539</internalNodes>
          <leafValues>
            -7.0089989900588989e-001 3.6575016379356384e-001</leafValues></_>
        <_>
          <internalNodes>
            0 -1 152 -469765757 228587807 -1244679776 769640669
            -421728935 307166031 -176728588 1156570207</internalNodes>
          <leafValues>
            -6.3804310560226440e-001 3.2896167039871216e-001</leafValues></_></weakClassifiers></_>
    <!-- stage 6 -->
    <_>
      <maxWeakCount>8</maxWeakCount>
      <stageThreshold>-1.1508316993713379e+000</stageThreshold>
      <weakClassifiers>
        <_>
          <internalNodes>
            0 -1 54 -271843329 -11905 -73504998 -6627841 1207914939
            2088723329 -875565061 -538968149</internalNodes>
          <leafValues>
            -5.7199633121490479e-001 5.0699675083160400e-001</leafValues></_>
        <_>
          <internalNodes>
            0 -1 158 -579404237 -167772677 -83887361 -754992385
            -134217873 -196642 -1073823745 -67109889</internalNodes>
          <leafValues>
            -4.1114577651023865e-001 6.3974469900131226e-001</leafValues></_>
        <_>
          <internalNodes>
            0 -1 77 -134418513 -840177681 2009071598 -1327497225 -524417
            -951597713 -143263745 -135268353</internalNodes>
          <leafValues>
            -4.1702160239219666e-001 5.5855268239974976e-001</leafValues></_>
        <_>
          <internalNodes>
            0 -1 6 -269490454 -412109856 -1026889526 -353574720
            -39849369 -1007427454 -134220441 -171447324</internalNodes>
          <leafValues>
            -5.0082588195800781e-001 4.8958814144134521e-001</leafValues></_>
        <_>
          <internalNodes>
            0 -1 89 2010806236 -283142209 1911821242 2012733295
            2078272511 1439497947 1874458623 2008561652</internalNodes>
          <leafValues>
            -6.6574031114578247e-001 3.5024195909500122e-001</leafValues></_>
        <_>
          <internalNodes>
            0 -1 40 -604309953 -536898145 -687440680 -1103617098
            -608156604 2147357495 -107085825 -1082754661</internalNodes>
          <leafValues>
            -4.6486493945121765e-001 4.9946007132530212e-001</leafValues></_>
        <_>
          <internalNodes>
            0 -1 42 256356855 60788940 -115777837 -705755248 697036795
            -1108637261 -1148324107 -1399324428</internalNodes>
          <leafValues>
            -5.0390726327896118e-001 4.6002459526062012e-001</leafValues></_>
        <_>
          <internalNodes>
            0 -1 112 -1264625091 -8413940 -1846317059 1985832344
            1005288125 -176506533 -1268338757 -2140313073</internalNodes>
          <leafValues>
            -5.3400051593780518e-001 4.3846693634986877e-001</leafValues></_></weakClassifiers></_>
    <!-- stage 7 -->
    <_>
      <maxWeakCount>8</maxWeakCount>
      <stageThreshold>-1.5397109985351563e+000</stageThreshold>
      <weakClassifiers>
        <_>
          <internalNodes>
            0 -1 157 -67109041 -136315377 -339083329 -10491385
            -1459634689 -89808421 -641087235 -260048081</internalNodes>
          <leafValues>
            -5.8715891838073730e-001 3.9539170265197754e-001</leafValues></_>
        <_>
          <internalNodes>
            0 -1 49 -87113985 -349538837 -204123651 -6321727 999239679
            -296863093 1192359127 -11816485</internalNodes>
          <leafValues>
            -4.6911445260047913e-001 4.5671367645263672e-001</leafValues></_>
        <_>
          <internalNodes>
            0 -1 170 -1346388997 -1515521094 -1073742923 -131073
            -1146109975 649134009 -572533507 -570426369</internalNodes>
          <leafValues>
            -3.6568719148635864e-001 5.5758726596832275e-001</leafValues></_>
        <_>
          <internalNodes>
            0 -1 28 -364647693 -912014894 368866771 -743803646 735051767
            -876939593 -1920207499 14574964</internalNodes>
          <leafValues>
            -6.2557023763656616e-001 3.5058352351188660e-001</leafValues></_>
        <_>
          <internalNodes>
            0 -1 121 -104005780 -67132937 701290860 1274478939 153091591
            -1374185209 554104598 122814063</internalNodes>
          <leafValues>
            -7.6174992322921753e-001 2.9285287857055664e-001</leafValues></_>
        <_>
          <internalNodes>
            0 -1 41 -738953249 -168502787 -49463306 -636718 1108890044
            1509531868 2126739647 2141082394</internalNodes>
          <leafValues>
            -5.2244508266448975e-001 3.9568084478378296e-001</leafValues></_>
        <_>
          <internalNodes>
            0 -1 78 -575073795 -174867343 1502712154 -1109786145
            -1196912385 1887765181 723008511 -1255394676</internalNodes>
          <leafValues>
            -4.4506719708442688e-001 4.6120232343673706e-001</leafValues></_>
        <_>
          <internalNodes>
            0 -1 147 -756995096 -1926446741 -1190062956 -101073779
            -578290179 161123243 -1919729195 227493871</internalNodes>
          <leafValues>
            -6.1123317480087280e-001 3.4280222654342651e-001</leafValues></_></weakClassifiers></_>
    <!-- stage 8 -->
    <_>
      <maxWeakCount>10</maxWeakCount>
      <stageThreshold>-1.7660363912582397e+000</stageThreshold>
      <weakClassifiers>
        <_>
          <internalNodes>
            0 -1 120 -1073790977 2075867955 -85197057 -239338497
            -70516788 -892601381 -721683051 -269505797</internalNodes>
          <leafValues>
            -5.9838277101516724e-001 3.0519479513168335e-001</leafValues></_>
        <_>
          <internalNodes>
            0 -1 71 -75539201 -134324354 -59031553 2138897910 -16819969
            -9536005 -68097 -4522001</internalNodes>
          <leafValues>
            -3.9381548762321472e-001 5.5389094352722168e-001</leafValues></_>
        <_>
          <internalNodes>
            0 -1 164 -61087969 -126353570 -168895529 -604046561
            -1231030289 -339932651 -1737105891 271115052</internalNodes>
          <leafValues>
            -4.5402234792709351e-001 4.2340072989463806e-001</leafValues></_>
        <_>
          <internalNodes>
            0 -1 94 -1196900432 2080189947 857420783 -67434763
            2073800355 -155233337 732151083 -1347721731</internalNodes>
          <leafValues>
            -6.1607295274734497e-001 3.2265582680702209e-001</leafValues></_>
        <_>
          <internalNodes>
            0 -1 53 -16855426 -808458261 -331167134 11521735 1536659967
            1393351241 -73442866 1208304523</internalNodes>
          <leafValues>
            -6.8995463848114014e-001 3.0458140373229980e-001</leafValues></_>
        <_>
          <internalNodes>
            0 -1 58 -104025608 -547834942 362729690 -209867600
            1981287359 1328112786 -153262238 2012768131</internalNodes>
          <leafValues>
            -7.0047223567962646e-001 2.5721409916877747e-001</leafValues></_>
        <_>
          <internalNodes>
            0 -1 3 -470948370 -587812458 -1071136498 -976822140
            1404009767 957584547 499634435 -572137224</internalNodes>
          <leafValues>
            -4.7083705663681030e-001 4.3703389167785645e-001</leafValues></_>
        <_>
          <internalNodes>
            0 -1 113 -991035132 -112391361 35255247 -637516901
            1221172367 -1963368797 -1021126721 -930480627</internalNodes>
          <leafValues>
            -6.6189235448837280e-001 3.1433823704719543e-001</leafValues></_>
        <_>
          <internalNodes>
            0 -1 30 -353371141 -420493576 1610612727 1476359077
            -1442840577 -268525715 -805306795 -306450013</internalNodes>
          <leafValues>
            -4.0626579523086548e-001 4.9733275175094604e-001</leafValues></_>
        <_>
          <internalNodes>
            0 -1 148 -1480459335 -1884306661 -715579564 1732759804
            -6047041 1042346137 -2120545800 499080397</internalNodes>
          <leafValues>
            -5.7971948385238647e-001 3.8454350829124451e-001</leafValues></_></weakClassifiers></_>
    <!-- stage 9 -->
    <_>
      <maxWeakCount>9</maxWeakCount>
      <stageThreshold>-1.3283432722091675e+000</stageThreshold>
      <weakClassifiers>
        <_>
          <internalNodes>
            0 -1 171 -393 -67111681 -16777217 -65 -16777490 -604504833
            -218105857 -83886081</internalNodes>
          <leafValues>
            -5.3533005714416504e-001 5.7950067520141602e-001</leafValues></_>
        <_>
          <internalNodes>
            0 -1 167 1800361727 -1254402828 -1152163363 2013216924
            -93332513 -1145074529 1603262861 -4457748</internalNodes>
          <leafValues>
            -4.4554775953292847e-001 4.9491184949874878e-001</leafValues></_>
        <_>
          <internalNodes>
            0 -1 13 -303575073 -816919050 -66324434 -254808114
            -1882465285 2089531565 -427657273 -461406277</internalNodes>
          <leafValues>
            -5.5839586257934570e-001 3.3063733577728271e-001</leafValues></_>
        <_>
          <internalNodes>
            0 -1 168 2080370679 762244923 1476392819 -1849692609
            -75501745 -545357969 1908406262 2069618667</internalNodes>
          <leafValues>
            -4.1010814905166626e-001 4.5017111301422119e-001</leafValues></_>
        <_>
          <internalNodes>
            0 -1 123 -1699582465 -36477814 -783221005 1892832603
            -850478801 2078599243 311752541 707814004</internalNodes>
          <leafValues>
            -5.6490892171859741e-001 3.7119835615158081e-001</leafValues></_>
        <_>
          <internalNodes>
            0 -1 166 -1073743173 1983616414 -230976097 43706847
            -77596148 74238035 -158861769 544661266</internalNodes>
          <leafValues>
            -6.0601031780242920e-001 2.7801743149757385e-001</leafValues></_>
        <_>
          <internalNodes>
            0 -1 132 -1615329864 -766312259 -2054766564 1234895230
            -1354030885 -396819742 -1145185305 469697693</internalNodes>
          <leafValues>
            -7.3234426975250244e-001 2.5643730163574219e-001</leafValues></_>
        <_>
          <internalNodes>
            0 -1 25 -2290097 -84137330 1878828911 -165122061 -8448820
            -59480482 -4097 -1052837</internalNodes>
          <leafValues>
            -4.0440478920936584e-001 4.7778943181037903e-001</leafValues></_>
        <_>
          <internalNodes>
            0 -1 82 1901917128 861403123 822669531 1876799729 -526272291
            897593992 466840571 827309303</internalNodes>
          <leafValues>
            -6.4074063301086426e-001 3.1736171245574951e-001</leafValues></_></weakClassifiers></_>
    <!-- stage 10 -->
    <_>
      <maxWeakCount>9</maxWeakCount>
      <stageThreshold>-1.4381549358367920e+000</stageThreshold>
      <weakClassifiers>
        <_>
          <internalNodes>
            0 -1 31 -277874709 -2122601 -754494529 -14397037 1875887087
            -23082015 -875836498 -815341419</internalNodes>
          <leafValues>
            -6.1841648817062378e-001 2.7981996536254883e-001</leafValues></_>
        <_>
          <internalNodes>
            0 -1 163 -4194821 -1079246941 -573451 -34865169 -262147
            -1086324737 501185789 -37750801</internalNodes>
          <leafValues>
            -3.4348425269126892e-001 5.8126604557037354e-001</leafValues></_>
        <_>
          <internalNodes>
            0 -1 139 -601894369 -576760993 1914550239 1514656119
            1514377886 -90503125 -1193841922 2054651670</internalNodes>
          <leafValues>
            -4.3602508306503296e-001 4.2306876182556152e-001</leafValues></_>
        <_>
          <internalNodes>
            0 -1 74 -1308641333 -829443771 -165953250 1920752337
            -1278214417 -909594599 -459334657 2004047063</internalNodes>
          <leafValues>
            -4.9637565016746521e-001 3.8888013362884521e-001</leafValues></_>
        <_>
          <internalNodes>
            0 -1 86 -88426088 -1084759202 387529528 930254174
            -1628399366 -426655307 1945877242 1207371967</internalNodes>
          <leafValues>
            -7.3037272691726685e-001 2.4009363353252411e-001</leafValues></_>
        <_>
          <internalNodes>
            0 -1 64 1055448504 -588365584 1555394203 1326928220
            2029033631 -72100983 512257963 184554963</internalNodes>
          <leafValues>
            -7.9227066040039063e-001 2.0143471658229828e-001</leafValues></_>
        <_>
          <internalNodes>
            0 -1 38 -11215682 -585789409 -627778828 -259995297
            -618134970 1008534289 -240195681 1946373907</internalNodes>
          <leafValues>
            -5.9255546331405640e-001 2.9624074697494507e-001</leafValues></_>
        <_>
          <internalNodes>
            0 -1 22 -339253140 -581853026 1082147686 -1345541938
            2072275704 -551565112 1530907107 -71311759</internalNodes>
          <leafValues>
            -4.5344612002372742e-001 3.9139208197593689e-001</leafValues></_>
        <_>
          <internalNodes>
            0 -1 145 -1141164227 1448796794 -70524478 -157295156
            -149946613 -1441853877 -393350411 1104124879</internalNodes>
          <leafValues>
            -5.3486275672912598e-001 3.3820149302482605e-001</leafValues></_></weakClassifiers></_>
    <!-- stage 11 -->
    <_>
      <maxWeakCount>10</maxWeakCount>
      <stageThreshold>-1.5173039436340332e+000</stageThreshold>
      <weakClassifiers>
        <_>
          <internalNodes>
            0 -1 156 -18877833 -648030609 -464007189 -606085797
            -19924294 -22341 -363143173 -94700577</internalNodes>
          <leafValues>
            -5.7561928033828735e-001 3.2332155108451843e-001</leafValues></_>
        <_>
          <internalNodes>
            0 -1 35 167769759 -1342449253 1124235986 -13569605
            1519066302 2076131749 1173346799 -870058853</internalNodes>
          <leafValues>
            -4.7348242998123169e-001 4.1324919462203979e-001</leafValues></_>
        <_>
          <internalNodes>
            0 -1 73 -1640477554 -539279119 555640108 536825767
            -1817463826 -71372637 941415407 507140079</internalNodes>
          <leafValues>
            -6.7127805948257446e-001 2.4674586951732635e-001</leafValues></_>
        <_>
          <internalNodes>
            0 -1 60 -364726302 -546605617 961815895 1571504437 975580923
            1906043163 117829619 -850542357</internalNodes>
          <leafValues>
            -5.3203010559082031e-001 3.1052288413047791e-001</leafValues></_>
        <_>
          <internalNodes>
            0 -1 159 -8914673 328958731 -1325146095 961475411 -610272538
            -156597593 -1734052935 -1871512008</internalNodes>
          <leafValues>
            -4.1496542096138000e-001 4.1414377093315125e-001</leafValues></_>
        <_>
          <internalNodes>
            0 -1 39 -37828865 -340609 -1073832001 525361139 -1073789716
            -1035049 -8396801 -1082917969</internalNodes>
          <leafValues>
            -3.1617137789726257e-001 5.7758182287216187e-001</leafValues></_>
        <_>
          <internalNodes>
            0 -1 81 881922477 -235130482 -1005957103 -268604957
            -1201095425 -1157005301 -1188931097 419553295</internalNodes>
          <leafValues>
            -5.2424633502960205e-001 3.3537217974662781e-001</leafValues></_>
        <_>
          <internalNodes>
            0 -1 131 -579870481 -805339410 2071981791 -688918809
            -1082132723 -8552610 -17443841 1311676923</internalNodes>
          <leafValues>
            -3.5884231328964233e-001 4.8605602979660034e-001</leafValues></_>
        <_>
          <internalNodes>
            0 -1 8 -299938066 -1315618370 -1065180990 -997839252
            429317229 -637390831 -899975274 -176817342</internalNodes>
          <leafValues>
            -4.7105017304420471e-001 3.8428118824958801e-001</leafValues></_>
        <_>
          <internalNodes>
            0 -1 134 -687175960 1461438618 1232488735 -1962753699
            -1054670161 1639288842 1543501451 1460654488</internalNodes>
          <leafValues>
            -5.8201962709426880e-001 3.2736292481422424e-001</leafValues></_></weakClassifiers></_>
    <!-- stage 12 -->
    <_>
      <maxWeakCount>10</maxWeakCount>
      <stageThreshold>-1.7737009525299072e+000</stageThreshold>
      <weakClassifiers>
        <_>
          <internalNodes>
            0 -1 173 1535075311 931849550 1137133648 2046815995
            2124397055 -1852972889 1874025977 -48509442</internalNodes>
          <leafValues>
            -6.1720740795135498e-001 2.0109814405441284e-001</leafValues></_>
        <_>
          <internalNodes>
            0 -1 32 -252805390 -2096248479 1610155423 934872208
            1878974206 797538258 1413944567 1331646963</internalNodes>
          <leafValues>
            -6.2067174911499023e-001 2.4301427602767944e-001</leafValues></_>
        <_>
          <internalNodes>
            0 -1 99 -608960757 -1623519630 859403902 1392494526 -4196377
            2142748670 -1073741961 -100731139</internalNodes>
          <leafValues>
            -4.0129142999649048e-001 4.2299088835716248e-001</leafValues></_>
        <_>
          <internalNodes>
            0 -1 91 -209887363 2071661526 -795995703 2130846143
            2072009182 1129029643 -476104001 792202124</internalNodes>
          <leafValues>
            -5.6323069334030151e-001 3.1501290202140808e-001</leafValues></_>
        <_>
          <internalNodes>
            0 -1 165 -692596137 1422653311 2063597527 1386215415
            -83897830 -571081729 1914594971 -251993511</internalNodes>
          <leafValues>
            -3.8800889253616333e-001 4.3355950713157654e-001</leafValues></_>
        <_>
          <internalNodes>
            0 -1 137 -616696576 1560413451 -515680430 1498011963
            -1999011196 -580268501 2053339383 -44044124</internalNodes>
          <leafValues>
            -5.1577901840209961e-001 3.0936178565025330e-001</leafValues></_>
        <_>
          <internalNodes>
            0 -1 61 337320174 -105147947 -2146874321 1710741903
            -1341460292 -73495926 -1121967665 394922765</internalNodes>
          <leafValues>
            -5.0294023752212524e-001 3.4096518158912659e-001</leafValues></_>
        <_>
          <internalNodes>
            0 -1 69 -111101190 1570621396 -785059088 869129183
            1252063646 2092991672 1336753055 1111896576</internalNodes>
          <leafValues>
            -6.9735395908355713e-001 2.3550912737846375e-001</leafValues></_>
        <_>
          <internalNodes>
            0 -1 5 -454296977 -672170010 -268486178 608566842 1735368171
            -672143379 -857739345 -39463230</internalNodes>
          <leafValues>
            -4.0746617317199707e-001 4.2908266186714172e-001</leafValues></_>
        <_>
          <internalNodes>
            0 -1 107 -3150006 -406027197 1426428307 1830542025
            -1314696405 185106566 -1560139933 1077867217</internalNodes>
          <leafValues>
            -5.1851153373718262e-001 3.5515338182449341e-001</leafValues></_></weakClassifiers></_>
    <!-- stage 13 -->
    <_>
      <maxWeakCount>10</maxWeakCount>
      <stageThreshold>-1.5248351097106934e+000</stageThreshold>
      <weakClassifiers>
        <_>
          <internalNodes>
            0 -1 177 -38010981 -1616653614 277467293 -169904699
            -1081361415 -1415513957 -1315968003 -69220353</internalNodes>
          <leafValues>
            -5.3064906597137451e-001 4.1972476243972778e-001</leafValues></_>
        <_>
          <internalNodes>
            0 -1 136 -981480025 -1524715169 16974335 1930678655
            1259034862 -1365531992 1925445591 -327683</internalNodes>
          <leafValues>
            -4.3724426627159119e-001 4.2890173196792603e-001</leafValues></_>
        <_>
          <internalNodes>
            0 -1 19 -344985618 2146389503 -285282442 1873342382
            2146913599 2113363836 1073133567 -149422337</internalNodes>
          <leafValues>
            -3.3098739385604858e-001 5.1647633314132690e-001</leafValues></_>
        <_>
          <internalNodes>
            0 -1 51 2013249406 -342953118 -331166749 -254578934
            550415615 -846491458 1974695894 -1007425345</internalNodes>
          <leafValues>
            -4.7615987062454224e-001 3.6111542582511902e-001</leafValues></_>
        <_>
          <internalNodes>
            0 -1 66 1001640475 -547655556 -616562470 -615326950
            -238331684 -1682145109 -3503924 1532156010</internalNodes>
          <leafValues>
            -4.1511330008506775e-001 4.0391376614570618e-001</leafValues></_>
        <_>
          <internalNodes>
            0 -1 149 -698357236 -780465115 -1061037829 811385835
            536867586 1103832074 1703345062 1081342843</internalNodes>
          <leafValues>
            -6.3617104291915894e-001 2.7884453535079956e-001</leafValues></_>
        <_>
          <internalNodes>
            0 -1 124 1717553876 524224665 -661531729 274022043 57289226
            -505229297 -1173861715 462494235</internalNodes>
          <leafValues>
            -6.1158239841461182e-001 2.6567018032073975e-001</leafValues></_>
        <_>
          <internalNodes>
            0 -1 138 -8869 -570736805 -262145 -542163009 -25314562
            -65707 2063515066 -1363796154</internalNodes>
          <leafValues>
            -3.5714131593704224e-001 5.1428085565567017e-001</leafValues></_>
        <_>
          <internalNodes>
            0 -1 96 395082700 -177737473 -251141295 420073937 -17802262
            -266677584 1921250255 -884001462</internalNodes>
          <leafValues>
            -5.3341197967529297e-001 3.1995034217834473e-001</leafValues></_>
        <_>
          <internalNodes>
            0 -1 153 -476714192 -1978974162 -1852075838 1171968680
            620984361 1255342433 884937191 1232074211</internalNodes>
          <leafValues>
            -5.8764976263046265e-001 2.7375999093055725e-001</leafValues></_></weakClassifiers></_>
    <!-- stage 14 -->
    <_>
      <maxWeakCount>12</maxWeakCount>
      <stageThreshold>-1.6108171939849854e+000</stageThreshold>
      <weakClassifiers>
        <_>
          <internalNodes>
            0 -1 160 -145227905 859477594 -1332723684 -44062174
            1780203999 985311931 2131463389 -15479217</internalNodes>
          <leafValues>
            -6.1544173955917358e-001 1.7131474614143372e-001</leafValues></_>
        <_>
          <internalNodes>
            0 -1 44 -1095575047 -67383144 -1080436329 2064893072
            -509890886 -1165918015 -359924737 -808717895</internalNodes>
          <leafValues>
            -4.1925975680351257e-001 4.3985626101493835e-001</leafValues></_>
        <_>
          <internalNodes>
            0 -1 129 -812909060 -575090242 288659892 1610330387
            1269354734 1461946536 -2027810057 73921767</internalNodes>
          <leafValues>
            -4.7462278604507446e-001 3.2785567641258240e-001</leafValues></_>
        <_>
          <internalNodes>
            0 -1 63 -723652466 -223697726 1074856409 885757127
            1891311848 -881942358 1911163568 1188560839</internalNodes>
          <leafValues>
            -6.3512361049652100e-001 2.3626787960529327e-001</leafValues></_>
        <_>
          <internalNodes>
            0 -1 18 -1052689 -9441364 1862250218 -9769234 -311076930
            -1384177666 -146839554 -12061473</internalNodes>
          <leafValues>
            -2.5707370042800903e-001 6.0788714885711670e-001</leafValues></_>
        <_>
          <internalNodes>
            0 -1 141 -159443156 394789599 -2147003905 1566530423
            -1576085795 -1260683125 671853294 1527700952</internalNodes>
          <leafValues>
            -5.5459010601043701e-001 2.9379564523696899e-001</leafValues></_>
        <_>
          <internalNodes>
            0 -1 70 -635393 -581166438 -787656491 1434079699 -1341194341
            -351403730 -1035900224 2047010559</internalNodes>
          <leafValues>
            -4.3718761205673218e-001 3.5872006416320801e-001</leafValues></_>
        <_>
          <internalNodes>
            0 -1 87 -1726671634 -582756146 -229256792 -470101036
            -1071527734 -226453435 1378882018 333207786</internalNodes>
          <leafValues>
            -7.1240562200546265e-001 2.2165094316005707e-001</leafValues></_>
        <_>
          <internalNodes>
            0 -1 43 -1031543062 2065915072 1897091537 1171734902
            -1934318940 2064230665 256239635 -540948687</internalNodes>
          <leafValues>
            -5.3594726324081421e-001 2.8224772214889526e-001</leafValues></_>
        <_>
          <internalNodes>
            0 -1 27 -944814437 -88272633 -2124552421 1595167503
            -882789741 -1442191196 -875847032 1145329042</internalNodes>
          <leafValues>
            -4.8066076636314392e-001 3.3538991212844849e-001</leafValues></_>
        <_>
          <internalNodes>
            0 -1 92 -225709065 -134791176 2146318321 1941054306
            1582094268 -1342883849 1325367231 -68661183</internalNodes>
          <leafValues>
            -3.2634201645851135e-001 4.8152998089790344e-001</leafValues></_>
        <_>
          <internalNodes>
            0 -1 171 -34185643 -750783169 1056940015 -4849861 -16851226
            -201884545 -1233717793 989855743</internalNodes>
          <leafValues>
            -3.5958456993103027e-001 4.6290180087089539e-001</leafValues></_></weakClassifiers></_>
    <!-- stage 15 -->
    <_>
      <maxWeakCount>11</maxWeakCount>
      <stageThreshold>-1.5520004034042358e+000</stageThreshold>
      <weakClassifiers>
        <_>
          <internalNodes>
            0 -1 174 -15776837 -1249652066 1615004140 -11812145
            -206832645 -24913013 2108403945 -12854822</internalNodes>
          <leafValues>
            -5.7176631689071655e-001 2.3648102581501007e-001</leafValues></_>
        <_>
          <internalNodes>
            0 -1 47 -827326469 -1312782 -1 -201457677 -353128997
            -1142456449 -67108897 -2097225</internalNodes>
          <leafValues>
            -2.8163844347000122e-001 6.3684022426605225e-001</leafValues></_>
        <_>
          <internalNodes>
            0 -1 76 -412718196 -1684100977 1932719512 -256648321
            -1006786132 188285642 -251529691 1329055739</internalNodes>
          <leafValues>
            -6.0331207513809204e-001 2.5220951437950134e-001</leafValues></_>
        <_>
          <internalNodes>
            0 -1 79 2122317535 -512905595 -1225296265 -555483405
            1451122638 -807551121 871331519 -615776293</internalNodes>
          <leafValues>
            -2.9876291751861572e-001 5.3414958715438843e-001</leafValues></_>
        <_>
          <internalNodes>
            0 -1 72 -283051023 -67322382 -1090551821 -574675216
            -536870913 -536870913 -536936461 -1392897947</internalNodes>
          <leafValues>
            -2.9479128122329712e-001 4.9575036764144897e-001</leafValues></_>
        <_>
          <internalNodes>
            0 -1 101 1342999629 -402738703 2008404866 2004324794
            -1080114869 261044443 1903274879 1692691236</internalNodes>
          <leafValues>
            -6.3063800334930420e-001 2.2058635950088501e-001</leafValues></_>
        <_>
          <internalNodes>
            0 -1 127 1358954175 -67190798 -940572674 -136355852
            -1144004849 2114780939 16185063 -1638990353</internalNodes>
          <leafValues>
            -3.0598857998847961e-001 5.2209371328353882e-001</leafValues></_>
        <_>
          <internalNodes>
            0 -1 93 -350549907 -212402083 961745085 891459005
            -1248247724 -1660743381 -1147073605 158350653</internalNodes>
          <leafValues>
            -5.2197873592376709e-001 3.2689207792282104e-001</leafValues></_>
        <_>
          <internalNodes>
            0 -1 23 -269496849 -1578262 -268439812 -276008978 1878479994
            2147417725 -559125 -68419681</internalNodes>
          <leafValues>
            -3.2652628421783447e-001 5.2061206102371216e-001</leafValues></_>
        <_>
          <internalNodes>
            0 -1 140 -792799401 -111174835 -1843422147 337428951
            -1458001224 -838156050 274336441 414179195</internalNodes>
          <leafValues>
            -4.3743783235549927e-001 3.8762733340263367e-001</leafValues></_>
        <_>
          <internalNodes>
            0 -1 125 -475004940 -742866060 -1678212175 1217424583
            -1551807732 849043687 138521462 1465903722</internalNodes>
          <leafValues>
            -6.2894421815872192e-001 2.4669459462165833e-001</leafValues></_></weakClassifiers></_>
    <!-- stage 16 -->
    <_>
      <maxWeakCount>11</maxWeakCount>
      <stageThreshold>-1.3356993198394775e+000</stageThreshold>
      <weakClassifiers>
        <_>
          <internalNodes>
            0 -1 55 -1147157249 -69478405 1495531771 1930087031
            -877968133 2105971072 -1151414806 -798245</internalNodes>
          <leafValues>
            -5.5827814340591431e-001 2.4237288534641266e-001</leafValues></_>
        <_>
          <internalNodes>
            0 -1 142 -5438017 -62209 -9437835 1610569078 -5269573 -24611
            -1088421953 -1612714499</internalNodes>
          <leafValues>
            -3.3369648456573486e-001 5.0458008050918579e-001</leafValues></_>
        <_>
          <internalNodes>
            0 -1 12 -268439617 -1527811 -1343311898 -1343615250
            2100780463 490601974 -828037 -807403777</internalNodes>
          <leafValues>
            -2.9983422160148621e-001 4.9983304738998413e-001</leafValues></_>
        <_>
          <internalNodes>
            0 -1 68 -647299282 -81062632 -181210852 687077371 1342344326
            -1682996923 -653422723 275960624</internalNodes>
          <leafValues>
            -6.1041444540023804e-001 2.5011557340621948e-001</leafValues></_>
        <_>
          <internalNodes>
            0 -1 178 -9437385 -910428569 -22529 -151522445 1743069101
            -34242572 -152895586 -1000999962</internalNodes>
          <leafValues>
            -2.7022841572761536e-001 5.3396862745285034e-001</leafValues></_>
        <_>
          <internalNodes>
            0 -1 85 -1571608069 -237120703 -267677694 1306329429
            2067972163 -796196701 1260187915 -681388683</internalNodes>
          <leafValues>
            -4.5793831348419189e-001 3.3028376102447510e-001</leafValues></_>
        <_>
          <internalNodes>
            0 -1 29 -942946318 2089433184 1494447057 1674430579
            -1992697101 -1113948015 178878196 1187995815</internalNodes>
          <leafValues>
            -5.0137919187545776e-001 2.9055267572402954e-001</leafValues></_>
        <_>
          <internalNodes>
            0 -1 176 -1113869576 -135302720 1342329063 -77899635
            -1096024344 973801577 151518206 -377496075</internalNodes>
          <leafValues>
            -4.1342976689338684e-001 3.8047483563423157e-001</leafValues></_>
        <_>
          <internalNodes>
            0 -1 109 1800994684 937067647 -1047343022 -83207224
            1703146425 122421643 -133940996 607987510</internalNodes>
          <leafValues>
            -6.4891463518142700e-001 2.5151374936103821e-001</leafValues></_>
        <_>
          <internalNodes>
            0 -1 104 -210037456 -881451996 90204607 1978818763
            -253445953 732179850 2066591246 -665655078</internalNodes>
          <leafValues>
            -6.4510709047317505e-001 2.1773956716060638e-001</leafValues></_>
        <_>
          <internalNodes>
            0 -1 122 -947198840 -771571036 592594428 -2098052848
            -109371206 302260278 -489078603 389501390</internalNodes>
          <leafValues>
            -7.2068727016448975e-001 1.8952281773090363e-001</leafValues></_></weakClassifiers></_>
    <!-- stage 17 -->
    <_>
      <maxWeakCount>11</maxWeakCount>
      <stageThreshold>-1.2367465496063232e+000</stageThreshold>
      <weakClassifiers>
        <_>
          <internalNodes>
            0 -1 7 -405804033 -240130430 -1560067106 -406134042
            -238036065 -55334007 -89152513 -1054729</internalNodes>
          <leafValues>
            -5.5421304702758789e-001 3.2511848211288452e-001</leafValues></_>
        <_>
          <internalNodes>
            0 -1 144 -2080563273 -1347366657 -1835801917 870291653
            -15859963 -351548805 -350424074 8388595</internalNodes>
          <leafValues>
            -5.7314342260360718e-001 2.2142554819583893e-001</leafValues></_>
        <_>
          <internalNodes>
            0 -1 95 -1174521113 -1269817134 84421069 961747343 444677859
            1054412962 881675195 157368066</internalNodes>
          <leafValues>
            -5.0649118423461914e-001 2.5868347287178040e-001</leafValues></_>
        <_>
          <internalNodes>
            0 -1 162 -25605 1044053743 -537567779 -201916422 -1904765372
            -1136853460 494914793 -1923350597</internalNodes>
          <leafValues>
            -3.1728982925415039e-001 4.2919364571571350e-001</leafValues></_>
        <_>
          <internalNodes>
            0 -1 98 -941791447 1429567878 1107378768 924541337
            -2008586844 -645430909 862185687 -541400115</internalNodes>
          <leafValues>
            -3.9750468730926514e-001 3.5502237081527710e-001</leafValues></_>
        <_>
          <internalNodes>
            0 -1 154 1119901948 1500398003 826979423 -1080069767
            -192539926 1527546042 2055919610 178403298</internalNodes>
          <leafValues>
            -5.0810515880584717e-001 3.0518725514411926e-001</leafValues></_>
        <_>
          <internalNodes>
            0 -1 179 -612918537 1281883647 -5316946 -2075480321
            -467274251 496989557 -184830731 -997482058</internalNodes>
          <leafValues>
            -3.2883352041244507e-001 4.1573548316955566e-001</leafValues></_>
        <_>
          <internalNodes>
            0 -1 143 -943915013 -1014250826 1751278137 1116328128
            1121309470 4735235 403341035 1460420959</internalNodes>
          <leafValues>
            -4.3071815371513367e-001 3.5513219237327576e-001</leafValues></_>
        <_>
          <internalNodes>
            0 -1 172 -1148455345 2147172135 -8329 -603979929 -487792661
            -201457801 -1372143618 -62405299</internalNodes>
          <leafValues>
            -3.1243452429771423e-001 4.6421447396278381e-001</leafValues></_>
        <_>
          <internalNodes>
            0 -1 88 -1841420621 -907480192 -2105367595 -86387236
            -103618870 -821531391 -527668362 1068840529</internalNodes>
          <leafValues>
            -5.2212727069854736e-001 2.6725602149963379e-001</leafValues></_>
        <_>
          <internalNodes>
            0 -1 24 -143849364 -758610801 -787687058 780157095
            2023702776 2040793114 731314491 1502903292</internalNodes>
          <leafValues>
            -6.0461223125457764e-001 2.2641581296920776e-001</leafValues></_></weakClassifiers></_>
    <!-- stage 18 -->
    <_>
      <maxWeakCount>12</maxWeakCount>
      <stageThreshold>-1.9930653572082520e+000</stageThreshold>
      <weakClassifiers>
        <_>
          <internalNodes>
            0 -1 21 -403709202 -139730005 -884874241 -278477906
            2007711967 -131397463 -67441669 -1025</internalNodes>
          <leafValues>
            -5.6844234466552734e-001 2.3176661133766174e-001</leafValues></_>
        <_>
          <internalNodes>
            0 -1 97 -1073824835 -1287728301 1732062190 1340054466
            -1949884133 -548837375 232773822 2135924430</internalNodes>
          <leafValues>
            -4.8150560259819031e-001 2.8399026393890381e-001</leafValues></_>
        <_>
          <internalNodes>
            0 -1 102 -335740963 -1627062403 -226496078 1068498687
            -245564184 -36406051 837680366 -104992257</internalNodes>
          <leafValues>
            -3.2177361845970154e-001 4.0056553483009338e-001</leafValues></_>
        <_>
          <internalNodes>
            0 -1 150 1938118516 1397044183 1344123598 1460224850
            -1439439173 -254019443 440064939 474680669</internalNodes>
          <leafValues>
            -6.2275171279907227e-001 2.1220053732395172e-001</leafValues></_>
        <_>
          <internalNodes>
            0 -1 119 -603990032 1000410162 -803650613 1352714433
            -1957754100 -1158049203 -1727799654 -611063077</internalNodes>
          <leafValues>
            -4.0556272864341736e-001 3.6421051621437073e-001</leafValues></_>
        <_>
          <internalNodes>
            0 -1 45 -269749467 387416578 5460379 1058074625 791399243
            -77032789 -1404399699 -950615323</internalNodes>
          <leafValues>
            -3.8170686364173889e-001 3.4394896030426025e-001</leafValues></_>
        <_>
          <internalNodes>
            0 -1 111 -5308483 187612687 -49667 -1623982081 -1073758241
            -1094877393 -1116402243 -1925495537</internalNodes>
          <leafValues>
            -2.8945994377136230e-001 4.8723331093788147e-001</leafValues></_>
        <_>
          <internalNodes>
            0 -1 135 -1313015892 -645230454 -519944104 777223187
            -219436534 -1744203767 -1550220489 -529908097</internalNodes>
          <leafValues>
            -5.2184331417083740e-001 2.6930838823318481e-001</leafValues></_>
        <_>
          <internalNodes>
            0 -1 175 -136498963 331612179 -513490751 864754127
            -234030835 -351713272 -37387535 2034226431</internalNodes>
          <leafValues>
            -3.9177176356315613e-001 3.5135161876678467e-001</leafValues></_>
        <_>
          <internalNodes>
            0 -1 48 -292826639 -15834544 520573351 1911276003 -357854293
            -273516608 1503746263 -842164683</internalNodes>
          <leafValues>
            -3.5996839404106140e-001 3.8232666254043579e-001</leafValues></_>
        <_>
          <internalNodes>
            0 -1 83 -831586532 667915677 -510440361 2142334982
            -339280945 1674414574 1641619421 1255111506</internalNodes>
          <leafValues>
            -4.5471271872520447e-001 3.1997382640838623e-001</leafValues></_>
        <_>
          <internalNodes>
            0 -1 0 -818101044 -210763794 -826315094 1341058284
            1056898447 -272629762 1014472187 -751354539</internalNodes>
          <leafValues>
            -3.6613678932189941e-001 3.8043624162673950e-001</leafValues></_></weakClassifiers></_>
    <!-- stage 19 -->
    <_>
      <maxWeakCount>12</maxWeakCount>
      <stageThreshold>-1.4682923555374146e+000</stageThreshold>
      <weakClassifiers>
        <_>
          <internalNodes>
            0 -1 4 -167779329 -212614453 1092059155 -410074938 -80224037
            -129302461 -121404705 -207095833</internalNodes>
          <leafValues>
            -4.9824562668800354e-001 3.8974359631538391e-001</leafValues></_>
        <_>
          <internalNodes>
            0 -1 100 -694184594 -49573831 835195096 2140741103
            -133612929 18324611 -667166465 2147287037</internalNodes>
          <leafValues>
            -5.3278821706771851e-001 2.3117601871490479e-001</leafValues></_>
        <_>
          <internalNodes>
            0 -1 103 -1074432587 571602973 295033943 -395215695
            -1978929729 -875826747 327939571 -1942669824</internalNodes>
          <leafValues>
            -4.7688627243041992e-001 2.4907629191875458e-001</leafValues></_>
        <_>
          <internalNodes>
            0 -1 59 2147478268 -16863377 -70213 -1692237893 -9022252
            -864264329 -150994945 -1075601673</internalNodes>
          <leafValues>
            -2.5043392181396484e-001 4.6616491675376892e-001</leafValues></_>
        <_>
          <internalNodes>
            0 -1 118 -154463393 2004849089 -1877910273 -90319789
            1375873572 -1456930513 -458318082 984745079</internalNodes>
          <leafValues>
            -4.6257093548774719e-001 2.6956862211227417e-001</leafValues></_>
        <_>
          <internalNodes>
            0 -1 128 -1222716757 -657983647 -2136947225 -1215450654
            -624187392 -81551352 -366187529 -1277606508</internalNodes>
          <leafValues>
            -3.5633209347724915e-001 3.7490835785865784e-001</leafValues></_>
        <_>
          <internalNodes>
            0 -1 106 -804676228 824185010 -1571565698 1934625347
            -1409096133 -617960778 -1743482792 -1288540470</internalNodes>
          <leafValues>
            -5.7034718990325928e-001 2.3970983922481537e-001</leafValues></_>
        <_>
          <internalNodes>
            0 -1 117 -658383363 -1096175640 1073733241 -1107779587
            1853742495 -537333795 1852690651 -35663627</internalNodes>
          <leafValues>
            -2.8150850534439087e-001 4.9154937267303467e-001</leafValues></_>
        <_>
          <internalNodes>
            0 -1 20 -345526836 2146381151 1874849662 -269554186
            1735851678 -33025 2142846847 -1048577</internalNodes>
          <leafValues>
            -2.8046041727066040e-001 4.7851288318634033e-001</leafValues></_>
        <_>
          <internalNodes>
            0 -1 146 -740848339 872813067 143491582 537249448 1054317070
            1242677263 316617623 666423804</internalNodes>
          <leafValues>
            -5.4663461446762085e-001 2.4603196978569031e-001</leafValues></_>
        <_>
          <internalNodes>
            0 -1 56 -597760441 -854863525 -1341786004 -694213543
            453085844 -880377822 -183633736 -115104702</internalNodes>
          <leafValues>
            -3.5774308443069458e-001 3.7457668781280518e-001</leafValues></_>
        <_>
          <internalNodes>
            0 -1 36 1577244378 1494818823 -1710597640 205767762 22690164
            -1137967086 -1441216277 335600658</internalNodes>
          <leafValues>
            -6.5015906095504761e-001 2.1584714949131012e-001</leafValues></_></weakClassifiers></_></stages>
  <features>
    <_>
      <rect>
        0 0 1 1</rect></_>
    <_>
      <rect>
        0 0 6 2</rect></_>
    <_>
      <rect>
        0 0 8 6</rect></_>
    <_>
      <rect>
        0 1 1 4</rect></_>
    <_>
      <rect>
        0 1 1 5</rect></_>
    <_>
      <rect>
        0 1 3 5</rect></_>
    <_>
      <rect>
        0 3 1 2</rect></_>
    <_>
      <rect>
        0 4 1 2</rect></_>
    <_>
      <rect>
        0 4 1 4</rect></_>
    <_>
      <rect>
        0 5 1 1</rect></_>
    <_>
      <rect>
        0 6 1 2</rect></_>
    <_>
      <rect>
        0 6 1 3</rect></_>
    <_>
      <rect>
        0 6 1 6</rect></_>
    <_>
      <rect>
        0 7 4 2</rect></_>
    <_>
      <rect>
        0 8 1 5</rect></_>
    <_>
      <rect>
        0 9 1 3</rect></_>
    <_>
      <rect>
        0 9 6 5</rect></_>
    <_>
      <rect>
        0 10 1 2</rect></_>
    <_>
      <rect>
        0 10 1 3</rect></_>
    <_>
      <rect>
        0 10 1 4</rect></_>
    <_>
      <rect>
        0 12 1 4</rect></_>
    <_>
      <rect>
        0 14 1 2</rect></_>
    <_>
      <rect>
        0 14 1 3</rect></_>
    <_>
      <rect>
        0 15 1 2</rect></_>
    <_>
      <rect>
        0 15 2 3</rect></_>
    <_>
      <rect>
        0 17 2 2</rect></_>
    <_>
      <rect>
        1 0 2 3</rect></_>
    <_>
      <rect>
        1 0 2 5</rect></_>
    <_>
      <rect>
        1 0 3 2</rect></_>
    <_>
      <rect>
        1 0 4 2</rect></_>
    <_>
      <rect>
        1 1 2 2</rect></_>
    <_>
      <rect>
        1 1 2 5</rect></_>
    <_>
      <rect>
        1 1 4 4</rect></_>
    <_>
      <rect>
        1 1 7 2</rect></_>
    <_>
      <rect>
        1 3 4 5</rect></_>
    <_>
      <rect>
        1 9 2 4</rect></_>
    <_>
      <rect>
        1 11 4 4</rect></_>
    <_>
      <rect>
        1 15 2 3</rect></_>
    <_>
      <rect>
        1 17 4 2</rect></_>
    <_>
      <rect>
        1 18 2 2</rect></_>
    <_>
      <rect>
        1 18 3 2</rect></_>
    <_>
      <rect>
        1 18 6 2</rect></_>
    <_>
      <rect>
        2 0 4 1</rect></_>
    <_>
      <rect>
        2 0 4 6</rect></_>
    <_>
      <rect>
        2 1 1 2</rect></_>
    <_>
      <rect>
        2 1 2 5</rect></_>
    <_>
      <rect>
        2 1 7 3</rect></_>
    <_>
      <rect>
        2 2 1 1</rect></_>
    <_>
      <rect>
        2 2 2 2</rect></_>
    <_>
      <rect>
        2 2 4 4</rect></_>
    <_>
      <rect>
        2 2 7 7</rect></_>
    <_>
      <rect>
        2 4 3 3</rect></_>
    <_>
      <rect>
        2 5 3 3</rect></_>
    <_>
      <rect>
        2 7 3 4</rect></_>
    <_>
      <rect>
        2 8 2 5</rect></_>
    <_>
      <rect>
        2 10 1 3</rect></_>
    <_>
      <rect>
        2 13 2 2</rect></_>
    <_>
      <rect>
        2 14 7 3</rect></_>
    <_>
      <rect>
        2 17 6 2</rect></_>
    <_>
      <rect>
        2 19 1 1</rect></_>
    <_>
      <rect>
        3 0 4 5</rect></_>
    <_>
      <rect>
        3 0 6 1</rect></_>
    <_>
      <rect>
        3 0 6 4</rect></_>
    <_>
      <rect>
        3 0 7 3</rect></_>
    <_>
      <rect>
        3 3 2 6</rect></_>
    <_>
      <rect>
        3 6 6 5</rect></_>
    <_>
      <rect>
        3 10 1 3</rect></_>
    <_>
      <rect>
        3 10 2 3</rect></_>
    <_>
      <rect>
        3 10 3 4</rect></_>
    <_>
      <rect>
        3 14 6 3</rect></_>
    <_>
      <rect>
        3 17 1 2</rect></_>
    <_>
      <rect>
        3 19 1 1</rect></_>
    <_>
      <rect>
        4 0 3 1</rect></_>
    <_>
      <rect>
        4 4 2 5</rect></_>
    <_>
      <rect>
        4 5 3 3</rect></_>
    <_>
      <rect>
        4 6 2 2</rect></_>
    <_>
      <rect>
        4 7 3 4</rect></_>
    <_>
      <rect>
        4 9 2 2</rect></_>
    <_>
      <rect>
        4 13 5 1</rect></_>
    <_>
      <rect>
        4 15 1 1</rect></_>
    <_>
      <rect>
        5 0 3 2</rect></_>
    <_>
      <rect>
        5 0 5 2</rect></_>
    <_>
      <rect>
        5 1 5 4</rect></_>
    <_>
      <rect>
        5 2 3 2</rect></_>
    <_>
      <rect>
        5 2 5 6</rect></_>
    <_>
      <rect>
        5 5 1 3</rect></_>
    <_>
      <rect>
        5 5 4 5</rect></_>
    <_>
      <rect>
        5 5 5 3</rect></_>
    <_>
      <rect>
        5 7 2 2</rect></_>
    <_>
      <rect>
        5 10 5 4</rect></_>
    <_>
      <rect>
        5 18 6 2</rect></_>
    <_>
      <rect>
        5 20 1 1</rect></_>
    <_>
      <rect>
        5 20 4 1</rect></_>
    <_>
      <rect>
        5 21 2 1</rect></_>
    <_>
      <rect>
        6 1 2 6</rect></_>
    <_>
      <rect>
        6 1 4 1</rect></_>
    <_>
      <rect>
        6 2 4 4</rect></_>
    <_>
      <rect>
        6 5 4 6</rect></_>
    <_>
      <rect>
        6 7 2 5</rect></_>
    <_>
      <rect>
        6 10 2 3</rect></_>
    <_>
      <rect>
        6 10 4 3</rect></_>
    <_>
      <rect>
        6 13 4 2</rect></_>
    <_>
      <rect>
        6 17 5 2</rect></_>
    <_>
      <rect>
        7 0 2 2</rect></_>
    <_>
      <rect>
        7 1 5 5</rect></_>
    <_>
      <rect>
        8 0 5 7</rect></_>
    <_>
      <rect>
        8 3 5 7</rect></_>
    <_>
      <rect>
        8 5 1 1</rect></_>
    <_>
      <rect>
        8 6 4 5</rect></_>
    <_>
      <rect>
        8 13 3 3</rect></_>
    <_>
      <rect>
        8 20 3 1</rect></_>
    <_>
      <rect>
        8 21 5 1</rect></_>
    <_>
      <rect>
        9 0 4 2</rect></_>
    <_>
      <rect>
        9 1 4 5</rect></_>
    <_>
      <rect>
        10 0 3 2</rect></_>
    <_>
      <rect>
        10 0 4 1</rect></_>
    <_>
      <rect>
        10 1 4 4</rect></_>
    <_>
      <rect>
        10 18 3 2</rect></_>
    <_>
      <rect>
        11 0 4 1</rect></_>
    <_>
      <rect>
        11 2 4 4</rect></_>
    <_>
      <rect>
        11 4 4 3</rect></_>
    <_>
      <rect>
        11 5 4 4</rect></_>
    <_>
      <rect>
        11 7 3 4</rect></_>
    <_>
      <rect>
        12 0 2 2</rect></_>
    <_>
      <rect>
        12 1 3 4</rect></_>
    <_>
      <rect>
        12 1 4 6</rect></_>
    <_>
      <rect>
        12 3 4 4</rect></_>
    <_>
      <rect>
        12 4 3 4</rect></_>
    <_>
      <rect>
        12 5 2 3</rect></_>
    <_>
      <rect>
        12 13 3 3</rect></_>
    <_>
      <rect>
        13 0 3 1</rect></_>
    <_>
      <rect>
        13 5 1 1</rect></_>
    <_>
      <rect>
        13 5 2 5</rect></_>
    <_>
      <rect>
        13 5 3 3</rect></_>
    <_>
      <rect>
        13 6 2 5</rect></_>
    <_>
      <rect>
        13 7 2 3</rect></_>
    <_>
      <rect>
        13 10 2 3</rect></_>
    <_>
      <rect>
        13 11 3 3</rect></_>
    <_>
      <rect>
        14 0 2 1</rect></_>
    <_>
      <rect>
        14 0 3 2</rect></_>
    <_>
      <rect>
        14 1 3 3</rect></_>
    <_>
      <rect>
        14 3 2 5</rect></_>
    <_>
      <rect>
        14 4 2 5</rect></_>
    <_>
      <rect>
        14 6 1 1</rect></_>
    <_>
      <rect>
        14 7 2 2</rect></_>
    <_>
      <rect>
        14 8 2 2</rect></_>
    <_>
      <rect>
        14 11 2 2</rect></_>
    <_>
      <rect>
        14 17 3 2</rect></_>
    <_>
      <rect>
        14 18 3 2</rect></_>
    <_>
      <rect>
        15 3 3 4</rect></_>
    <_>
      <rect>
        15 4 2 5</rect></_>
    <_>
      <rect>
        15 7 2 2</rect></_>
    <_>
      <rect>
        15 11 3 3</rect></_>
    <_>
      <rect>
        15 15 3 2</rect></_>
    <_>
      <rect>
        16 0 1 1</rect></_>
    <_>
      <rect>
        16 10 2 3</rect></_>
    <_>
      <rect>
        17 1 2 2</rect></_>
    <_>
      <rect>
        17 1 2 5</rect></_>
    <_>
      <rect>
        17 2 2 1</rect></_>
    <_>
      <rect>
        17 3 2 4</rect></_>
    <_>
      <rect>
        17 8 2 5</rect></_>
    <_>
      <rect>
        17 13 1 1</rect></_>
    <_>
      <rect>
        17 13 2 3</rect></_>
    <_>
      <rect>
        17 17 2 2</rect></_>
    <_>
      <rect>
        18 0 2 5</rect></_>
    <_>
      <rect>
        18 1 2 2</rect></_>
    <_>
      <rect>
        18 4 2 2</rect></_>
    <_>
      <rect>
        18 11 1 3</rect></_>
    <_>
      <rect>
        18 15 1 1</rect></_>
    <_>
      <rect>
        18 15 2 3</rect></_>
    <_>
      <rect>
        18 17 2 2</rect></_>
    <_>
      <rect>
        19 2 1 1</rect></_>
    <_>
      <rect>
        19 3 1 4</rect></_>
    <_>
      <rect>
        19 9 1 4</rect></_>
    <_>
      <rect>
        19 10 1 3</rect></_>
    <_>
      <rect>
        19 16 1 1</rect></_>
    <_>
      <rect>
        19 17 1 2</rect></_>
    <_>
      <rect>
        19 19 1 1</rect></_>
    <_>
      <rect>
        21 4 1 4</rect></_>
    <_>
      <rect>
        21 8 1 3</rect></_></features></cascade>
</opencv_storage>
