<?xml version="1.0"?>
<opencv_storage>
<cascade>
  <stageType>BOOST</stageType>
  <featureType>LBP</featureType>
  <height>24</height>
  <width>24</width>
  <stageParams>
    <boostType>GAB</boostType>
    <minHitRate>9.9900001287460327e-001</minHitRate>
    <maxFalseAlarm>5.0000000000000000e-001</maxFalseAlarm>
    <weightTrimRate>9.4999999999999996e-001</weightTrimRate>
    <maxDepth>1</maxDepth>
    <maxWeakCount>100</maxWeakCount></stageParams>
  <featureParams>
    <maxCatCount>256</maxCatCount>
    <featSize>1</featSize></featureParams>
  <stageNum>20</stageNum>
  <stages>
    <!-- stage 0 -->
    <_>
      <maxWeakCount>5</maxWeakCount>
      <stageThreshold>-6.4886718988418579e-001</stageThreshold>
      <weakClassifiers>
        <_>
          <internalNodes>
            0 -1 31 -5584150 -307202 267517937 -1867791 -1900409670
            -872423554 -1073762149 -537395201</internalNodes>
          <leafValues>
            -6.6808509826660156e-001 7.8113210201263428e-001</leafValues></_>
        <_>
          <internalNodes>
            0 -1 95 -573180679 -37535360 285282653 -611069931 -913653572
            -1207255024 269043849 -1660166439</internalNodes>
          <leafValues>
            -6.1908715963363647e-001 8.1161779165267944e-001</leafValues></_>
        <_>
          <internalNodes>
            0 -1 43 -83827747 -82722156 268472390 1493254464 -930864998
            1531611785 1076616859 1527733727</internalNodes>
          <leafValues>
            -6.7455571889877319e-001 6.7273068428039551e-001</leafValues></_>
        <_>
          <internalNodes>
            0 -1 24 -649920774 1527779459 303583441 -602385903
            -827668390 1259872256 -1995709697 -549496193</internalNodes>
          <leafValues>
            -6.8886590003967285e-001 6.5119874477386475e-001</leafValues></_>
        <_>
          <internalNodes>
            0 -1 73 -3282220 -117190478 -1052151342 -78065321
            -1828028270 -1165819888 17352856 -1081353509</internalNodes>
          <leafValues>
            -6.4071989059448242e-001 6.6166204214096069e-001</leafValues></_></weakClassifiers></_>
    <!-- stage 1 -->
    <_>
      <maxWeakCount>5</maxWeakCount>
      <stageThreshold>-6.6233152151107788e-001</stageThreshold>
      <weakClassifiers>
        <_>
          <internalNodes>
            0 -1 19 -832385313 -813707521 -1916809729 1340818939
            -396301570 -822091779 1607960575 1606354143</internalNodes>
          <leafValues>
            -6.5005791187286377e-001 6.6930520534515381e-001</leafValues></_>
        <_>
          <internalNodes>
            0 -1 27 -71964950 -548285630 1089561063 1461260435
            -511133542 -1347712894 537516991 1598792458</internalNodes>
          <leafValues>
            -7.0600581169128418e-001 5.9938967227935791e-001</leafValues></_>
        <_>
          <internalNodes>
            0 -1 37 -8432364 -204320734 -669920953 -683782113 1252296888
            -628572126 -1723168129 -540345893</internalNodes>
          <leafValues>
            -6.3380205631256104e-001 6.1331570148468018e-001</leafValues></_>
        <_>
          <internalNodes>
            0 -1 56 -251072004 -617498359 355619327 -1290186730
            1107344878 -1966571384 -1736334338 -537579141</internalNodes>
          <leafValues>
            -6.0785633325576782e-001 6.3845759630203247e-001</leafValues></_>
        <_>
          <internalNodes>
            0 -1 87 -1079640421 -8388611 -1358963913 -161480705
            -1368486068 -1367408785 10487201 -889200673</internalNodes>
          <leafValues>
            -5.4898345470428467e-001 6.8907666206359863e-001</leafValues></_></weakClassifiers></_>
    <!-- stage 2 -->
    <_>
      <maxWeakCount>6</maxWeakCount>
      <stageThreshold>-1.2007673978805542e+000</stageThreshold>
      <weakClassifiers>
        <_>
          <internalNodes>
            0 -1 29 -391459073 -1515454721 -1060867 -813735937
            -353718545 -268435461 1138579445 -536912129</internalNodes>
          <leafValues>
            -6.0805082321166992e-001 7.3295456171035767e-001</leafValues></_>
        <_>
          <internalNodes>
            0 -1 111 -29360205 -1077936197 -268437519 -4101 -1073873066
            -1645215877 -536873519 -603981835</internalNodes>
          <leafValues>
            -5.3227275609970093e-001 7.3947978019714355e-001</leafValues></_>
        <_>
          <internalNodes>
            0 -1 85 -680265903 -145370812 -1324789157 907581262
            325783583 -95715182 168463343 257881951</internalNodes>
          <leafValues>
            -7.0579314231872559e-001 5.6228101253509521e-001</leafValues></_>
        <_>
          <internalNodes>
            0 -1 2 -708385874 -201165728 84464975 1939560911 -194280030
            -1300004862 -620780338 1401944655</internalNodes>
          <leafValues>
            -7.8217691183090210e-001 4.7035700082778931e-001</leafValues></_>
        <_>
          <internalNodes>
            0 -1 46 -1415051649 2147446719 -24577 -905283 259933917
            -570458113 -1073797125 -1141694595</internalNodes>
          <leafValues>
            -5.1114344596862793e-001 7.5460457801818848e-001</leafValues></_>
        <_>
          <internalNodes>
            0 -1 41 -71903769 -810679289 -25305233 1381457429 -16781313
            -855670817 -25698321 -10494115</internalNodes>
          <leafValues>
            -5.8193826675415039e-001 6.9806504249572754e-001</leafValues></_></weakClassifiers></_>
    <!-- stage 3 -->
    <_>
      <maxWeakCount>5</maxWeakCount>
      <stageThreshold>-7.6213341951370239e-001</stageThreshold>
      <weakClassifiers>
        <_>
          <internalNodes>
            0 -1 106 -268438029 -1346375685 -845154831 -4203521
            -41943803 522846058 1163253205 -815792681</internalNodes>
          <leafValues>
            -5.8880513906478882e-001 6.9747900962829590e-001</leafValues></_>
        <_>
          <internalNodes>
            0 -1 21 -227021089 -842626546 1347680339 -254859133
            164326127 1099468490 -787473946 -1082625</internalNodes>
          <leafValues>
            -6.0309278964996338e-001 6.7274582386016846e-001</leafValues></_>
        <_>
          <internalNodes>
            0 -1 99 -359163313 727126621 1363247839 -26754977 -16025592
            1489758210 -1331715422 -2109441</internalNodes>
          <leafValues>
            -5.4891735315322876e-001 6.6115987300872803e-001</leafValues></_>
        <_>
          <internalNodes>
            0 -1 8 -117578206 -401106858 -268265314 -230108954
            -711765748 -517253888 -522067741 -231811093</internalNodes>
          <leafValues>
            -7.2969162464141846e-001 5.3840190172195435e-001</leafValues></_>
        <_>
          <internalNodes>
            0 -1 65 -35709663 -1525768135 285966367 -561048497
            -778911937 -386269054 285729179 137344763</internalNodes>
          <leafValues>
            -7.1509534120559692e-001 4.9829632043838501e-001</leafValues></_></weakClassifiers></_>
    <!-- stage 4 -->
    <_>
      <maxWeakCount>5</maxWeakCount>
      <stageThreshold>-1.6805225610733032e+000</stageThreshold>
      <weakClassifiers>
        <_>
          <internalNodes>
            0 -1 96 -202378317 -268435649 -134745295 -402653189
            -210898687 -316670145 -771755599 -1006633217</internalNodes>
          <leafValues>
            -5.6837606430053711e-001 6.8796992301940918e-001</leafValues></_>
        <_>
          <internalNodes>
            0 -1 6 -218367369 -1056968381 1352831186 -663031068
            -238822799 1200036883 -239738767 -229115045</internalNodes>
          <leafValues>
            -6.1570811271667480e-001 6.0657984018325806e-001</leafValues></_>
        <_>
          <internalNodes>
            0 -1 114 -566185 -1179777 -8716425 1919680383 -1662055340 -1
            -621019532 -621215745</internalNodes>
          <leafValues>
            -5.4873520135879517e-001 6.4872372150421143e-001</leafValues></_>
        <_>
          <internalNodes>
            0 -1 45 -604287953 2080014333 -285213953 -737348 -1610724132
            1602182527 -285286533 -92348421</internalNodes>
          <leafValues>
            -5.2195197343826294e-001 6.8135476112365723e-001</leafValues></_>
        <_>
          <internalNodes>
            0 -1 63 1368390527 -101197413 357800318 1998278808 948168959
            2144147625 514708479 463602088</internalNodes>
          <leafValues>
            -6.4803916215896606e-001 5.5908119678497314e-001</leafValues></_></weakClassifiers></_>
    <!-- stage 5 -->
    <_>
      <maxWeakCount>6</maxWeakCount>
      <stageThreshold>-1.4351574182510376e+000</stageThreshold>
      <weakClassifiers>
        <_>
          <internalNodes>
            0 -1 84 856948159 756781297 353574359 -1647241123 934017467
            -1075058531 489949596 160956596</internalNodes>
          <leafValues>
            -6.6796368360519409e-001 5.8177381753921509e-001</leafValues></_>
        <_>
          <internalNodes>
            0 -1 28 -1351680001 -270357004 -1342181385 -576784
            -268959745 -2013528067 -134221855 -1610934864</internalNodes>
          <leafValues>
            -5.4706299304962158e-001 6.7980009317398071e-001</leafValues></_>
        <_>
          <internalNodes>
            0 -1 81 -67109099 2071166807 -69 -1432165389 -434 -536936833
            -16779337 -1439760385</internalNodes>
          <leafValues>
            -5.6042355298995972e-001 6.2869131565093994e-001</leafValues></_>
        <_>
          <internalNodes>
            0 -1 103 767163901 -1126428427 -1341418565 -73574561
            -1429864993 -100431609 688077573 1060115008</internalNodes>
          <leafValues>
            -7.8053224086761475e-001 4.4932240247726440e-001</leafValues></_>
        <_>
          <internalNodes>
            0 -1 72 -1341127376 1058177425 285250013 1057558705
            -1295378197 -1174367990 -1978103560 -1648817767</internalNodes>
          <leafValues>
            -5.6376498937606812e-001 5.9763538837432861e-001</leafValues></_>
        <_>
          <internalNodes>
            0 -1 3 -837950737 1860651010 -1039724071 -995178487
            1644422790 809708678 -1694158046 -168082681</internalNodes>
          <leafValues>
            -7.4100530147552490e-001 4.5772701501846313e-001</leafValues></_></weakClassifiers></_>
    <!-- stage 6 -->
    <_>
      <maxWeakCount>6</maxWeakCount>
      <stageThreshold>-1.1100162267684937e+000</stageThreshold>
      <weakClassifiers>
        <_>
          <internalNodes>
            0 -1 118 -1589334 -1431376990 -218105102 -754975886
            -142606338 -269484033 -67115017 -1</internalNodes>
          <leafValues>
            -4.7947949171066284e-001 6.7832165956497192e-001</leafValues></_>
        <_>
          <internalNodes>
            0 -1 30 -1465197829 -72172805 -268435459 -77119501
            -2085975873 -13111325 1039357823 -9</internalNodes>
          <leafValues>
            -5.2279812097549438e-001 6.0385924577713013e-001</leafValues></_>
        <_>
          <internalNodes>
            0 -1 57 1431687647 2063664277 -1848569754 1942444741
            -1584242437 989855968 298376111 318767240</internalNodes>
          <leafValues>
            -6.8111443519592285e-001 4.7706311941146851e-001</leafValues></_>
        <_>
          <internalNodes>
            0 -1 22 -287395122 -94378466 -2138914343 -606219641
            293845951 -226129920 -578625126 -162336170</internalNodes>
          <leafValues>
            -5.7347279787063599e-001 5.3293097019195557e-001</leafValues></_>
        <_>
          <internalNodes>
            0 -1 40 -2146940508 -1647050666 -650116705 -1621868200
            606707 -642776934 445303549 -1148516126</internalNodes>
          <leafValues>
            -5.5853205919265747e-001 5.4846197366714478e-001</leafValues></_>
        <_>
          <internalNodes>
            0 -1 78 -69241457 -1814445035 250091 338805015 1813176650
            -320569166 1719787906 659287023</internalNodes>
          <leafValues>
            -5.4847097396850586e-001 5.7872331142425537e-001</leafValues></_></weakClassifiers></_>
    <!-- stage 7 -->
    <_>
      <maxWeakCount>5</maxWeakCount>
      <stageThreshold>-6.3144838809967041e-001</stageThreshold>
      <weakClassifiers>
        <_>
          <internalNodes>
            0 -1 117 -134590286 -537436425 2143289087 -536936578
            -1620912902 -65665 1408956414 -88408066</internalNodes>
          <leafValues>
            -4.6930691599845886e-001 6.8080806732177734e-001</leafValues></_>
        <_>
          <internalNodes>
            0 -1 61 1360777727 362096083 220266714 188822429 1913259531
            162007051 276831999 1334273979</internalNodes>
          <leafValues>
            -6.1683535575866699e-001 5.6196016073226929e-001</leafValues></_>
        <_>
          <internalNodes>
            0 -1 25 -805315401 -38754754 -65561 1602023039 -16841482
            -50576264 -184582145 -563085641</internalNodes>
          <leafValues>
            -5.0201016664505005e-001 6.5802735090255737e-001</leafValues></_>
        <_>
          <internalNodes>
            0 -1 100 -98832515 -1459421008 1342178384 -215643900
            -526711144 -2111815680 -1207713080 -921711517</internalNodes>
          <leafValues>
            -5.5383175611495972e-001 5.6336611509323120e-001</leafValues></_>
        <_>
          <internalNodes>
            0 -1 10 -899746865 -1994291830 286736709 1599698176
            -1062661698 -1954021206 1352719073 1136616295</internalNodes>
          <leafValues>
            -7.5677704811096191e-001 4.1211956739425659e-001</leafValues></_></weakClassifiers></_>
    <!-- stage 8 -->
    <_>
      <maxWeakCount>6</maxWeakCount>
      <stageThreshold>-9.3300193548202515e-001</stageThreshold>
      <weakClassifiers>
        <_>
          <internalNodes>
            0 -1 9 -21889 -1659282 -285212929 1513815807 -47573
            -62648763 -134217729 -12062721</internalNodes>
          <leafValues>
            -4.8842105269432068e-001 6.3238096237182617e-001</leafValues></_>
        <_>
          <internalNodes>
            0 -1 105 -413445801 -115932153 -653033451 2102087690
            156795135 -360218449 -1308131188 -1172767925</internalNodes>
          <leafValues>
            -5.6121814250946045e-001 5.7920646667480469e-001</leafValues></_>
        <_>
          <internalNodes>
            0 -1 79 1264373692 2022499725 -1974796014 -118824180
            -224681814 566296775 -796679445 -1162137050</internalNodes>
          <leafValues>
            -6.9239962100982666e-001 4.5178684592247009e-001</leafValues></_>
        <_>
          <internalNodes>
            0 -1 93 -137363699 1979187199 -300093594 -747634962
            -134222580 -948109442 -578879497 -135274540</internalNodes>
          <leafValues>
            -4.1783472895622253e-001 7.1081775426864624e-001</leafValues></_>
        <_>
          <internalNodes>
            0 -1 1 -1056968985 1403563943 805302261 1979179825
            -268472833 -622595 -184557953 -707344585</internalNodes>
          <leafValues>
            -5.1393437385559082e-001 6.2539184093475342e-001</leafValues></_>
        <_>
          <internalNodes>
            0 -1 115 -68159501 1875832579 -134285321 1962932216
            -134220510 -851051136 -135309325 -841025589</internalNodes>
          <leafValues>
            -5.0864845514297485e-001 6.3700884580612183e-001</leafValues></_></weakClassifiers></_>
    <!-- stage 9 -->
    <_>
      <maxWeakCount>6</maxWeakCount>
      <stageThreshold>-1.1958434581756592e+000</stageThreshold>
      <weakClassifiers>
        <_>
          <internalNodes>
            0 -1 64 -1343739168 -537620049 -1208173571 -770051
            -142739489 -9046019 -147457 -137035819</internalNodes>
          <leafValues>
            -5.3794640302658081e-001 6.1775362491607666e-001</leafValues></_>
        <_>
          <internalNodes>
            0 -1 110 -69216845 -1861631862 1342948497 -540590076
            -628426683 -1577037815 -305224795 -6311773</internalNodes>
          <leafValues>
            -5.1990318298339844e-001 6.2009567022323608e-001</leafValues></_>
        <_>
          <internalNodes>
            0 -1 113 -17868779 -57633 -16785435 2075066108 -554299684
            -172417 -25366534 -17113093</internalNodes>
          <leafValues>
            -4.5416831970214844e-001 6.6515368223190308e-001</leafValues></_>
        <_>
          <internalNodes>
            0 -1 48 -208085619 -1827155785 -385625610 1544179829
            -254902005 -1702657533 2014570715 461068607</internalNodes>
          <leafValues>
            -6.3113063573837280e-001 5.1470756530761719e-001</leafValues></_>
        <_>
          <internalNodes>
            0 -1 88 1360491316 26247184 83969236 -538196973 1630120429
            1871192200 168533137 191592811</internalNodes>
          <leafValues>
            -7.4063736200332642e-001 3.7515559792518616e-001</leafValues></_>
        <_>
          <internalNodes>
            0 -1 97 -1110460295 1531801721 -520047913 -218005178
            -384073671 -2113277282 1350955718 -18169918</internalNodes>
          <leafValues>
            -5.5405038595199585e-001 5.4794365167617798e-001</leafValues></_></weakClassifiers></_>
    <!-- stage 10 -->
    <_>
      <maxWeakCount>5</maxWeakCount>
      <stageThreshold>-7.0372116565704346e-001</stageThreshold>
      <weakClassifiers>
        <_>
          <internalNodes>
            0 -1 26 788008702 -37121 -1342259201 -118786 267144445
            -34648065 -1077948417 -1091889665</internalNodes>
          <leafValues>
            -4.6812748908996582e-001 6.7269074916839600e-001</leafValues></_>
        <_>
          <internalNodes>
            0 -1 51 -573787649 -104336389 320617114 -1627319929
            -113051233 -267378471 2114697931 1326036421</internalNodes>
          <leafValues>
            -5.7938975095748901e-001 5.1771020889282227e-001</leafValues></_>
        <_>
          <internalNodes>
            0 -1 39 -67154209 -34668546 780074991 -73465857 -16826274
            -419528737 -1426784513 -8193</internalNodes>
          <leafValues>
            -3.9762064814567566e-001 7.2395968437194824e-001</leafValues></_>
        <_>
          <internalNodes>
            0 -1 35 -765402244 -653262753 -2003281442 1142465030
            -1698479818 -121761749 -480114389 1524571870</internalNodes>
          <leafValues>
            -7.5061130523681641e-001 4.0586778521537781e-001</leafValues></_>
        <_>
          <internalNodes>
            0 -1 59 989191184 417255696 -662656385 -203190073 -976676385
            -1314027128 1212780091 -237640009</internalNodes>
          <leafValues>
            -7.0438218116760254e-001 3.9492809772491455e-001</leafValues></_></weakClassifiers></_>
    <!-- stage 11 -->
    <_>
      <maxWeakCount>6</maxWeakCount>
      <stageThreshold>-8.7873160839080811e-001</stageThreshold>
      <weakClassifiers>
        <_>
          <internalNodes>
            0 -1 116 -1623474245 -1414856784 2147450805 -33554700
            -1376263 -1079115817 1609948669 -537920011</internalNodes>
          <leafValues>
            -4.7169810533523560e-001 6.7975831031799316e-001</leafValues></_>
        <_>
          <internalNodes>
            0 -1 109 -1207961645 -142606353 1391948576 1357381567
            2080372281 2013134783 -235408911 -39845894</internalNodes>
          <leafValues>
            -5.1078087091445923e-001 5.8422821760177612e-001</leafValues></_>
        <_>
          <internalNodes>
            0 -1 17 -488375557 -2247941 1073601525 2011656439 -478152997
            -1140983809 -939524105 -562072585</internalNodes>
          <leafValues>
            -4.1774839162826538e-001 7.3154360055923462e-001</leafValues></_>
        <_>
          <internalNodes>
            0 -1 58 -254345672 1973013636 -115787329 -6709801 -930052291
            1601734561 467108347 1023213263</internalNodes>
          <leafValues>
            -6.9943666458129883e-001 4.1220101714134216e-001</leafValues></_>
        <_>
          <internalNodes>
            0 -1 75 -609560627 -171548475 1179734207 -858881399
            -108669428 -608157669 -1454654724 -88966467</internalNodes>
          <leafValues>
            -5.4146486520767212e-001 5.4093432426452637e-001</leafValues></_>
        <_>
          <internalNodes>
            0 -1 5 -671097121 -562102435 -268517380 -1208946945
            -536994723 1342111733 -806613772 -1007165801</internalNodes>
          <leafValues>
            -4.1501095890998840e-001 7.4270004034042358e-001</leafValues></_></weakClassifiers></_>
    <!-- stage 12 -->
    <_>
      <maxWeakCount>5</maxWeakCount>
      <stageThreshold>-7.2954386472702026e-001</stageThreshold>
      <weakClassifiers>
        <_>
          <internalNodes>
            0 -1 76 -262307 -147849283 -1140917249 -1157693444 -16777988
            -8388612 -218125686 -83943969</internalNodes>
          <leafValues>
            -3.7630662322044373e-001 7.4178403615951538e-001</leafValues></_>
        <_>
          <internalNodes>
            0 -1 108 -604021379 1350697008 8713 2128166988 -225787411
            -1465761630 -1050045797 -608189731</internalNodes>
          <leafValues>
            -5.5343163013458252e-001 5.5598312616348267e-001</leafValues></_>
        <_>
          <internalNodes>
            0 -1 14 -6822033 -942812701 847602910 -251801013 1263778399
            1539403849 -754461458 -33340605</internalNodes>
          <leafValues>
            -5.5676490068435669e-001 5.1987278461456299e-001</leafValues></_>
        <_>
          <internalNodes>
            0 -1 71 352350686 1428000913 503449850 1560631802 2014413231
            1532860638 722279163 1065953512</internalNodes>
          <leafValues>
            -6.8030774593353271e-001 4.3920323252677917e-001</leafValues></_>
        <_>
          <internalNodes>
            0 -1 52 -135990987 -947473526 294519199 1344231706
            -1718075477 -1958583927 1797274367 1514568545</internalNodes>
          <leafValues>
            -6.9346421957015991e-001 3.6062937974929810e-001</leafValues></_></weakClassifiers></_>
    <!-- stage 13 -->
    <_>
      <maxWeakCount>7</maxWeakCount>
      <stageThreshold>-1.5610084533691406e+000</stageThreshold>
      <weakClassifiers>
        <_>
          <internalNodes>
            0 -1 32 -363928882 -1555576190 1342220505 -45858573
            -1601190994 -1108703221 1112455107 -364847017</internalNodes>
          <leafValues>
            -6.5379112958908081e-001 5.0499618053436279e-001</leafValues></_>
        <_>
          <internalNodes>
            0 -1 0 -269553665 -1376588 -16388 -76411296 -570953729
            -131074 -1644167169 -34122508</internalNodes>
          <leafValues>
            -4.6851241588592529e-001 6.5166175365447998e-001</leafValues></_>
        <_>
          <internalNodes>
            0 -1 60 -1978999271 -285114240 164229201 -49189291
            -1559609357 -2136375261 1930940806 -273055281</internalNodes>
          <leafValues>
            -5.7295310497283936e-001 4.9773296713829041e-001</leafValues></_>
        <_>
          <internalNodes>
            0 -1 38 -33057 -1392591875 -1224802817 1040187125 -281064356
            -822182050 351794943 -269234315</internalNodes>
          <leafValues>
            -4.9825504422187805e-001 6.0615742206573486e-001</leafValues></_>
        <_>
          <internalNodes>
            0 -1 54 -1484081281 -1315748961 -1878978045 1028092163
            167801037 -242548589 46200024 2146327026</internalNodes>
          <leafValues>
            -5.9121859073638916e-001 4.6756958961486816e-001</leafValues></_>
        <_>
          <internalNodes>
            0 -1 121 -939526297 -84983875 -17514906 1085668841
            -1140867258 914358135 -1074270465 -452985089</internalNodes>
          <leafValues>
            -4.3943417072296143e-001 6.6382980346679688e-001</leafValues></_>
        <_>
          <internalNodes>
            0 -1 49 -326650657 -1518042742 -804990695 -121843534
            -1818212149 1764263954 -1890374971 -1610750893</internalNodes>
          <leafValues>
            -5.5441939830780029e-001 5.2681249380111694e-001</leafValues></_></weakClassifiers></_>
    <!-- stage 14 -->
    <_>
      <maxWeakCount>6</maxWeakCount>
      <stageThreshold>-1.2684801816940308e+000</stageThreshold>
      <weakClassifiers>
        <_>
          <internalNodes>
            0 -1 15 -20972818 -271581202 -285278532 -58786049 2145332812
            -8421793 -8917273 -524290</internalNodes>
          <leafValues>
            -5.0057274103164673e-001 5.6521737575531006e-001</leafValues></_>
        <_>
          <internalNodes>
            0 -1 77 -1078509995 -637841633 -16811009 -84348001
            -1140850789 -1174626306 -536954885 -825122817</internalNodes>
          <leafValues>
            -4.6239081025123596e-001 5.8945018053054810e-001</leafValues></_>
        <_>
          <internalNodes>
            0 -1 83 -671312918 -779837435 1628553479 898599503
            -1737645653 -1786049530 -1859192551 -552611838</internalNodes>
          <leafValues>
            -5.4149663448333740e-001 4.8342511057853699e-001</leafValues></_>
        <_>
          <internalNodes>
            0 -1 104 -1316293889 -1692220332 436373851 -1245198095
            -1876186197 965124561 831513579 503255517</internalNodes>
          <leafValues>
            -5.5493420362472534e-001 4.7794437408447266e-001</leafValues></_>
        <_>
          <internalNodes>
            0 -1 70 22776239 1766458303 830595290 803803529 1351880637
            285841491 1672315066 1984469009</internalNodes>
          <leafValues>
            -7.5938236713409424e-001 3.1458729505538940e-001</leafValues></_>
        <_>
          <internalNodes>
            0 -1 13 -426117897 -2022235681 1107427534 -1868115942
            1242234956 1518879109 1764473064 -1617896629</internalNodes>
          <leafValues>
            -5.4041528701782227e-001 4.7750833630561829e-001</leafValues></_></weakClassifiers></_>
    <!-- stage 15 -->
    <_>
      <maxWeakCount>7</maxWeakCount>
      <stageThreshold>-1.4784398078918457e+000</stageThreshold>
      <weakClassifiers>
        <_>
          <internalNodes>
            0 -1 68 -73729 -229713 -1073905669 1002404415 -205059
            -38240439 -25526276 -1346715649</internalNodes>
          <leafValues>
            -4.1064637899398804e-001 6.6666668653488159e-001</leafValues></_>
        <_>
          <internalNodes>
            0 -1 119 -30192054 687791223 -16826637 -8388739 -151024562
            -12714249 -621023524 -655425826</internalNodes>
          <leafValues>
            -4.7422906756401062e-001 5.6740522384643555e-001</leafValues></_>
        <_>
          <internalNodes>
            0 -1 86 -17383489 -16777217 -4195465 1257471967 774831898
            1052245935 33814419 -7340065</internalNodes>
          <leafValues>
            -4.3798986077308655e-001 6.1420488357543945e-001</leafValues></_>
        <_>
          <internalNodes>
            0 -1 44 -44565153 1799596047 -721303605 2064679315
            -367443873 -1977245552 -125768996 1532156874</internalNodes>
          <leafValues>
            -5.3430026769638062e-001 5.2636820077896118e-001</leafValues></_>
        <_>
          <internalNodes>
            0 -1 18 -1015560982 -846507883 -1606286237 -804335415
            -964515710 -105697144 403368330 -70307693</internalNodes>
          <leafValues>
            -5.5883842706680298e-001 4.9015098810195923e-001</leafValues></_>
        <_>
          <internalNodes>
            0 -1 69 -1984248331 -712601463 -1068347427 -707743651
            545267935 -763328351 -265633037 74517249</internalNodes>
          <leafValues>
            -5.9733146429061890e-001 4.8630025982856750e-001</leafValues></_>
        <_>
          <internalNodes>
            0 -1 12 495678395 1904692173 -2113654526 -1850551785
            -1056081440 679477411 279367838 -409011319</internalNodes>
          <leafValues>
            -5.8405166864395142e-001 4.6001923084259033e-001</leafValues></_></weakClassifiers></_>
    <!-- stage 16 -->
    <_>
      <maxWeakCount>8</maxWeakCount>
      <stageThreshold>-1.0157952308654785e+000</stageThreshold>
      <weakClassifiers>
        <_>
          <internalNodes>
            0 -1 120 -219156921 -1212153865 -285475841 -8650753
            -420221206 -276824205 -1056973058 -521668929</internalNodes>
          <leafValues>
            -3.1862744688987732e-001 7.6030927896499634e-001</leafValues></_>
        <_>
          <internalNodes>
            0 -1 89 -134320143 792264428 2013262833 -4391044 2011166414
            1323165693 -16899 -1350051347</internalNodes>
          <leafValues>
            -4.4660797715187073e-001 5.7644343376159668e-001</leafValues></_>
        <_>
          <internalNodes>
            0 -1 42 -456919557 1652978091 -788429763 -262765485
            1388939943 -1903966070 1202420115 1184867587</internalNodes>
          <leafValues>
            -5.3340560197830200e-001 4.7531673312187195e-001</leafValues></_>
        <_>
          <internalNodes>
            0 -1 74 -569899499 -596826903 990266365 -272717397
            2114907886 -1347488898 -64616210 -187712281</internalNodes>
          <leafValues>
            -4.4017416238784790e-001 5.7994526624679565e-001</leafValues></_>
        <_>
          <internalNodes>
            0 -1 50 -1148015432 1567953929 892850441 521142344
            -1326807919 1639157937 1247253291 1482113727</internalNodes>
          <leafValues>
            -7.8723978996276855e-001 3.1369072198867798e-001</leafValues></_>
        <_>
          <internalNodes>
            0 -1 4 -356515865 -319832796 1719660324 -32788 -285212739
            -1426161665 -1040187562 -134217730</internalNodes>
          <leafValues>
            -4.1134530305862427e-001 6.5483927726745605e-001</leafValues></_>
        <_>
          <internalNodes>
            0 -1 53 -1347704387 -1074807005 1879047933 2002779901
            1878904313 1342015919 1610571263 -898579201</internalNodes>
          <leafValues>
            -5.0239366292953491e-001 5.7031005620956421e-001</leafValues></_>
        <_>
          <internalNodes>
            0 -1 33 -112397612 -133102797 289473328 -2129293180
            -846943427 2080921790 -2146615093 395127663</internalNodes>
          <leafValues>
            -7.4955683946609497e-001 3.9515691995620728e-001</leafValues></_></weakClassifiers></_>
    <!-- stage 17 -->
    <_>
      <maxWeakCount>7</maxWeakCount>
      <stageThreshold>-1.6278609037399292e+000</stageThreshold>
      <weakClassifiers>
        <_>
          <internalNodes>
            0 -1 112 -4203077 -1883504838 -131081 -2 -268436552
            -1465345400 -1075847735 -4718597</internalNodes>
          <leafValues>
            -3.6624774336814880e-001 6.8623024225234985e-001</leafValues></_>
        <_>
          <internalNodes>
            0 -1 98 -111678529 1565634794 -2126478965 -1156046356
            -360470200 -594911221 -1559838048 -1704997206</internalNodes>
          <leafValues>
            -4.7912612557411194e-001 5.5687487125396729e-001</leafValues></_>
        <_>
          <internalNodes>
            0 -1 34 -78946817 -77860709 1359282457 319303965 -1551023526
            1392607385 1493402924 1597665342</internalNodes>
          <leafValues>
            -5.8493602275848389e-001 4.4315943121910095e-001</leafValues></_>
        <_>
          <internalNodes>
            0 -1 67 -79301855 1029806145 -794737566 809718195 158250156
            -775173431 -239554130 788200403</internalNodes>
          <leafValues>
            -5.4041057825088501e-001 4.5264780521392822e-001</leafValues></_>
        <_>
          <internalNodes>
            0 -1 20 -1465782705 924557682 -1114297961 -895336249
            42326043 -1237333319 -1458527446 -272801033</internalNodes>
          <leafValues>
            -5.1839697360992432e-001 4.9025484919548035e-001</leafValues></_>
        <_>
          <internalNodes>
            0 -1 66 -105316704 -1332018621 9253383 861635672 -1029988341
            -349404093 1972994571 871890012</internalNodes>
          <leafValues>
            -6.3208651542663574e-001 4.3427875638008118e-001</leafValues></_>
        <_>
          <internalNodes>
            0 -1 90 -1374380624 -2096332406 -1181661247 -1085455219
            -796748741 -1979023182 -402013563 -842071918</internalNodes>
          <leafValues>
            -6.0476475954055786e-001 4.4086501002311707e-001</leafValues></_></weakClassifiers></_>
    <!-- stage 18 -->
    <_>
      <maxWeakCount>8</maxWeakCount>
      <stageThreshold>-7.3006522655487061e-001</stageThreshold>
      <weakClassifiers>
        <_>
          <internalNodes>
            0 -1 11 -537922590 -403722546 1493171824 -1118291 -268451913
            -4353 -1476438025 -2103305</internalNodes>
          <leafValues>
            -3.8764044642448425e-001 6.5879827737808228e-001</leafValues></_>
        <_>
          <internalNodes>
            0 -1 102 -268436489 -90244430 1006631921 -1073741839
            -75497895 -1960870376 -1887961413 -550503365</internalNodes>
          <leafValues>
            -3.9520853757858276e-001 6.4870846271514893e-001</leafValues></_>
        <_>
          <internalNodes>
            0 -1 80 -86738603 1591605585 -712910409 1927079048
            -641541859 -1414856437 -5701892 771756191</internalNodes>
          <leafValues>
            -5.8803904056549072e-001 4.4397610425949097e-001</leafValues></_>
        <_>
          <internalNodes>
            0 -1 92 192931267 616423343 1727980530 -201591822 -805327684
            -270536705 1652294647 -1097875489</internalNodes>
          <leafValues>
            -4.5186951756477356e-001 5.5209535360336304e-001</leafValues></_>
        <_>
          <internalNodes>
            0 -1 36 1610569215 -289776396 -939526785 1163615711
            -1367417417 -1895932426 -838928513 -558246434</internalNodes>
          <leafValues>
            -4.5443561673164368e-001 5.5616146326065063e-001</leafValues></_>
        <_>
          <internalNodes>
            0 -1 91 -688059128 -796917837 -2069 -1077936281 -50931566
            -1099005971 2061418200 -84531241</internalNodes>
          <leafValues>
            -4.5078122615814209e-001 6.0729235410690308e-001</leafValues></_>
        <_>
          <internalNodes>
            0 -1 62 769698735 -1020845621 269844761 1528281302
            1912756555 118063624 -2095004753 2136684171</internalNodes>
          <leafValues>
            -5.2957022190093994e-001 5.2397090196609497e-001</leafValues></_>
        <_>
          <internalNodes>
            0 -1 23 -673787401 -1052571939 -2130656368 -1241463754
            1971755264 159488322 -401737506 1330993242</internalNodes>
          <leafValues>
            -5.4877263307571411e-001 5.1291745901107788e-001</leafValues></_></weakClassifiers></_>
    <!-- stage 19 -->
    <_>
      <maxWeakCount>8</maxWeakCount>
      <stageThreshold>-1.0486997365951538e+000</stageThreshold>
      <weakClassifiers>
        <_>
          <internalNodes>
            0 -1 7 -545267090 -541017 -285290836 -184619793 -5052 -32908
            -310792518 -92279329</internalNodes>
          <leafValues>
            -3.7099811434745789e-001 6.3326227664947510e-001</leafValues></_>
        <_>
          <internalNodes>
            0 -1 94 -526669047 -2103860509 67207389 -620210313
            -932729811 -1961521120 -385355841 -552274671</internalNodes>
          <leafValues>
            -4.8732966184616089e-001 4.8879873752593994e-001</leafValues></_>
        <_>
          <internalNodes>
            0 -1 107 1945612531 -252182529 -1090815131 2146140159
            1391958712 -67119233 712602362 -488833029</internalNodes>
          <leafValues>
            -4.0553534030914307e-001 5.9876483678817749e-001</leafValues></_>
        <_>
          <internalNodes>
            0 -1 82 -167775414 -1317826484 -2120004601 2047097031
            -1716857038 -1299210109 -1660199583 -1630748577</internalNodes>
          <leafValues>
            -6.2919247150421143e-001 4.0774428844451904e-001</leafValues></_>
        <_>
          <internalNodes>
            0 -1 101 -1319724129 -1714188261 1090589068 521109515
            -242244859 -81117153 -204676649 435540105</internalNodes>
          <leafValues>
            -5.6517064571380615e-001 4.1231003403663635e-001</leafValues></_>
        <_>
          <internalNodes>
            0 -1 47 -293088450 -813645696 1694581021 395612421
            -2071336744 -1977843509 898280096 -911404862</internalNodes>
          <leafValues>
            -5.3984075784683228e-001 4.6073490381240845e-001</leafValues></_>
        <_>
          <internalNodes>
            0 -1 55 -336286273 1777401653 1006041979 -1605898 1338937086
            1862197247 -10241 -1746847945</internalNodes>
          <leafValues>
            -4.6793076395988464e-001 5.3137880563735962e-001</leafValues></_>
        <_>
          <internalNodes>
            0 -1 16 -1965843752 1402542144 -1753103986 -148958964
            1241843487 -33392176 1786796186 -119089944</internalNodes>
          <leafValues>
            -5.3688675165176392e-001 5.0136256217956543e-001</leafValues></_></weakClassifiers></_></stages>
  <features>
    <_>
      <rect>
        0 1 6 1</rect></_>
    <_>
      <rect>
        0 2 2 5</rect></_>
    <_>
      <rect>
        0 2 8 6</rect></_>
    <_>
      <rect>
        0 3 5 5</rect></_>
    <_>
      <rect>
        0 8 1 2</rect></_>
    <_>
      <rect>
        0 9 1 4</rect></_>
    <_>
      <rect>
        0 10 3 3</rect></_>
    <_>
      <rect>
        0 12 1 2</rect></_>
    <_>
      <rect>
        0 15 2 2</rect></_>
    <_>
      <rect>
        0 17 3 2</rect></_>
    <_>
      <rect>
        1 1 4 3</rect></_>
    <_>
      <rect>
        1 6 1 1</rect></_>
    <_>
      <rect>
        1 9 1 5</rect></_>
    <_>
      <rect>
        1 13 1 2</rect></_>
    <_>
      <rect>
        1 14 3 2</rect></_>
    <_>
      <rect>
        1 16 1 1</rect></_>
    <_>
      <rect>
        2 0 2 3</rect></_>
    <_>
      <rect>
        2 2 2 2</rect></_>
    <_>
      <rect>
        2 2 4 7</rect></_>
    <_>
      <rect>
        2 2 5 6</rect></_>
    <_>
      <rect>
        2 4 5 5</rect></_>
    <_>
      <rect>
        2 5 3 2</rect></_>
    <_>
      <rect>
        2 6 2 4</rect></_>
    <_>
      <rect>
        2 10 3 4</rect></_>
    <_>
      <rect>
        2 14 4 3</rect></_>
    <_>
      <rect>
        2 17 2 2</rect></_>
    <_>
      <rect>
        2 21 5 1</rect></_>
    <_>
      <rect>
        3 0 6 4</rect></_>
    <_>
      <rect>
        3 1 4 1</rect></_>
    <_>
      <rect>
        3 2 3 3</rect></_>
    <_>
      <rect>
        3 2 4 4</rect></_>
    <_>
      <rect>
        3 2 5 4</rect></_>
    <_>
      <rect>
        3 5 2 4</rect></_>
    <_>
      <rect>
        3 12 6 4</rect></_>
    <_>
      <rect>
        3 14 1 2</rect></_>
    <_>
      <rect>
        3 15 4 3</rect></_>
    <_>
      <rect>
        3 16 1 2</rect></_>
    <_>
      <rect>
        3 17 1 2</rect></_>
    <_>
      <rect>
        3 18 1 1</rect></_>
    <_>
      <rect>
        3 19 1 1</rect></_>
    <_>
      <rect>
        3 21 5 1</rect></_>
    <_>
      <rect>
        4 5 3 4</rect></_>
    <_>
      <rect>
        4 6 1 1</rect></_>
    <_>
      <rect>
        4 6 5 5</rect></_>
    <_>
      <rect>
        4 17 1 1</rect></_>
    <_>
      <rect>
        4 19 1 1</rect></_>
    <_>
      <rect>
        4 21 4 1</rect></_>
    <_>
      <rect>
        5 4 2 1</rect></_>
    <_>
      <rect>
        5 5 3 5</rect></_>
    <_>
      <rect>
        5 6 1 1</rect></_>
    <_>
      <rect>
        5 6 4 5</rect></_>
    <_>
      <rect>
        5 6 5 5</rect></_>
    <_>
      <rect>
        5 7 2 3</rect></_>
    <_>
      <rect>
        5 8 2 4</rect></_>
    <_>
      <rect>
        5 12 1 3</rect></_>
    <_>
      <rect>
        5 13 4 3</rect></_>
    <_>
      <rect>
        5 14 4 3</rect></_>
    <_>
      <rect>
        5 20 5 1</rect></_>
    <_>
      <rect>
        6 1 6 4</rect></_>
    <_>
      <rect>
        6 2 6 5</rect></_>
    <_>
      <rect>
        6 3 2 2</rect></_>
    <_>
      <rect>
        6 10 4 3</rect></_>
    <_>
      <rect>
        6 12 1 1</rect></_>
    <_>
      <rect>
        6 20 4 1</rect></_>
    <_>
      <rect>
        7 0 3 1</rect></_>
    <_>
      <rect>
        7 0 5 3</rect></_>
    <_>
      <rect>
        7 3 2 5</rect></_>
    <_>
      <rect>
        7 10 2 2</rect></_>
    <_>
      <rect>
        7 17 2 2</rect></_>
    <_>
      <rect>
        8 1 2 1</rect></_>
    <_>
      <rect>
        8 13 3 2</rect></_>
    <_>
      <rect>
        8 21 3 1</rect></_>
    <_>
      <rect>
        8 21 5 1</rect></_>
    <_>
      <rect>
        9 3 4 7</rect></_>
    <_>
      <rect>
        9 8 3 3</rect></_>
    <_>
      <rect>
        9 19 1 1</rect></_>
    <_>
      <rect>
        10 1 4 1</rect></_>
    <_>
      <rect>
        10 2 3 2</rect></_>
    <_>
      <rect>
        10 5 4 4</rect></_>
    <_>
      <rect>
        10 12 2 4</rect></_>
    <_>
      <rect>
        11 1 2 1</rect></_>
    <_>
      <rect>
        11 3 3 2</rect></_>
    <_>
      <rect>
        11 3 4 6</rect></_>
    <_>
      <rect>
        11 6 3 5</rect></_>
    <_>
      <rect>
        11 20 2 1</rect></_>
    <_>
      <rect>
        12 1 4 4</rect></_>
    <_>
      <rect>
        12 5 3 4</rect></_>
    <_>
      <rect>
        12 6 3 3</rect></_>
    <_>
      <rect>
        12 17 3 2</rect></_>
    <_>
      <rect>
        12 18 2 1</rect></_>
    <_>
      <rect>
        12 21 3 1</rect></_>
    <_>
      <rect>
        14 1 2 1</rect></_>
    <_>
      <rect>
        14 7 2 2</rect></_>
    <_>
      <rect>
        14 11 1 1</rect></_>
    <_>
      <rect>
        14 11 2 3</rect></_>
    <_>
      <rect>
        14 12 3 4</rect></_>
    <_>
      <rect>
        14 14 3 2</rect></_>
    <_>
      <rect>
        15 5 2 3</rect></_>
    <_>
      <rect>
        15 6 2 1</rect></_>
    <_>
      <rect>
        15 6 2 2</rect></_>
    <_>
      <rect>
        15 10 2 4</rect></_>
    <_>
      <rect>
        15 12 1 1</rect></_>
    <_>
      <rect>
        15 13 2 2</rect></_>
    <_>
      <rect>
        15 18 1 2</rect></_>
    <_>
      <rect>
        15 20 1 1</rect></_>
    <_>
      <rect>
        16 2 2 3</rect></_>
    <_>
      <rect>
        16 15 2 2</rect></_>
    <_>
      <rect>
        17 2 2 2</rect></_>
    <_>
      <rect>
        17 12 1 3</rect></_>
    <_>
      <rect>
        17 12 2 2</rect></_>
    <_>
      <rect>
        17 15 1 1</rect></_>
    <_>
      <rect>
        17 16 1 1</rect></_>
    <_>
      <rect>
        17 17 2 2</rect></_>
    <_>
      <rect>
        18 2 1 1</rect></_>
    <_>
      <rect>
        18 3 1 1</rect></_>
    <_>
      <rect>
        18 15 2 2</rect></_>
    <_>
      <rect>
        18 19 1 1</rect></_>
    <_>
      <rect>
        19 2 1 2</rect></_>
    <_>
      <rect>
        20 17 1 1</rect></_>
    <_>
      <rect>
        21 4 1 2</rect></_>
    <_>
      <rect>
        21 4 1 4</rect></_>
    <_>
      <rect>
        21 8 1 2</rect></_></features></cascade>
</opencv_storage>
